
//<![CDATA[

// a few things don't have var in front of them - they update already existing variables the game needs
lanesSide = 3;
patchesAhead = 30;
patchesBehind = 10;
trainIterations = 500000;

var num_inputs = (lanesSide * 2 + 1) * (patchesAhead + patchesBehind);
var num_actions = 5;
var temporal_window = 0;
var network_size = num_inputs * temporal_window + num_actions * temporal_window + num_inputs;

var layer_defs = [];
layer_defs.push({
    type: 'input',
    out_sx: 1,
    out_sy: 1,
    out_depth: network_size
});
layer_defs.push({
    type: 'fc',
    num_neurons: 24,
    activation: 'relu'
});
layer_defs.push({
    type: 'fc',
    num_neurons: 24,
    activation: 'tanh'
});
layer_defs.push({
    type: 'fc',
    num_neurons: 18,
    activation: 'relu'
});
layer_defs.push({
    type: 'fc',
    num_neurons: 18,
    activation: 'tanh'
});
layer_defs.push({
    type: 'regression',
    num_neurons: num_actions
});

var tdtrainer_options = {
    learning_rate: 0.0005,
    momentum: 0.0,
    batch_size: 128,
    l2_decay: 0.01
};

var opt = {};
opt.temporal_window = temporal_window;
opt.experience_size = 100000;
opt.start_learn_threshold = 50000;
opt.gamma = 0.95;
opt.learning_steps_total = 500000;
opt.learning_steps_burnin = 1000;
opt.epsilon_min = 0.0;
opt.epsilon_test_time = 0.0;
opt.layer_defs = layer_defs;
opt.tdtrainer_options = tdtrainer_options;

brain = new deepqlearn.Brain(num_inputs, num_actions, opt);

learn = function (state, lastReward) {
    brain.backward(lastReward);
    var action = brain.forward(state);

    draw_net();
    draw_stats();

    return action;
}

//]]>
    
/*###########*/
if (brain) {
brain.value_net.fromJSON({"layers":[{"out_depth":280,"out_sx":1,"out_sy":1,"layer_type":"input"},{"out_depth":24,"out_sx":1,"out_sy":1,"layer_type":"fc","num_inputs":280,"l1_decay_mul":0,"l2_decay_mul":1,"filters":[{"sx":1,"sy":1,"depth":280,"w":{"0":0.04211107689268995,"1":0.006702289526216163,"2":0.024226751460789637,"3":0.1454159046705064,"4":0.053115654695913964,"5":0.014045148320125178,"6":0.03773319894098645,"7":-0.05484210301535509,"8":-0.06485037963528517,"9":0.089055914185232,"10":0.00017472818400339512,"11":0.09075439827897401,"12":-0.06339730942867336,"13":0.007672584047100389,"14":0.008363950264445379,"15":-0.0632912062728581,"16":0.00553943430611719,"17":0.0434282001759912,"18":0.016825385252512443,"19":-0.0006165613617629899,"20":0.05024893949239411,"21":0.036252002980799634,"22":0.06217973204758173,"23":0.024841314451135344,"24":-0.024837736139736038,"25":-0.0038189118442869775,"26":-0.040591143401962605,"27":-0.02016381247340654,"28":0.03697428722689513,"29":0.022247145900241565,"30":0.1751335085709469,"31":0.19806253626038994,"32":-0.11118203973235165,"33":-0.03598465603541189,"34":0.11375434425520502,"35":0.016172637661996635,"36":0.03344424796262082,"37":0.054352240288876454,"38":0.045996398368557,"39":0.05845892862557918,"40":-0.01612213069673511,"41":0.01945429517151336,"42":0.0916272800272811,"43":0.03855418024513565,"44":0.013997333196550346,"45":0.12457457105212828,"46":-0.023366675644078252,"47":-0.08397998298333685,"48":0.04257185525674764,"49":0.01729036332368754,"50":0.024604056379250196,"51":0.06057250550739764,"52":0.06384076396769077,"53":-0.03609142624228746,"54":-0.12354152678091776,"55":0.010730156321022874,"56":0.08776269953730627,"57":0.01754417461273148,"58":0.12945525237382424,"59":0.22770405350768522,"60":0.024500900676810326,"61":-0.0029679949666790127,"62":0.04092074327191604,"63":0.02696431040653043,"64":0.07220238280901288,"65":0.0673237955207782,"66":0.2388141835249004,"67":-0.039403271581330536,"68":0.0312315124869012,"69":-0.0048269811160342735,"70":0.032077291937123185,"71":0.045106864645043585,"72":0.04751918567825369,"73":0.18860912674995853,"74":-0.08199937251424826,"75":-0.021143851690642628,"76":0.03526920877222945,"77":0.028848727679339724,"78":0.02183226260398376,"79":0.15026255384975226,"80":0.21555782269804408,"81":-0.09834259102635746,"82":0.007371920246407489,"83":0.048600062678058824,"84":0.05014218394263559,"85":-0.013575301524490643,"86":0.17944287222348393,"87":0.3514485819695389,"88":-0.009020472340016563,"89":0.09090590147891961,"90":0.0862961563741892,"91":0.12938978972924536,"92":0.09301500314017198,"93":0.004509512019399763,"94":0.25111453559476404,"95":-0.05245063936200748,"96":0.06293509505191691,"97":-0.006571146931259735,"98":-0.03627223310299694,"99":0.038794008280430614,"100":0.12957071624390618,"101":0.23656590509869857,"102":-0.09945399333046213,"103":0.06187323503102861,"104":0.1229533396843104,"105":0.010762529917216547,"106":0.07628703296505138,"107":0.10010297341546076,"108":0.08381282595473243,"109":-0.07348146063965748,"110":-0.01505804934319881,"111":0.03736442351921972,"112":-0.014383800694446022,"113":-0.01125390774602876,"114":0.0513633636852793,"115":0.394249572019367,"116":-0.04940017011310077,"117":-0.01844426578256207,"118":0.019033836767004098,"119":-0.0097818588498701,"120":0.023418163666131753,"121":0.17277673810993882,"122":0.17424654339522386,"123":-0.09819326576982768,"124":-0.06055916140614668,"125":0.012466453504802372,"126":-0.059521182979915585,"127":-0.03470573455775668,"128":0.13117068532235943,"129":-0.10238125692374753,"130":-0.13969346569170277,"131":0.013779493178426023,"132":0.040326458587918335,"133":-0.04850379225137193,"134":0.10102361963169237,"135":0.0976809268057273,"136":-0.31206676168266795,"137":-0.11027722509352277,"138":-0.0510143329221888,"139":-0.0036327611459860986,"140":0.014493811300624436,"141":0.06738328542739627,"142":0.23184868450370663,"143":-0.5365237901094664,"144":-0.10568087382444231,"145":-0.06121421462721344,"146":0.03769196328281576,"147":-0.018381329902068654,"148":0.019814841702679414,"149":0.05987599982703643,"150":-0.5143891282491496,"151":-0.14337150316108363,"152":0.037415218319752405,"153":0.04276002871313735,"154":-0.057198380588763795,"155":-0.03360360382844776,"156":0.05654885331205754,"157":-0.2639245324635482,"158":-0.19772493574725147,"159":0.0012903788321401454,"160":0.05264119716179161,"161":-0.10989741384831496,"162":-0.07388025102183812,"163":-0.03686805326116933,"164":-0.10128446305041346,"165":-0.19831428638798881,"166":-0.009548481346354755,"167":0.036226540428086776,"168":-0.018100902932497196,"169":0.08881100064755096,"170":-0.09421625874358971,"171":-0.5896810972277525,"172":-0.13280639030227145,"173":0.07883191596827342,"174":0.07460524669027875,"175":0.033323014475892886,"176":-0.11965165824713205,"177":-0.037606687479485916,"178":-0.3101541993263535,"179":-0.043539975793551254,"180":0.04316840171962407,"181":0.04253896637030399,"182":-0.0257609296069696,"183":-0.046217373556795296,"184":-0.10164488860441004,"185":-0.33991004982753875,"186":0.04837659928824186,"187":0.0789724696306387,"188":0.01438328362061499,"189":0.02313860828663277,"190":-0.08030112505883306,"191":-0.11165006343497565,"192":-0.3369088143784023,"193":0.02648055474026364,"194":0.009455782989177985,"195":0.04240385788323723,"196":-0.05132377410187771,"197":-0.10914238714116155,"198":-0.17058671820752172,"199":-0.0420096964440861,"200":0.08949364546798329,"201":0.07425051484453747,"202":-0.028970633336741117,"203":-0.0306172793002584,"204":-0.03988841926887811,"205":-0.1260967145781904,"206":-0.1595495959209966,"207":0.04335421569350152,"208":0.04350626861132789,"209":0.0017576690429264334,"210":-0.06501496518704712,"211":-0.06369379168161307,"212":-0.209119756862488,"213":0.10738917596030229,"214":0.16462512678916952,"215":0.08097573566265635,"216":0.04820766577812873,"217":0.0013157029483350266,"218":-0.11301181272201655,"219":-0.21648528352718388,"220":-0.027668940458887323,"221":0.22634938363105828,"222":-0.004999284260412909,"223":-0.03777975236014951,"224":-0.03948904779286673,"225":-0.05010650241712568,"226":-0.2509567939644287,"227":-0.01210129473721603,"228":0.2924209973067414,"229":0.07973090293121002,"230":-0.03789454868584157,"231":0.013348042569426545,"232":-0.04470270217695625,"233":-0.32136090953848295,"234":0.08740054465023644,"235":0.2405622813482506,"236":0.04904349911036381,"237":-0.051821543047217276,"238":-0.019917661456001254,"239":-0.04168937430879822,"240":-0.25764834153915644,"241":0.231451213159007,"242":0.3259808670431677,"243":-0.010605697567856072,"244":0.004652224911582432,"245":0.10597941937988396,"246":-0.04756610607094323,"247":-0.1506290959352149,"248":0.25018937172592615,"249":0.14146208570268204,"250":0.025299778621603604,"251":-0.07537599833088722,"252":0.09044456668344299,"253":-0.016900685920926507,"254":-0.10662020739722876,"255":0.24533326784561432,"256":0.10253255095694402,"257":-0.032787894072671984,"258":-0.043794851625875014,"259":0.019231393000777426,"260":-0.06235024091952904,"261":-0.036205493325296316,"262":0.10881384176727435,"263":0.05568887452570138,"264":0.013282698677365676,"265":-0.008014083542156712,"266":0.017010335891160862,"267":0.041740081464919594,"268":0.011884712674413196,"269":0.05292029174604706,"270":-0.021497767289710205,"271":0.1064315425963281,"272":-0.0660668947872859,"273":0.09708059298912644,"274":-0.0074668136323039,"275":-0.05523742193714905,"276":0.03970701334092905,"277":0.005599510893566531,"278":-0.11170817000797306,"279":-0.014122683654661515}},{"sx":1,"sy":1,"depth":280,"w":{"0":-0.025896949632278985,"1":0.03468785956956298,"2":0.0374017334075934,"3":-0.08610600654669195,"4":-0.00020714158168466386,"5":0.017704306558155945,"6":-0.014696253115004982,"7":-0.00304239478186561,"8":0.047327825662807126,"9":0.03704803655164178,"10":-0.023604115295682862,"11":0.062089343036582735,"12":-0.018601091122086497,"13":0.04867279614529388,"14":0.0312181610688938,"15":0.038635560612304574,"16":-0.03498896124223323,"17":-0.04801281198272222,"18":0.08849859806996502,"19":-0.009607428867636096,"20":-0.030750312710536694,"21":-0.004722014819696806,"22":0.024860905161444895,"23":-0.0031473861904856657,"24":-0.04375228719459574,"25":0.04821215660999322,"26":-0.013864568646514471,"27":-0.003680848597278581,"28":0.024545129921941633,"29":0.043099750376467585,"30":0.07518286399002314,"31":0.03206656261465556,"32":-0.018066602317638843,"33":-0.02164270017601336,"34":-0.015906892446612718,"35":0.031701015246078254,"36":0.00913412287763567,"37":0.044569689109064545,"38":0.002163099748426171,"39":-0.014370426557972727,"40":-0.0025016766967401447,"41":-0.02065890792077977,"42":0.015071814655716437,"43":0.023248089612299534,"44":-0.0009166799921915043,"45":-0.026553347300364936,"46":-0.0048488319874917625,"47":0.01998636222723191,"48":0.002529530274556037,"49":-0.04439900184067784,"50":-0.011745045769088512,"51":-0.0018615852289002688,"52":-0.017732613109728602,"53":0.006873103692780137,"54":-0.004220418621295388,"55":-0.060203575117845166,"56":0.016904900493672846,"57":-0.06206339730314026,"58":0.09515503240138642,"59":-0.0005800338275151939,"60":0.010572931480022786,"61":-0.0067162780563688705,"62":0.06300137171873792,"63":0.04839606636306958,"64":0.025168018715013715,"65":0.06430781506597802,"66":0.12193187800674708,"67":0.10178500221522742,"68":-0.044764320694010255,"69":-0.017919197130129644,"70":-0.014105956000297494,"71":-0.03938025354595858,"72":0.0963082828474625,"73":0.06575960916513272,"74":0.06202131393623815,"75":-0.03852945758939982,"76":0.061040477212427176,"77":0.1106911423793146,"78":0.04893266048038247,"79":-0.017410764650863265,"80":-0.03182797572398827,"81":0.032924338523970684,"82":0.03163636043751619,"83":-0.028759397106459014,"84":0.047945166996336386,"85":-0.061494686809672204,"86":0.17175159332877657,"87":-0.07136188840763488,"88":0.04741384055663694,"89":0.014044744806501891,"90":0.06261465799041611,"91":0.02948887699731831,"92":0.09605693755585623,"93":-0.002439929008295561,"94":-0.013584407344058271,"95":0.10747047414145461,"96":0.05203557873149202,"97":-0.0037250832742968323,"98":-0.003961420038903523,"99":0.05138580625523703,"100":0.10684965831825809,"101":0.10523434130341439,"102":0.09131288126356303,"103":0.007284594221119354,"104":0.053128235757445734,"105":0.06939402546672223,"106":-0.07146234949822526,"107":0.08922195539371265,"108":0.21023044119643972,"109":0.016980049766583932,"110":0.043692822940415196,"111":0.014285402168839235,"112":-0.014212450392582385,"113":0.029430388714479713,"114":0.10710304766159694,"115":-0.07900255168715759,"116":0.132939306491092,"117":-0.05563734705776112,"118":0.001196643392684938,"119":-0.0015545824143474952,"120":0.06498935373627189,"121":0.032830434941501827,"122":0.1336364128531874,"123":0.0327821610926629,"124":0.007097405663444422,"125":0.025545961174361666,"126":-0.014530572893392749,"127":-0.042321810791443926,"128":0.107827259782505,"129":0.3220635927549321,"130":0.06173176725121555,"131":0.05320606399518384,"132":0.007549118152034054,"133":0.03515545820893174,"134":-0.003845003097248739,"135":0.06347805711237954,"136":0.34750138070853287,"137":-0.005398195539304527,"138":0.005186528711855037,"139":0.0035960267570562835,"140":0.07941432680552026,"141":0.033270609920292474,"142":0.009920652257633118,"143":1.160867245481017,"144":0.12098758001846799,"145":0.0020641362217797454,"146":0.022632008983087322,"147":0.029934133781065835,"148":0.08802493172019366,"149":0.0492026522608166,"150":0.8572023818614604,"151":0.042998520961803614,"152":0.030479765166402672,"153":-0.08282530759143794,"154":-0.033446298349452556,"155":-0.027969070834840758,"156":0.00408235411645639,"157":0.6494799330038722,"158":-0.1245374703196586,"159":0.026400758637623832,"160":-0.009126610891167583,"161":-0.0565582909185955,"162":-0.032619568041107355,"163":-0.00573378542953963,"164":0.8741057663049121,"165":0.04652113305753483,"166":-0.07218924739526991,"167":0.024549099351377057,"168":0.026771232493100983,"169":-0.03872596526618893,"170":0.09846774318687918,"171":1.4364669922064532,"172":0.17086876337380608,"173":-0.030299986092608422,"174":0.07439045075225872,"175":0.021634293103921808,"176":0.03777445452091245,"177":0.1369636352207864,"178":1.3632338726289785,"179":0.10050516403832359,"180":0.07160895805521396,"181":0.01016823417590395,"182":-0.0028062348331666593,"183":0.008865892026222122,"184":0.14532997832602154,"185":1.1098430823401606,"186":0.1981907632051247,"187":-0.055444246592511244,"188":-0.012433691318791549,"189":-0.05818978886516805,"190":-0.005071332814794299,"191":-0.00103707793558893,"192":0.34926591272262364,"193":0.03692340552859574,"194":-0.027706675790894954,"195":-0.05038400646109599,"196":0.02042599987941808,"197":-0.05277623526736354,"198":0.1240826436788485,"199":-0.8229867567984016,"200":0.16417596871025675,"201":0.00455191002662264,"202":-0.0026684548360161103,"203":-0.017966167948249616,"204":-0.01632992023631705,"205":0.04812878706493541,"206":-1.2051919988378281,"207":0.0711457385289581,"208":0.03775560106086478,"209":0.00929486303650495,"210":-0.04328438598454042,"211":-0.08144866814688323,"212":0.12600927410659868,"213":0.01611723526300888,"214":0.05169130328151181,"215":-0.06408840859969317,"216":-0.0577852366892874,"217":-0.0175120682423017,"218":-0.023372714281395094,"219":-0.011037980664876284,"220":0.052432220082252616,"221":-0.008183948845356292,"222":0.013993799195452076,"223":0.04711081493122297,"224":-0.021547498442041103,"225":-0.052682540490729415,"226":-0.0538272496748231,"227":0.1784545171566989,"228":0.028028601777236217,"229":-0.05446870646561848,"230":0.02441313507476955,"231":-0.027770817371619724,"232":-0.08230073173393815,"233":-0.08544982634059273,"234":0.028929403911558762,"235":-0.11350664992158065,"236":0.06955156824184192,"237":-0.039585809232957646,"238":-0.08035459231924207,"239":-0.014697441688756176,"240":-0.2641732241107482,"241":-1.190003778015837,"242":-0.2493097947279524,"243":-0.04168495709334709,"244":-0.055782279730507214,"245":0.033704244902899805,"246":-0.06948460518770952,"247":-0.2497446065104604,"248":-1.2316488613439616,"249":-0.27493314936108654,"250":-0.03246223739969288,"251":-0.00356280258183614,"252":0.05867135104202727,"253":-0.0020025400765000564,"254":-0.14696605640740568,"255":-0.8903652155939747,"256":-0.21280519398648448,"257":0.027798493940282998,"258":-0.003268253710893658,"259":-0.021347231466926648,"260":-0.07522883995951829,"261":-0.1902145293179138,"262":-0.022633416560955837,"263":-0.18090478457623155,"264":0.0073459055263852945,"265":0.08906970064344913,"266":-0.09703745886584358,"267":-0.026552460026963976,"268":-0.22901640616626243,"269":-0.10897397086015004,"270":-0.06392076604988785,"271":0.0009584572441455202,"272":-0.07175425784716614,"273":0.08820082903651516,"274":-0.014455181874202402,"275":-0.17221769742682297,"276":-0.15623524736762076,"277":-0.2543668633410029,"278":-0.024222573327092715,"279":0.003558382915712933}},{"sx":1,"sy":1,"depth":280,"w":{"0":-0.018279644197685924,"1":-0.009220552868799664,"2":-0.008182108694457454,"3":-0.015900369724926984,"4":-0.020034313856787028,"5":-0.0021746270829135998,"6":-0.04547322678876484,"7":-0.15177176111053509,"8":0.022646950287600384,"9":0.028408150890959716,"10":0.056015432858792825,"11":-0.08458035634991037,"12":0.02467795901928755,"13":0.021630181174464677,"14":-0.034100095388239424,"15":-0.07203021313039844,"16":0.01876660960601996,"17":0.0017007674040226922,"18":-0.004803635512087622,"19":0.04442829745937789,"20":-0.012383273694150975,"21":0.049636745344134425,"22":0.08648188277578404,"23":0.010513742810665591,"24":0.018848714522768237,"25":0.03489588173352783,"26":-0.047142029673311915,"27":-0.06672658734545164,"28":0.0003921753199296459,"29":0.0187561637357014,"30":0.037478768098093286,"31":0.019178859688383947,"32":-0.11016211747012719,"33":0.0470636621642523,"34":-0.0236456611338547,"35":-0.07407922781838645,"36":0.01061811931933248,"37":0.028429715052734374,"38":-0.0887496956281638,"39":0.008675256849032042,"40":0.040088864423984676,"41":0.07313767839482573,"42":0.03501393142721594,"43":0.02646371532139009,"44":0.03673113234123968,"45":-0.025309163112195828,"46":-0.052504036521651726,"47":0.09237155311758946,"48":-0.09073631095088673,"49":0.04209976550874315,"50":0.008293745636533971,"51":-0.0471483407387217,"52":0.02789540462730528,"53":-0.017611884572656687,"54":-0.05364769153234698,"55":0.06701853558146192,"56":0.11716524937540844,"57":0.08788081715243326,"58":-0.07435412118403649,"59":0.10033355260085422,"60":0.07382602035863524,"61":0.03442695679429901,"62":0.033751946349219485,"63":0.07807537965735246,"64":-0.08944895699623398,"65":-0.09440485049725904,"66":0.01292239729022982,"67":-0.07035279636247734,"68":-0.0040998715545571725,"69":0.035672286204495855,"70":0.04134154019620764,"71":-0.00321806323094279,"72":-0.04047155443683986,"73":-0.14097211941794477,"74":0.02197331266032395,"75":-0.055177461939042174,"76":0.05243514456404634,"77":-0.1094323935122652,"78":-0.019611127522152615,"79":0.04009457393835567,"80":0.04402993453239971,"81":-0.00821232451442629,"82":0.01275958951133083,"83":-0.005844519191328866,"84":-0.03324978883611515,"85":0.012893059215683747,"86":-0.06515335699100916,"87":-0.02313056919080685,"88":-0.06089968762958235,"89":-0.059525206607520996,"90":0.020928988936683223,"91":-0.020464602313888934,"92":-0.1662431573084008,"93":0.05427401823120394,"94":0.06626746066382307,"95":0.005029725636412361,"96":-0.036792165174635724,"97":0.0937576730561812,"98":0.024780878367177014,"99":-0.014712352291461625,"100":-0.07617182930502772,"101":-0.04899686755887158,"102":-0.06250980075464699,"103":0.011145926385777319,"104":-0.022543185705434468,"105":0.02052289630004369,"106":-0.030998858136415855,"107":-0.0471259047446127,"108":-0.054109515127272044,"109":0.006945334527456922,"110":-0.03524829986854651,"111":0.04209757080244458,"112":0.011659480615655375,"113":-0.07170464661306986,"114":0.008244375952682658,"115":0.05884140953395037,"116":-0.09083660834706397,"117":0.05583801042082296,"118":0.028516924802156042,"119":0.019962706923315754,"120":-0.008577962536677062,"121":0.025370150827152386,"122":0.029758907738359208,"123":0.08427559447150759,"124":0.029040273429187354,"125":0.004098289292822979,"126":0.016177162458835576,"127":-0.03797511625387258,"128":-0.04079244250476347,"129":0.02660317845981934,"130":0.0139339188942284,"131":0.0003690432248169856,"132":0.08279076828196504,"133":-0.07656040422836352,"134":-0.023942118159000114,"135":-0.09275404344331763,"136":0.05444067444934169,"137":-0.012143917793862894,"138":0.03513344970226337,"139":-0.0367848946875944,"140":0.04495594987691826,"141":0.042829444677279366,"142":0.02780587024809677,"143":-0.03792009429437251,"144":-0.10450791577802102,"145":0.032470318483079345,"146":-0.1191695228518927,"147":-0.0019392573979543034,"148":0.06334748527416469,"149":-0.03316070208197696,"150":0.01266177180946171,"151":-0.0016704444122298207,"152":0.011207364886785478,"153":-0.0015506770931059712,"154":0.09236923880993231,"155":-0.02070002096669736,"156":0.04724500050221239,"157":-0.010075564944725607,"158":-0.02954354542107631,"159":0.0010978616445208422,"160":0.0151246831721869,"161":-0.15419566082784444,"162":-0.052039057994009104,"163":0.03979414293808092,"164":0.024940377573504226,"165":0.05832612955708823,"166":-0.10044395200784267,"167":0.05892692742440041,"168":0.0154441094183687,"169":0.025467086861516858,"170":0.10517457455808664,"171":-0.010912371747668185,"172":-0.10287128534091472,"173":-0.018746400728782697,"174":-0.013367340452203167,"175":-0.028142471959461412,"176":-0.009916105793581884,"177":0.07279272523581258,"178":-0.0353051632510417,"179":-0.046596369013391356,"180":0.026785280093821105,"181":-0.0449988830105904,"182":-0.0038489677024712505,"183":-0.0018923443938719045,"184":0.04441103405964325,"185":-0.006770998453734712,"186":0.08834250893066399,"187":-0.007782422352858797,"188":0.037147233421623384,"189":0.009617116231907646,"190":0.009033968759099347,"191":-0.07199734609796889,"192":-0.05950601661728751,"193":-0.055016351754522685,"194":0.00016096458873214353,"195":-0.033356448997665135,"196":-0.04693963503346515,"197":0.033627019476766225,"198":-0.03167483701273907,"199":-0.018634719054672993,"200":-0.12668455933807413,"201":-0.0632965002904967,"202":-0.01615975781617726,"203":-0.0582583628755859,"204":0.01550352580035052,"205":0.0009981601760927772,"206":-0.047336429228690934,"207":0.007961414269383875,"208":-0.015683542643503513,"209":-0.09839811412724449,"210":-0.036315146672623165,"211":0.04952242344764811,"212":0.021412747496158412,"213":0.01899490480905486,"214":-0.09639929122729257,"215":-0.11103254780568693,"216":-0.022100930147246668,"217":0.07242808998661297,"218":-0.11851288461011132,"219":0.049047312026710886,"220":-0.0458075515354976,"221":0.0862884903388087,"222":-0.015720141494056566,"223":0.011571244864626505,"224":-0.004050073324507418,"225":-0.07545032686131217,"226":0.026128681783251295,"227":-0.010988710913354566,"228":0.015612118497176844,"229":0.011003119758639417,"230":0.09567423953008651,"231":0.005698498068354918,"232":-0.04888472363076808,"233":-0.05361789012562042,"234":-0.18682907959858408,"235":0.06956844009960804,"236":0.14694932639783084,"237":0.007740421240587554,"238":0.06669758355101293,"239":0.022796022416077026,"240":-0.00611245603433548,"241":0.042477247742121575,"242":-0.011937186248368063,"243":0.012237026119201437,"244":-0.04885600893284365,"245":0.04819019540317881,"246":0.010034148413102285,"247":0.011756238293206338,"248":-0.0720189229607273,"249":-0.021003583728210994,"250":0.0910440804029735,"251":0.05492972737104977,"252":0.08407819187970007,"253":0.07142351752754586,"254":0.0068701115629651345,"255":-0.01059574029355634,"256":-0.03254132341912477,"257":-0.08148629040471313,"258":-0.012182912487080873,"259":-0.04509345217002057,"260":-0.1832991011696596,"261":-0.04681099957775978,"262":-0.05721957494674568,"263":-0.04389705120402401,"264":0.007687391856823622,"265":-0.024205886689185607,"266":0.02008789340850348,"267":-0.051349690825386096,"268":0.09277199093257595,"269":0.03808256539541445,"270":-0.13169391814757622,"271":-0.029410937111817022,"272":0.15333972888768,"273":0.05284429142517107,"274":-0.026360935789875757,"275":0.05929494158794027,"276":-0.0832295601970538,"277":-0.03965836400006337,"278":0.012159200808316378,"279":0.002738141676410428}},{"sx":1,"sy":1,"depth":280,"w":{"0":0.0640428797235495,"1":0.056262882449125855,"2":-0.04119074743118755,"3":-0.015825032074634895,"4":-0.10196314566259998,"5":0.13900944791121117,"6":-0.09027898846451664,"7":0.01757035896336166,"8":-0.09604759576428369,"9":0.12112431366673718,"10":0.005033855028920526,"11":-0.0674660945368947,"12":0.023000991158613183,"13":0.03419207547503124,"14":0.011442174306621476,"15":0.009998433204902938,"16":-0.06639274044142508,"17":-0.030953729225924324,"18":-0.04543959975347813,"19":0.05114873517005665,"20":-0.02419794170516842,"21":0.0643950344616983,"22":0.018390809254243745,"23":-0.00396214328501232,"24":-0.01908907516599356,"25":-0.17035439256409124,"26":-0.012571999652609278,"27":-0.18300327628985064,"28":0.0825310135047332,"29":0.005108693734248047,"30":0.0237829670512472,"31":-0.019065797374657127,"32":-0.02395179435859706,"33":0.0960423512867383,"34":0.05249601467364835,"35":0.004492478973771141,"36":-0.04080619044276203,"37":0.038428698903329415,"38":0.002383584747229145,"39":-0.11477012375546884,"40":0.006697351884002617,"41":-0.005301300749072042,"42":0.11214786612062581,"43":-0.09887795425743061,"44":0.014110124405360889,"45":-0.04651162985404622,"46":-0.021574544292792302,"47":0.04205795998206492,"48":0.016434759968676993,"49":0.016141214092468777,"50":-0.07968684887812885,"51":-0.07285722806305549,"52":-0.10067212673632747,"53":-0.1312927267831911,"54":0.0486002752231021,"55":0.0309950322804629,"56":-0.013794514492942132,"57":-0.025940231617624075,"58":0.07655383261509015,"59":-0.11882223447579325,"60":-0.06780859395802284,"61":0.1199045414115924,"62":-0.018226857154455454,"63":0.05610183174913699,"64":0.04555993373636355,"65":0.030610399278725366,"66":-0.14719600169156896,"67":-0.07614156209421245,"68":0.08206800731590808,"69":0.02974703050555209,"70":-0.0081344472296321,"71":0.05670749028806482,"72":0.06995048176233704,"73":-0.060502825601386354,"74":-0.0848834035774187,"75":0.04939984506046857,"76":-0.0704438791200406,"77":-0.04893468183265412,"78":-0.024880453256451714,"79":-0.030066403309842425,"80":-0.10500208386486261,"81":-0.1584559362901697,"82":0.028700549687121078,"83":0.06893443640141692,"84":-0.0747798593599794,"85":-0.0692763261086899,"86":-0.020068644875215313,"87":-0.10686272327614367,"88":-0.10596184777901567,"89":0.13309908363701098,"90":0.06543406108307102,"91":-0.016282489055658402,"92":-0.1355523758928919,"93":-0.02535371499594374,"94":-0.11059358807618025,"95":-0.0364927545113826,"96":0.03995554100960184,"97":0.05813057110432144,"98":-0.0008659710046645065,"99":-0.08739685604961622,"100":0.08820377019622812,"101":-0.15819044639895163,"102":0.022655683492673696,"103":0.11708135490097077,"104":0.07032625111090976,"105":0.010491166067563703,"106":-0.18716899535430284,"107":-0.04584914139662262,"108":-0.056805142370671254,"109":-0.10543256118749873,"110":0.043755342653518124,"111":0.002250294245206182,"112":0.035019450964376295,"113":0.040437304171014744,"114":0.13043577567479986,"115":-0.2075342264073368,"116":-0.14958512018377243,"117":0.12969814184987924,"118":0.018574210701820026,"119":0.059474091425927585,"120":-0.08606955460016595,"121":-0.06645326778866135,"122":-0.028733880284268237,"123":-0.14633899565252398,"124":0.0688027024086202,"125":-0.05155154608357129,"126":0.014283912525163015,"127":-0.013589869149368656,"128":-0.06405792427185643,"129":0.0102451142280846,"130":-0.05998893950244045,"131":0.007373826925688707,"132":0.05503496230732373,"133":0.0008122189110443245,"134":-0.02088033273943324,"135":0.05132566024835313,"136":0.04694001521537487,"137":0.005057816920873663,"138":0.18603493001182866,"139":0.029658073935081405,"140":0.14773850187395085,"141":-0.07757411257197738,"142":-0.15366798751836078,"143":0.19543028463891077,"144":-0.0834631074186446,"145":0.016682035005205976,"146":0.035100678743553354,"147":0.005658921202654623,"148":0.01237500579353698,"149":-0.12748426725508233,"150":0.24836090483327766,"151":0.019351241780361243,"152":0.08587615843528733,"153":-0.05176400975067631,"154":0.13015996718626754,"155":-0.10626631307478043,"156":-0.0677442888800902,"157":0.31590648619255884,"158":-0.0555239943346998,"159":0.029256031288728737,"160":0.1194943792792478,"161":0.0027721291179723206,"162":-0.16255467699091353,"163":-0.17192483162082864,"164":0.06850137224224345,"165":0.021743333266213746,"166":0.1411565657293558,"167":0.0070167418029567176,"168":-0.11733638046792133,"169":0.051864791447784664,"170":-0.20496749626987507,"171":0.10329469932671778,"172":-0.07616087613021602,"173":0.010215133819907032,"174":-0.02127325650137575,"175":0.06773871098732913,"176":-0.021397307515342013,"177":-0.06306292350880058,"178":0.18648677444632997,"179":0.028150423048019017,"180":0.1487654159472516,"181":-0.04905283297987651,"182":0.12291601624722102,"183":-0.024439972732542743,"184":-0.04155336358102801,"185":-0.028490715787847235,"186":-0.068120338851273,"187":0.09221359123402414,"188":-0.026912899474611948,"189":0.014668142090731823,"190":-0.11869538030200436,"191":0.04460958459733697,"192":-0.023689517786223867,"193":-0.004380594126462041,"194":-0.0018793210021088222,"195":0.049163828575542794,"196":-0.05166591987955659,"197":-0.02178186652424295,"198":0.07971711041829571,"199":-0.031312716619576596,"200":-0.1014107696621262,"201":0.06667824970991924,"202":0.00014622565487190593,"203":0.08894746697408372,"204":0.06699398262069918,"205":-0.04942934409219271,"206":-0.017334059889985234,"207":-0.1222069712018893,"208":0.11172910849731832,"209":0.021392121468630575,"210":0.07915563131456456,"211":0.0369361220388743,"212":-0.06724892091331146,"213":0.09021348377354722,"214":-0.04391386074975061,"215":-0.0019709653031288643,"216":-0.07649580676561171,"217":-0.018448218229459572,"218":0.02922271432880893,"219":0.016833362832359942,"220":0.00024838956692760486,"221":-0.1308592494366829,"222":0.08844918349972666,"223":-0.11231607449872344,"224":0.027879451499732612,"225":0.004621740701593945,"226":-0.036341426535132365,"227":0.05113729867602828,"228":-0.10791481082274337,"229":-0.07365812639330775,"230":0.06663862257701428,"231":0.06937872411035233,"232":0.05355410499459706,"233":0.1312358761707839,"234":0.10318185656530451,"235":-0.13402464101099923,"236":-0.0008892795934205615,"237":0.053716110239723204,"238":0.05540348234749379,"239":-0.058975971556871315,"240":-0.044914756638809145,"241":-0.05735854464090597,"242":-0.06400491036921674,"243":-0.028409342968801116,"244":-0.05039215378817845,"245":0.09242959276705066,"246":-0.007427127902607667,"247":-0.08988077484687312,"248":-0.10281042374941117,"249":-0.1608703756728598,"250":-0.04191928003307904,"251":0.029772201951957525,"252":0.028626237034856096,"253":0.014017053448828195,"254":-0.01685224351249369,"255":-0.04737084378830356,"256":-0.11252901718427,"257":-0.06414478216261382,"258":0.07893261202354725,"259":0.012886721293694838,"260":-0.016146705435989325,"261":-0.011521163288998593,"262":0.09275218031868329,"263":-0.06251612303764703,"264":0.015440234869361972,"265":-0.02164248784864056,"266":-0.0006213014367246216,"267":-0.0143767835882355,"268":-0.05826370350667508,"269":-0.011948247271442322,"270":0.02529163065009399,"271":0.07820421879198507,"272":0.05075205458006306,"273":-0.021673091870414923,"274":-0.01342328704410135,"275":0.024651687724422614,"276":-0.0724819276672163,"277":-0.06586596514778778,"278":0.03768296306133688,"279":-0.07203643410034132}},{"sx":1,"sy":1,"depth":280,"w":{"0":0.07439335763380582,"1":0.024681138794591224,"2":-0.042712775871530814,"3":0.01254394529371899,"4":0.005915072911196152,"5":0.04771863877969487,"6":0.025106606698673185,"7":-0.025546009392644637,"8":0.07370367885249882,"9":-0.03607687428968789,"10":0.01553648949186448,"11":0.04412568536537003,"12":0.044018247157523525,"13":-0.006631150202076308,"14":-0.016938132016817566,"15":-0.03452231755069134,"16":-0.06583712157065381,"17":0.014656999074701194,"18":0.025448598433201155,"19":-0.080317709324948,"20":-0.030758400240042182,"21":0.06776918337312837,"22":0.010927183711733533,"23":-0.05792750535142126,"24":-0.004372288891303545,"25":-0.0384999150273063,"26":0.025700420327625328,"27":-0.06201734924814515,"28":-0.03330731333397582,"29":0.006338328856939637,"30":-0.025451878791234766,"31":0.0287506627144039,"32":-0.005289870032748663,"33":0.05939757217276121,"34":-0.08155349768183513,"35":-0.062393452859750745,"36":-0.031035376813769486,"37":-0.11846584236358304,"38":0.08662379189890738,"39":0.008722439690910007,"40":0.019553729889241516,"41":0.013306463681323556,"42":0.07848971647383662,"43":-0.03248880229234936,"44":-0.11669157134780046,"45":0.0019299556206045004,"46":-0.029361730452939768,"47":0.047769131952143794,"48":-0.03845148154693206,"49":-0.056789085395526115,"50":-0.06014210777505257,"51":-0.15124954362748244,"52":0.07957557044208093,"53":-0.07684309687651918,"54":-0.06804633424652183,"55":-0.0018593067894320846,"56":0.023157445206875713,"57":-0.04727250493755959,"58":-0.07050245312927739,"59":0.022220280582849045,"60":0.02493972943421922,"61":-0.012896629063756302,"62":-0.06508619324123965,"63":0.027639386714874634,"64":-0.12184898833072647,"65":-0.13136605748417254,"66":-0.0007761275418572652,"67":0.050463979521446156,"68":0.05746326228343388,"69":0.026396033132168505,"70":0.042378247900009686,"71":-0.06266259155255294,"72":-0.20317045657783264,"73":0.052635276049531055,"74":-0.018545266287646557,"75":0.05179362228702977,"76":-0.1012684235743295,"77":-0.016926851081850817,"78":-0.13376330825489777,"79":-0.13607751982253843,"80":0.10634025127412358,"81":0.03703257187020713,"82":-0.04980066470106897,"83":0.07326540327348546,"84":0.04219570627662442,"85":-0.049880404460970494,"86":-0.23644353664458342,"87":-0.032667049541752265,"88":-0.047656454695066505,"89":-0.0338392304010892,"90":0.04108442045944559,"91":-0.0705512775595902,"92":-0.05561450531252918,"93":-0.2426268823985808,"94":0.01739574009551484,"95":0.04554713298884451,"96":0.03420068192720835,"97":-0.05820113574256558,"98":-0.06064715322884905,"99":-0.03543946651439377,"100":-0.2535322171791721,"101":-0.1094688785444569,"102":-0.002546567194161923,"103":0.03465108675951056,"104":-0.00967772182608299,"105":-0.00941410157246042,"106":0.03358531524449749,"107":-0.24841092077286753,"108":0.02117363023648999,"109":-0.110355180698823,"110":-0.03697838207140516,"111":0.03293292986120726,"112":-0.09228581346890684,"113":-0.06504704759772785,"114":-0.25394707785932624,"115":0.1078772428165019,"116":-0.028028378428937316,"117":-0.0572431197892535,"118":0.0794504956033712,"119":-0.0187708152785489,"120":-0.09835437291540075,"121":-0.3304964714818879,"122":-0.04401967986225051,"123":0.08025418623982881,"124":-0.04717809362627943,"125":-0.07508808681309577,"126":-0.06030106791502935,"127":-0.07626757882950079,"128":-0.23624398980115988,"129":0.022977625537274157,"130":0.042534777814421075,"131":-0.008921093493886343,"132":0.023092030076200774,"133":-0.016880610266525452,"134":-0.09419217222234695,"135":-0.3058752738213507,"136":-0.030742622038826266,"137":-0.002538003736250286,"138":0.007954778365089413,"139":0.03671704216381363,"140":-0.025617433919948186,"141":-0.004227967053285567,"142":-0.2570991774598384,"143":-0.020767399742880013,"144":-0.06609956702871622,"145":0.10399209544855312,"146":0.11362226230920391,"147":0.029775588852272033,"148":-0.037068705419146857,"149":-0.282539868667922,"150":0.1745201097097186,"151":0.04639894805905915,"152":-0.023282630237463714,"153":-0.08353647480773355,"154":0.11428526574827406,"155":-0.02785984443493039,"156":-0.3766077536388363,"157":0.48565381758378656,"158":0.0378387611129089,"159":-0.035406074352828214,"160":0.03279016593390641,"161":0.03210401154412555,"162":-0.09170621289046081,"163":-0.3489647385115293,"164":0.528448500787298,"165":-0.019015377377819664,"166":-0.014774201988212889,"167":-0.04905623427760569,"168":0.022200435171446688,"169":0.0052845378734693756,"170":-0.44653580741240395,"171":0.6651509371155723,"172":0.034180328964994934,"173":0.03232465672889927,"174":-0.018684555623078806,"175":-0.08014606515493577,"176":-0.021766217114275763,"177":-0.40544285238348304,"178":0.5019812461179145,"179":0.03576885418924409,"180":0.03274063746219756,"181":-0.010736344204109252,"182":0.0240175892988605,"183":-0.003569963575541109,"184":-0.29545738041679337,"185":0.1687718846486262,"186":0.0700775298528653,"187":0.010272087416471804,"188":0.016923570233515234,"189":-0.029975980631437294,"190":-0.04449938719993392,"191":-0.2980332667090966,"192":0.2119962292442017,"193":0.02361286718951444,"194":-0.02385229930578134,"195":0.008245006696556045,"196":-0.011937235286363845,"197":0.05734321509059766,"198":-0.3331292526935935,"199":0.03884401459873064,"200":-0.050875383884551165,"201":-0.0459380146435933,"202":0.043196510037849176,"203":0.016323271453421575,"204":0.0016793001400399485,"205":0.05360794862339928,"206":0.1289715964461471,"207":0.003874674472227814,"208":0.037529809123564774,"209":-0.05174231008266131,"210":0.0875990248035178,"211":0.06090944832321887,"212":0.2517109503691907,"213":-0.022651109071376786,"214":0.03684509472861631,"215":0.0033925278640803214,"216":0.005572563599282477,"217":-0.04803671692468833,"218":0.17827169542663474,"219":0.5221837632103014,"220":0.0019418419012589905,"221":0.010728281138573858,"222":0.014944538337245478,"223":0.06362183260026309,"224":0.0358920213342383,"225":0.08767291869671962,"226":0.4838816895863337,"227":0.04651138247407145,"228":0.0052521735608155465,"229":-0.02936379730677079,"230":-0.02316428737820482,"231":-0.0164654015110803,"232":0.0572802099799823,"233":0.5340217987767308,"234":0.1402575813812437,"235":0.09642716488509748,"236":-0.0169344266278064,"237":0.05412574524050715,"238":0.10104399725312155,"239":-0.01177923210836559,"240":0.5164888392044694,"241":0.28926885577872496,"242":0.005872958471384652,"243":0.02495057305805747,"244":-0.033015393291719625,"245":-0.015354354209889884,"246":0.14346299413067026,"247":0.3321815505935701,"248":0.2166839028122369,"249":-0.041296400311777684,"250":-0.01598356028320563,"251":0.002237878301695941,"252":-0.06950955236949898,"253":0.04120766538838518,"254":0.1948481773024879,"255":0.05707696905221072,"256":0.016605478865400827,"257":-0.026048892931401987,"258":-0.004370324969573605,"259":-0.05506374901782837,"260":-0.02057064447993725,"261":-0.01882367731279248,"262":0.008380925095244872,"263":-0.026436626903745444,"264":-0.0049888012821891516,"265":0.015827384296461685,"266":0.0003276643456610433,"267":0.05770991582361804,"268":-0.17027154070008707,"269":-0.09216835653169721,"270":-0.0312947341731805,"271":0.07230803746412018,"272":0.07805385243725288,"273":0.03388866726482172,"274":0.023529267019558892,"275":0.03914415875453508,"276":0.0673165611716553,"277":-0.10114889010135167,"278":0.02811605123593903,"279":-0.0204861918601178}},{"sx":1,"sy":1,"depth":280,"w":{"0":-0.05139509115591595,"1":0.04237023910468556,"2":0.011242315403443537,"3":-0.0948076557430309,"4":-0.023882642642500552,"5":-0.05217653681032968,"6":-0.11198425432796517,"7":-0.11760470174555145,"8":0.02351271291648778,"9":-0.12313906123038117,"10":-0.09712326404647163,"11":-0.031638442636308405,"12":0.041436411038328784,"13":-0.0853917465111424,"14":-0.08885510588152053,"15":-0.015249630608898073,"16":0.016780250002772404,"17":0.05732730520601668,"18":0.0705469574943987,"19":-0.014526268732037207,"20":-0.10680428875586484,"21":0.006281618116649345,"22":0.05313601201125943,"23":-0.07194458454922573,"24":-0.08150145499676677,"25":-0.03199546085269446,"26":-0.04290351376531053,"27":-0.03148489096603993,"28":-0.06754122708797573,"29":0.04789058166243933,"30":-0.10679474149130128,"31":0.03939283350512491,"32":0.022774007336148556,"33":0.03339715078807115,"34":-0.09915698375623103,"35":0.11787026047786169,"36":-0.07066524721624022,"37":-0.039624681062604104,"38":0.09434975088725628,"39":-0.03885272483493527,"40":0.09528056802696681,"41":-0.06927666156670464,"42":-0.0583473287877521,"43":-0.02795161629924794,"44":0.002644657653199619,"45":-0.12543566660577848,"46":-0.009998361043026496,"47":0.0008769063198304801,"48":0.09943483976634133,"49":-0.030655992774642843,"50":-0.08589552126174063,"51":-0.09768270084232591,"52":-0.012006187648532719,"53":0.013616814413013005,"54":-0.03556321058618364,"55":-0.00019055124255624355,"56":0.07182312693110723,"57":0.07502147244168561,"58":-0.013773474905068679,"59":-0.010193254600100099,"60":-0.002157200586712093,"61":-0.10338743557979792,"62":0.010817790921263159,"63":0.07323777067264127,"64":0.01747053348790589,"65":0.03989939122142262,"66":-0.017812562230674275,"67":-0.011870125900206415,"68":0.08414503987836688,"69":-0.002171443512343838,"70":0.05065220079621276,"71":0.040980311672231165,"72":-0.10673283634575982,"73":0.05203541451198732,"74":-0.03559247814968307,"75":-0.06988523819009852,"76":0.02455417373472475,"77":0.018347338304548867,"78":-0.010966525297091061,"79":0.08258213944476549,"80":0.137441765780148,"81":-0.11073387595934203,"82":0.03353745480729043,"83":0.045029004181801134,"84":-0.027734719555255236,"85":-0.05201050173599878,"86":-0.01234552289433834,"87":-0.020002268879466305,"88":-0.07514986132164138,"89":-0.013899804935580299,"90":-0.06752370060231572,"91":0.04769990651990895,"92":-0.04028953899458077,"93":-0.03211422120566248,"94":0.0455272378070548,"95":-0.041189446192221965,"96":-0.03173741672493,"97":0.0009869772325032465,"98":0.05551276310639947,"99":0.11259434361660106,"100":-0.02222551262215342,"101":-0.05695109800352068,"102":0.023088002324858265,"103":0.014079972088262636,"104":-0.055898270874800024,"105":-0.14463749373601775,"106":0.09231354808183931,"107":-0.012671893011042918,"108":-0.09637155733842248,"109":0.03702763399234309,"110":0.09421128896426315,"111":0.040808955148414094,"112":-0.05052846863776467,"113":-0.011083200497069907,"114":0.03563471633431924,"115":-0.0013681751710928937,"116":0.022019542709534448,"117":-0.17149208808832017,"118":-0.035641039991438375,"119":-0.0055222806559885275,"120":-0.06893144494869059,"121":0.07579100429838491,"122":0.05290565156645997,"123":0.08311216806136278,"124":-0.05012262810362782,"125":-0.029843864240462734,"126":-0.053195562518795945,"127":0.11327224514824864,"128":-0.11719412596984857,"129":-0.05688098677440179,"130":0.10898011542828472,"131":0.10236511438015865,"132":0.04823265435430961,"133":-0.044209531571843055,"134":-0.03398416029344609,"135":-0.12757293449215001,"136":0.045600486719840114,"137":0.0024892512152268928,"138":-0.002731677871794698,"139":0.09332487738409427,"140":0.07388291503661859,"141":0.06024483180816981,"142":-0.022241618691357688,"143":0.0835574578040645,"144":0.020361993834004655,"145":0.054124335634260765,"146":-0.08084091155514503,"147":-0.06353103547399122,"148":-0.09341765312701444,"149":0.07283753544004849,"150":0.004371547537895116,"151":-0.022254278453244274,"152":-0.026210272616933997,"153":-0.07415579986443101,"154":0.02426178016827792,"155":-0.01699284479178753,"156":-0.07828994801055673,"157":-0.07990695824113256,"158":-0.11003180672482822,"159":-0.12158294673095862,"160":0.025117082486497272,"161":0.040594214454551455,"162":0.03421277734354772,"163":0.013267206495112926,"164":0.04547389714742287,"165":0.04778924025529596,"166":0.08940365311995334,"167":-0.038131987519882136,"168":-0.006970781765899283,"169":-0.09278544698326677,"170":0.05236717911571452,"171":-0.06856035709125222,"172":-0.09132158131481571,"173":0.051642468900028105,"174":0.09917538544881037,"175":0.05063519827813792,"176":-0.02389693097900461,"177":0.013164535313503277,"178":0.0008416163083670504,"179":-0.029440212753121652,"180":-0.08398035987067859,"181":0.16903414121147717,"182":0.03551586495949267,"183":-0.038115035071832545,"184":-0.040091084276580764,"185":-0.011417290934243466,"186":-0.04705309765252571,"187":0.06138566054387683,"188":0.07410600569797726,"189":0.003517086919083046,"190":-0.026202397967420913,"191":-0.09723312727629789,"192":-0.12338977246320525,"193":-0.02577763162847583,"194":0.04535810105858488,"195":0.031402763369592454,"196":-0.02959170874433971,"197":-0.11235000003360224,"198":-0.04514437648368713,"199":0.01855329190848808,"200":0.022022698817067508,"201":-0.008795678348800035,"202":0.10766046047129901,"203":0.014238115563690572,"204":-0.03641439648708147,"205":0.02495469813029142,"206":-0.011896770975235215,"207":-0.058210556304910725,"208":-0.0374488878798769,"209":0.08444578145737675,"210":-0.02810021139429684,"211":0.1026474546912414,"212":-0.07017826880256443,"213":0.02801387142186495,"214":-0.034847643884172545,"215":-0.03299723028954911,"216":0.021528371292815252,"217":-0.07335764014396515,"218":-0.0007530444610737339,"219":-0.02218589134091183,"220":0.014246935961203095,"221":-0.03348839784760502,"222":-0.07026297911536848,"223":-0.06821746645617022,"224":0.05273144607466156,"225":0.02537865087735751,"226":0.014661387652850414,"227":-0.0026504518263029083,"228":0.016591321597478583,"229":-0.04134697554820005,"230":0.06034036862344384,"231":-0.07197351484854822,"232":-0.05780226739747471,"233":-0.00885713612688012,"234":-0.05325660354597836,"235":-0.022107540550325128,"236":-0.004949574129765469,"237":0.03198965725225817,"238":0.0033502924375984956,"239":0.005408333980558844,"240":-0.03658238881573803,"241":0.019618783552850256,"242":0.09655934644611376,"243":-0.11463481072934477,"244":-0.008735383479952846,"245":-0.0017229852321017898,"246":-0.03556786950278651,"247":0.030535764332243285,"248":-0.018814057035292802,"249":0.022647846568310533,"250":0.03613389044783033,"251":-0.06047038225309683,"252":0.042661431701601416,"253":-0.026673007423990463,"254":0.021251051133880546,"255":-0.005433121476832571,"256":0.09589072654555812,"257":-0.11898725777541184,"258":-0.13174466608633806,"259":-0.116822977428201,"260":-0.058787119493775596,"261":-0.01079032652669717,"262":-0.012005642032995157,"263":0.05238608663093854,"264":0.13815866853633205,"265":-0.0038607523893924335,"266":0.03256331043992445,"267":-0.11817236072288227,"268":0.04137533277538798,"269":0.06389397746560868,"270":-0.06819392489112135,"271":-0.04553134344680345,"272":0.09652677932918623,"273":-0.061977271384615194,"274":-0.021990245766080965,"275":0.05208822895884543,"276":-0.01919332185543364,"277":-0.0824712552896186,"278":-0.04777386456410198,"279":0.004798340079969127}},{"sx":1,"sy":1,"depth":280,"w":{"0":-0.022296174359122976,"1":0.08756247630271236,"2":0.04692467535762319,"3":-0.052086449661201406,"4":-0.017272685804729713,"5":0.015845331092214292,"6":-0.01710017279864846,"7":0.050937235892415264,"8":0.03135686408596326,"9":-0.04231778296608023,"10":0.016884948229887037,"11":-0.006216330878677212,"12":-0.008238033465308579,"13":0.06538808458667164,"14":0.011928740372429168,"15":0.04765299803188874,"16":0.053367665127968915,"17":-0.0500884460821737,"18":0.06070689548498266,"19":-0.005453373139690317,"20":-0.06030264215902989,"21":0.00684661985251004,"22":0.008467045498748394,"23":0.04492378645548796,"24":0.022879587128000502,"25":0.01129530653357638,"26":0.05828876647905024,"27":0.011425127635904015,"28":0.01701997646352026,"29":0.012434143582805885,"30":0.07044593692346206,"31":-0.06251241184558534,"32":-0.009254201891327538,"33":-0.06335663032932454,"34":0.01753203660118855,"35":-0.04433640314254516,"36":-0.04071004755972192,"37":0.01581492098238596,"38":0.04370539522512979,"39":-0.0745813411324323,"40":0.07796915926906721,"41":-0.04792785506927215,"42":-0.03665625499856581,"43":-0.029914696343530674,"44":-0.008065904229679791,"45":-0.03978262757490792,"46":0.02146505781142289,"47":0.023220770289033126,"48":0.018728543526622426,"49":-0.04717019027844204,"50":-0.034217843768911654,"51":0.09222559290016323,"52":0.02447480627361511,"53":-0.04421776227556483,"54":-0.021868573996853376,"55":-0.06314574848221727,"56":0.05692658575330842,"57":0.05486810443693488,"58":-0.032465396353570534,"59":-0.06309748165065426,"60":-0.11167616654663078,"61":0.049558002974788455,"62":0.06810571123812179,"63":0.0015002029878014435,"64":0.01226563982095915,"65":-0.01567894918471878,"66":0.0405305803659398,"67":0.008502610781203592,"68":-0.02229407590130983,"69":-0.02957110953495339,"70":-0.030880136753533703,"71":-0.02076739459711198,"72":0.01165778410861701,"73":0.0614986400909753,"74":-0.023299437604331827,"75":-0.007311684823096112,"76":0.0929672384400862,"77":0.0077242335620504405,"78":0.02953823869548346,"79":-0.03492130329697805,"80":-0.0447171407211465,"81":-0.06925712720475131,"82":-0.03461654764907173,"83":0.005774373985891026,"84":-0.04217756715013422,"85":-0.011457347081423276,"86":-0.01158193047468441,"87":0.019177286612636443,"88":-0.09311551002911618,"89":0.02013270385675844,"90":0.007786799445421821,"91":-0.031704604684611365,"92":-0.00580946766057323,"93":-0.10589238004837799,"94":0.06483883356272362,"95":-0.04192745340737894,"96":0.02999855105983515,"97":0.06771648658326575,"98":-0.004154675146435175,"99":-0.00573208309922968,"100":-0.044321427600802994,"101":0.08429608675801598,"102":-0.03213480778528597,"103":-0.037992457159806724,"104":-0.04708719014406355,"105":-0.05633208435784595,"106":-0.04615200985539692,"107":-0.043850583109226064,"108":0.00028306450538601686,"109":-0.08290027554794964,"110":0.051787004443392855,"111":0.00613803376746846,"112":-0.044976947077632466,"113":0.000697462041697628,"114":-0.10479201816443681,"115":0.1450360881448986,"116":-0.07974408539510035,"117":-0.057335373408219634,"118":0.03342190171499701,"119":0.010841250034036482,"120":0.040784117441167014,"121":-0.13199375216862502,"122":0.02330767899824957,"123":-0.13690942394358696,"124":0.0002558642372240744,"125":0.15157942745008135,"126":0.012749837316639357,"127":-0.032119090576608875,"128":-0.014345344161209986,"129":-0.05380794112252558,"130":-0.05264165075961663,"131":0.02647473926134593,"132":-0.03010697195229535,"133":0.009316278511103135,"134":-0.07469465916729619,"135":-0.02387484915731576,"136":-0.01775013435295797,"137":0.09683564171438647,"138":0.10309856868475108,"139":0.08663958296351075,"140":0.06875274520030503,"141":-0.012848775112178183,"142":-0.06585157557426127,"143":-0.34750337620872795,"144":0.08559921188632741,"145":0.0767430311963501,"146":-0.03875746994447288,"147":0.017395486958722985,"148":-0.04737122658773867,"149":-0.04523836196240316,"150":-0.5172311345766767,"151":0.033967178285886454,"152":0.006404475658979811,"153":-0.013399024287834389,"154":-0.0612364611401784,"155":-0.057628299612731464,"156":-0.09338580798617405,"157":-0.5547764919581204,"158":-0.08155076127387506,"159":0.06444017238591762,"160":-0.042079340790416156,"161":-0.0025925252592837286,"162":-0.014218115122920106,"163":0.1422140940005168,"164":-0.5723644012265752,"165":0.22976474317169687,"166":-0.003907500696888699,"167":0.039803148636023494,"168":0.01528932933665791,"169":-0.14201111050007398,"170":0.10018447113710302,"171":-0.7907592783085708,"172":0.21063340477916204,"173":0.03154304301198214,"174":0.0330102043329402,"175":0.014748074135151905,"176":-0.10918293983446252,"177":-0.023469102002701702,"178":-0.6116273893490907,"179":0.19557947908398302,"180":0.06951119415323823,"181":0.01094752829506056,"182":-0.00046615982545578983,"183":0.018684355680837372,"184":-0.02903090782610417,"185":-0.11436898171477353,"186":0.19716166595887483,"187":-0.04471618301333632,"188":-0.03435288427191331,"189":-0.018200708671711734,"190":-0.04905922432222198,"191":-0.20191408867672264,"192":-0.016803476287908917,"193":0.04413778943006621,"194":0.10129536117840635,"195":-0.047243188580836204,"196":-0.019455341201038933,"197":-0.07094201793584415,"198":-0.057441778510094264,"199":0.6342383551158908,"200":0.14571158437629508,"201":-0.02772041895538147,"202":0.05482737316893865,"203":-0.03159833901577447,"204":-0.02588317141584352,"205":-0.035870252939460966,"206":0.7746143485397937,"207":0.17065301623054246,"208":0.008200676220201153,"209":0.0022159453316344317,"210":-0.039818644878064496,"211":-0.04493712545255593,"212":0.026089657210376108,"213":0.02890586523477378,"214":0.1672631133542294,"215":-0.028596955169298166,"216":-0.003008904064079259,"217":0.04473517858428507,"218":-0.022694418143350395,"219":-0.06052587773288084,"220":-0.020974288020162102,"221":0.1388333514821257,"222":-0.04815367394520938,"223":0.04641292599026498,"224":-0.07760730325191532,"225":-0.07066157011898291,"226":-0.03585813107079071,"227":-0.022222900198752366,"228":0.08370559638967455,"229":0.03689553133254338,"230":0.09858652636026145,"231":0.0029952674042143237,"232":0.008360936741258845,"233":-0.04721967931865465,"234":0.02511658140981966,"235":-0.004153127801894752,"236":-0.016499214794045265,"237":-0.0843135457601608,"238":0.01718933257038135,"239":0.04769416033979042,"240":-0.0762434862899186,"241":0.7861602077369575,"242":0.07037951970371953,"243":0.06521098295522032,"244":0.009517692417641934,"245":0.042896052435232,"246":-0.043363417183820724,"247":-0.09537673010780792,"248":0.5221508136643392,"249":-0.05363236140618883,"250":-0.07639443932808539,"251":-0.011988003045597856,"252":0.04284013801587676,"253":0.05469209329869056,"254":-0.025473473783092296,"255":0.2793167990633595,"256":-0.009951809432197386,"257":0.055584801936886696,"258":0.03833252225870327,"259":0.07084298077316141,"260":-0.021427399066664132,"261":-0.09957668406794455,"262":-0.09448624991064279,"263":-0.03605452790396309,"264":0.04346938503679058,"265":0.05444676743878948,"266":-0.03765808227910282,"267":0.11388750703838163,"268":-0.09561586188040838,"269":-0.07998917374164166,"270":-0.006786277279863875,"271":0.03488620554868172,"272":0.003499293945944895,"273":0.060568508732279966,"274":0.025464181909319906,"275":-0.030672652608372025,"276":-0.046345996931564104,"277":-0.05555675326741829,"278":0.03327630644693569,"279":0.017590448528142285}},{"sx":1,"sy":1,"depth":280,"w":{"0":0.10015141680372644,"1":0.003497076380903115,"2":0.11754491695060756,"3":0.09137607292082665,"4":0.025393343469399865,"5":0.0008530762973986422,"6":0.08744026958805819,"7":0.06123064489181526,"8":-0.015978816014737145,"9":0.03593916717753256,"10":0.03303426226771968,"11":0.008470763181845992,"12":0.05398857463366087,"13":0.020567862850660958,"14":-0.018451841077450196,"15":0.0292944496040929,"16":0.12408669147607242,"17":0.06560323095494165,"18":-0.02804066699001961,"19":-0.02812583400061241,"20":0.029956431819218584,"21":0.015968318400870644,"22":-0.00017136205310368943,"23":0.03506229276138114,"24":0.043502982391401275,"25":-0.010887224728513525,"26":-0.004445320797129585,"27":-0.01699508099067999,"28":0.04883876280892291,"29":-0.04069631549317629,"30":0.030171596123787874,"31":0.02486247857278127,"32":0.043164690667190156,"33":0.005466109508519317,"34":-0.057462801166974796,"35":-0.016665303475986333,"36":0.00592575365860545,"37":-0.005862985812489062,"38":0.0570429027680281,"39":-0.0251395527413516,"40":-0.03363471822647815,"41":-0.017565194557691486,"42":-0.06771239306976436,"43":-0.039767922926029264,"44":0.06809024154222522,"45":-0.015950467741192163,"46":0.05474569483194977,"47":0.04344873041790895,"48":0.04237814324200051,"49":0.02507738881555588,"50":-0.02353969590005798,"51":0.014243381133989286,"52":-0.016261219708217867,"53":-0.037251615482772574,"54":-0.04316321216011494,"55":-0.08776987082614035,"56":0.054069404272128696,"57":0.025828202946324194,"58":0.07368440568039328,"59":0.03640825668045181,"60":0.07208119339716786,"61":0.015754112986216175,"62":0.019310194605256153,"63":0.06566985556415797,"64":0.04672272210316966,"65":0.07371742302154187,"66":-0.04695569387814837,"67":0.0349956559980331,"68":0.01233979987570997,"69":0.0024162806252256345,"70":-0.04500459854590186,"71":-0.017209330677332397,"72":-0.08266178818624842,"73":0.004512289769594034,"74":-0.06012457677667636,"75":0.08600698753846125,"76":-0.02371848631334218,"77":-0.013842250147831917,"78":0.0836503264421196,"79":0.012000184282374227,"80":0.07552884755570594,"81":-0.02636335638751536,"82":-0.049553220241496686,"83":-0.05617787009744595,"84":0.01026212921644366,"85":0.02341835122494229,"86":0.09619759138401301,"87":0.029948801458292602,"88":-0.05135904711132287,"89":0.03674243757650324,"90":-0.011290456753862834,"91":-0.08213269724423133,"92":0.017550793938760894,"93":0.0861449971625922,"94":0.047316924848060916,"95":0.023100967992913866,"96":-0.014763966701711128,"97":-0.05708023147829223,"98":0.02768705289486299,"99":0.045899618589100855,"100":0.0691869825653502,"101":0.023487809458610183,"102":-0.025383067414971632,"103":0.02442527317556976,"104":-0.016164658045945184,"105":-0.017395929358816727,"106":0.09562768910888751,"107":-0.032895890588021094,"108":0.13387134418917565,"109":-0.10950300174142731,"110":-0.026207849053012308,"111":-0.018843225260813386,"112":0.012414670749496733,"113":0.028368825041098757,"114":-0.02294279472072629,"115":0.024935671180708642,"116":0.04652973527830079,"117":0.10031931450422518,"118":-0.005754029956328301,"119":-0.0327069588397732,"120":0.07429446218558915,"121":0.13489477384179657,"122":0.022558446576524855,"123":0.0028131974552141987,"124":0.08000329457326845,"125":0.03182173428882599,"126":0.03287187285848155,"127":-0.003669581095236848,"128":0.15629382185331747,"129":0.2479052766481972,"130":0.08367484094173026,"131":0.01688644571277226,"132":0.08694697245054321,"133":0.004090781730873868,"134":-0.03887083357682938,"135":0.13288347840508802,"136":0.09202921419184538,"137":-0.020823782647103845,"138":-0.01383286678554695,"139":-0.02998185612056842,"140":0.01328313020950426,"141":0.06918433563518828,"142":0.1205509970752594,"143":0.22828717820781128,"144":0.06530827526338849,"145":0.04115172567967969,"146":0.024169300673518468,"147":-0.0018811753920632587,"148":-0.04634852085257585,"149":0.20243106018223334,"150":0.16045081749551035,"151":0.11214103202093609,"152":-0.037932878808969527,"153":-0.03749097457935128,"154":0.04683935030864892,"155":-0.06487559867246688,"156":0.23857939860446856,"157":0.6346668973513515,"158":0.1890535892950518,"159":0.09720306960934769,"160":0.08363863661412323,"161":-0.0025048128606416508,"162":0.08104880867007554,"163":0.12175992001844374,"164":0.2422994632777426,"165":-0.21963705347734105,"166":0.004551259456078081,"167":-0.09103743209034562,"168":-0.06801567606750553,"169":-0.08768188576828936,"170":0.1723490195401206,"171":0.3725330037549283,"172":-0.0486544964435083,"173":-0.03324698079435732,"174":-0.03538761169026852,"175":0.00662208036998765,"176":-0.013080835159409498,"177":0.11282871018831452,"178":0.2816314505929709,"179":-0.16135929054243486,"180":0.027473316167461636,"181":-0.008567935536605757,"182":0.02866467990335855,"183":-0.06924631255962772,"184":0.09027443083465414,"185":-0.6167656239437519,"186":-0.25383728883282797,"187":0.014530655968310964,"188":0.029095578395244237,"189":-0.02564310750547693,"190":-0.016949555093169887,"191":0.1916368227926404,"192":-0.19301852623482055,"193":-0.051519435881222306,"194":0.003876637485565548,"195":-0.0027386039376440414,"196":-0.03727150948731213,"197":-0.029940547831895765,"198":0.13972433679324517,"199":-0.4111623366316997,"200":-0.14721592937667755,"201":-0.029856867885737413,"202":0.01284968710199279,"203":0.035192737274056446,"204":-0.02567637846810648,"205":0.19005145533640755,"206":-0.7090926859560496,"207":-0.2097259091756799,"208":0.027570285531244396,"209":-0.05549052377833638,"210":0.0032924915126674482,"211":-0.05579708819729786,"212":0.2708028226859723,"213":0.26387865512391157,"214":-0.30094736967745395,"215":-0.017829985041160144,"216":0.0259791626173199,"217":-0.022104778826021815,"218":-0.007389389775904767,"219":0.09763619495457293,"220":0.12454451537905187,"221":-0.18423381823571064,"222":0.014156953822913378,"223":0.009260267398807528,"224":-0.011252220394880342,"225":0.0007739134432048253,"226":0.21084166687294312,"227":-0.02870389626352821,"228":-0.1857690877418539,"229":0.0027847949768507025,"230":0.07425783830333978,"231":-0.0391854005151764,"232":-0.09078075924280903,"233":0.14834014444787896,"234":0.2042242048478183,"235":-0.17952567953192308,"236":-0.04943587546103328,"237":0.014638643690084776,"238":0.08984787707019257,"239":-0.04177400277286035,"240":0.34520434581279824,"241":-0.46067582419793857,"242":-0.30741606304863295,"243":0.03555222088356618,"244":0.07478572524235554,"245":0.018792299651977193,"246":0.05481943671839403,"247":0.06950006872600564,"248":-0.23089721321876422,"249":-0.04083290206139212,"250":0.01025369480080773,"251":-0.08088239634658623,"252":-0.020751038760065194,"253":-0.037342294287970555,"254":0.11026565873510077,"255":-0.06774667252526538,"256":0.1056801134167125,"257":-0.03184247026653216,"258":-0.01503817905532966,"259":0.007874765213812808,"260":0.007854232230948756,"261":0.0501989489692978,"262":0.07705333290823285,"263":0.057651881023695666,"264":-0.03330097716731926,"265":0.040955481905583485,"266":0.016380996579474245,"267":-0.01409543995798119,"268":-0.0010545377933276442,"269":0.021084554143601504,"270":0.1043951214708492,"271":0.03824827094352485,"272":0.06305552005922962,"273":-0.050105752027635744,"274":0.009848297974460053,"275":0.01392873722402594,"276":0.008324808982896432,"277":0.05960238130395457,"278":0.02412698854923779,"279":-0.02006397547745586}},{"sx":1,"sy":1,"depth":280,"w":{"0":0.04004824055253353,"1":0.019888878279933752,"2":-0.019667130961033827,"3":0.02213260229063864,"4":-0.14790861216643028,"5":-0.10221945572830658,"6":0.02960845636376046,"7":0.040664221071196494,"8":-0.06762649486945839,"9":-0.0051557620985744216,"10":-0.05123932377679682,"11":-0.07817966964830869,"12":-0.025499299151744637,"13":-0.02248768521720156,"14":0.002566768949503899,"15":0.04802427318420216,"16":0.00331266151669096,"17":0.07825135895696175,"18":0.0036333251428668023,"19":-0.03050011512802575,"20":-0.04257251138136193,"21":0.0379802601172149,"22":0.027197993327081622,"23":-0.04116672889745865,"24":0.06364981000491496,"25":-0.022500899592298843,"26":-0.021768401248529544,"27":-0.04701623842313883,"28":0.031378344115029114,"29":-0.045811064218907,"30":-0.14448598480748126,"31":-0.05823391266536714,"32":-0.1239916106119713,"33":-0.15076088251765526,"34":0.034353694742875585,"35":-0.03442628801462934,"36":-0.019281089876733406,"37":0.021850416725228132,"38":-0.01538569551601308,"39":-0.052017390318055065,"40":-0.036840518991911854,"41":-0.020668832570240527,"42":-0.012821664267309296,"43":-0.012465805813631936,"44":-0.0416211204236253,"45":-0.0303649680171166,"46":-0.07396151732701098,"47":0.017399556174068936,"48":0.05011101671661868,"49":0.053956765046083606,"50":0.018467758449462156,"51":-0.012867313687111142,"52":0.07431769078393913,"53":-0.029239426543386904,"54":-0.08552650850971258,"55":-0.03992941279642778,"56":-0.06681027468356908,"57":0.013644066270640123,"58":-0.03529081408315767,"59":-0.08069676311784736,"60":-0.13163028283737419,"61":-0.07671585230642622,"62":-0.03491782079085562,"63":0.03042835656164257,"64":0.05798136284326823,"65":-0.0001845549725354201,"66":-0.08142140994016486,"67":-0.0579418828627671,"68":-0.02920981745726652,"69":-0.012246794772100411,"70":-0.074955035386056,"71":0.07732509031820645,"72":-0.08152762936896842,"73":-0.15070794042608707,"74":-0.13507737330139966,"75":-0.028616129362645223,"76":-0.03538407204098223,"77":0.008964587604442908,"78":0.06600290113091252,"79":-0.031135173290474133,"80":-0.09710170431307398,"81":-0.2032869332368812,"82":-0.07791921578119695,"83":-0.06858003233032504,"84":-0.016974963499817457,"85":0.012937763995853033,"86":0.06943016052942097,"87":-0.2383744379099248,"88":-0.224343316737633,"89":0.018644038434488,"90":-0.016796665639774326,"91":-0.04611111781348437,"92":-0.025947714970484204,"93":-0.08094520147903803,"94":-0.36301891659402813,"95":-0.11736648962527861,"96":-0.007551795504728914,"97":-0.0027602646700935793,"98":-0.0788490022083604,"99":0.0455557593197153,"100":0.049291659075801464,"101":-0.21209126948471796,"102":-0.07196681647171774,"103":0.012300589336392675,"104":0.15560158043054634,"105":-0.008557691680249831,"106":0.05799751583897315,"107":-0.01688454501995797,"108":-0.1529649680789272,"109":-0.1669656697008427,"110":-0.043811339525378315,"111":-0.09845484516293437,"112":0.04473552059378738,"113":-0.06314014206904457,"114":0.01804152237454256,"115":-0.289765597855712,"116":-0.1535198315523189,"117":0.033119207312108156,"118":0.09491876231560555,"119":-0.0278131991599036,"120":0.008592160768907692,"121":-0.026637313960881946,"122":-0.2519177726984743,"123":-0.045947812559308444,"124":-0.009884144205346918,"125":0.01603266087346895,"126":0.01719359133966472,"127":-0.02714580104502947,"128":0.09388395002364225,"129":-0.03797051362097526,"130":-0.1056192035232195,"131":0.04299339869217344,"132":0.08569324428178321,"133":0.007596125719468328,"134":0.027162028334635577,"135":-0.003680750804441856,"136":0.11544715935206976,"137":-0.16708253230693154,"138":0.02873933215539461,"139":0.03742265380889446,"140":0.03674616962189625,"141":0.06114384930789256,"142":0.07081488187876923,"143":0.5862055524030695,"144":-0.13220746923426305,"145":0.06217509021181259,"146":0.034464051722803084,"147":-0.017674258030987437,"148":-0.017483937033796297,"149":-0.01807818369776655,"150":0.7168009411944958,"151":-0.18777104678815015,"152":0.058794690385292905,"153":0.0638411140791557,"154":0.0022433295582539037,"155":-0.019629879749780962,"156":0.11891994770641266,"157":0.0765298264922641,"158":-0.08918797832689487,"159":0.09851366119171437,"160":0.052474117575231544,"161":0.0032628726970560804,"162":0.11258520154480943,"163":-0.0031090437281458376,"164":0.3405046625167972,"165":-0.2568286889066083,"166":0.07784385607504533,"167":0.002442969060302499,"168":-0.008521826408953393,"169":-0.006837267284659324,"170":0.06942144511150078,"171":0.5886141266625861,"172":-0.14751278235440107,"173":0.11384176726481077,"174":0.07089303082623166,"175":0.0018916748993955375,"176":0.0019183314318461674,"177":0.0057500665353764245,"178":0.5562026675309887,"179":-0.04103515579545546,"180":0.10378430042215055,"181":0.007955827932044393,"182":-0.041544474761833504,"183":0.015656146769006816,"184":0.01940812381580047,"185":0.7687172753490485,"186":0.029259048288612532,"187":0.08502652942710523,"188":-0.034357125481219136,"189":-0.001965777193910148,"190":-0.02714012069562382,"191":0.056929556831070295,"192":0.11541512241506958,"193":0.14873010453561458,"194":0.09933743370488468,"195":0.048174753623711014,"196":0.02182994598504652,"197":-0.042887611550595145,"198":0.10703533743613566,"199":0.05795684649366187,"200":0.17598796193827287,"201":0.07940826040908114,"202":-0.017417715579268387,"203":-0.049029909863064686,"204":-0.054567030931861105,"205":0.04824740297321634,"206":0.21981908408428644,"207":0.20930354572212542,"208":0.08587545621745088,"209":0.06670365308817974,"210":-0.13127389090439728,"211":0.014297730407453559,"212":0.0011130873860619134,"213":-0.1483218758033166,"214":0.3515290484512397,"215":0.04620227319412773,"216":-0.048266088383538096,"217":0.06188746965218272,"218":-0.17448350340240784,"219":-0.014757998969023347,"220":-0.04213242768585169,"221":0.4185477900472791,"222":0.04405293778857377,"223":0.06864622307829528,"224":0.06758326212881025,"225":-0.010828563704518054,"226":-0.013198023059974615,"227":-0.1607274402158174,"228":0.4402885225285442,"229":0.0928359181264446,"230":0.016134694810423886,"231":0.0674790018469062,"232":-0.04561744471688081,"233":-0.08992535576622662,"234":-0.049603893950106545,"235":0.47574383055565456,"236":0.05935170618369356,"237":-0.00522573557295172,"238":0.036934257257806045,"239":-0.07221989409861788,"240":-0.03053415564372325,"241":0.1540791758151653,"242":0.5664052651342956,"243":0.06967963848028433,"244":-0.05131527794975473,"245":0.055471721630047176,"246":-0.012491679160457132,"247":-0.03172442989447961,"248":0.013055024089863088,"249":0.4070467840279548,"250":-0.011096683489467124,"251":-0.003479981746584545,"252":0.07537641263824413,"253":0.0024189746118116885,"254":-0.04059215159205005,"255":-0.1528218712463999,"256":0.2661987055731037,"257":0.014534298259625955,"258":-0.019623216982776533,"259":0.05089522291935639,"260":-0.06144243609505126,"261":0.045746364160574225,"262":-0.005976808008571444,"263":0.20749029885913992,"264":0.021242690564032638,"265":0.017939676765037795,"266":0.03601440633667536,"267":0.0024826903990012644,"268":0.07294894184887561,"269":0.01690534922093632,"270":0.17941512694470374,"271":-0.001560653312021586,"272":-0.030057974771333817,"273":0.02937093291283386,"274":0.04179247041769963,"275":0.033628664248025714,"276":0.1980396543951527,"277":0.1831847698115755,"278":-0.03820457929203975,"279":0.06232465023313264}},{"sx":1,"sy":1,"depth":280,"w":{"0":0.012170957197238633,"1":-0.10306402346402276,"2":0.007236314085347594,"3":0.04204870917015526,"4":0.010380577532796939,"5":0.006088651647908624,"6":-0.0007838154154651748,"7":0.005289111826679821,"8":-0.054176315923346714,"9":-0.05396109284055325,"10":-0.014264947956320504,"11":-0.06417535479983016,"12":-0.0727390161696649,"13":0.04354322289690293,"14":-0.03334289006756227,"15":-0.046394330067300094,"16":0.03668972389446972,"17":0.03183483513457596,"18":-0.021498653682319353,"19":-0.018435833175062952,"20":-0.05692056907670432,"21":-0.05776341946683093,"22":0.0010674812683044502,"23":0.020046869343904487,"24":-0.005810869104601465,"25":0.05257119240347063,"26":-0.0019180172925708158,"27":-0.03208148949285427,"28":-0.004461746943070854,"29":-0.06509511799829441,"30":0.022803419395877985,"31":-0.04750039144679437,"32":0.0347886357437995,"33":0.01637351979380622,"34":-0.0645347943821387,"35":-0.08714123123466853,"36":0.03509886818283288,"37":0.0024673935983498137,"38":0.03939397758693973,"39":0.03305571026810704,"40":-0.026385435642364872,"41":0.020145505233521648,"42":0.02883829252863994,"43":0.07070128566171194,"44":0.02734491050860344,"45":0.06599573252204742,"46":-0.0343182281835392,"47":-0.0500259968888435,"48":0.036622127676063744,"49":-0.021698660763963935,"50":0.08688633798325777,"51":-0.01425682960533007,"52":0.05090135877708056,"53":-0.07264313615510976,"54":-0.09152769119512426,"55":0.028825616958947507,"56":-0.002764289249260284,"57":0.08619528278014857,"58":0.03375959055449874,"59":0.08720799035208554,"60":-0.04395797321291138,"61":0.04399137418436138,"62":0.01595873863545381,"63":0.06425301716430389,"64":-0.04430258752902378,"65":0.05313628528774608,"66":0.0015288413936144958,"67":-0.06582695051601364,"68":-0.014970685739434554,"69":-0.025050834031741635,"70":0.09377018833997014,"71":-0.017892377873579324,"72":-0.06655095076576055,"73":0.044741204768074805,"74":-0.01357491366938775,"75":0.03643162795145705,"76":-0.10008012826447076,"77":0.0197649078209235,"78":0.002106412904575481,"79":0.019359261164519945,"80":-0.04714544641044559,"81":-0.013134903904712567,"82":-0.07523899668459537,"83":-0.01529989096462168,"84":-0.047863417179451716,"85":0.04919947872066692,"86":-0.007193338628714568,"87":0.1928009673801011,"88":-0.027403425114878713,"89":0.004382891966251157,"90":0.0030162872906075292,"91":0.004707851206219514,"92":0.030786514439638247,"93":0.09623662877501532,"94":-0.07829432839247925,"95":0.002889184860161049,"96":-0.024313862821665717,"97":0.11542976204491683,"98":0.012357432836613494,"99":0.011412221796190029,"100":0.008269085804279494,"101":-0.07755503648694384,"102":0.04489279460773358,"103":-0.010255012204963712,"104":0.0140350441194767,"105":-0.032283986772383,"106":0.0023952141036420117,"107":0.029337110812148712,"108":-0.016676889104788938,"109":-0.07275203399429628,"110":0.004719402745385965,"111":0.016153352943525646,"112":-0.08440525153664499,"113":0.0771179569615957,"114":-0.02992783922059096,"115":0.04563684121557681,"116":-0.10780897534884755,"117":0.06789477303475398,"118":-0.021783344067274227,"119":0.05753276821659857,"120":-0.00952352019203936,"121":0.05227208781203407,"122":-0.1093817760517467,"123":-0.0014428593882060883,"124":-0.004442877498442258,"125":0.06810715732933122,"126":0.04225571641041314,"127":0.002101763508542667,"128":0.10380980003649315,"129":-0.03833007806657272,"130":0.06777304516512335,"131":0.060009423448023964,"132":0.03216541699963864,"133":-0.04444004158749506,"134":-0.04470758651838597,"135":0.026779265992951905,"136":-0.1254663487574629,"137":0.09225872665719147,"138":0.02087582515807579,"139":-0.03764127411264779,"140":-0.043713432108048594,"141":0.10088237052354233,"142":0.0296402456675125,"143":-0.1064830397784961,"144":-0.04044078881377824,"145":0.0663863109436581,"146":-0.027213418707154186,"147":0.010461243622081883,"148":0.06011319110364681,"149":0.02277836358293694,"150":-0.010868533323646196,"151":0.02740416210458444,"152":0.08499640877398647,"153":0.09978455703155016,"154":0.030913996172420494,"155":0.03996515945668057,"156":0.1433625621079221,"157":-0.1873690533930287,"158":0.155739833977126,"159":0.02640611985601916,"160":0.058365332351299655,"161":0.01617764673996533,"162":-0.025506725699710835,"163":0.01971342866722837,"164":-0.2500033048787478,"165":0.17380928122320286,"166":0.10886096759755057,"167":0.06172686925954047,"168":0.011929838062397728,"169":0.07200285917050964,"170":-0.04531237740162976,"171":-0.20248105589000615,"172":0.20084523470164176,"173":0.07032209231760472,"174":-0.03385466426224202,"175":-0.03953455726481168,"176":0.025076063065630386,"177":-0.029959698018518437,"178":-0.006535569710860752,"179":0.21415725744271513,"180":0.0714090516413138,"181":0.10592903038189462,"182":0.016336499761414863,"183":0.10396686517574583,"184":0.08536528475816708,"185":0.11809260029265752,"186":0.3604782447513338,"187":0.042863308865594196,"188":-0.014491962717927132,"189":-0.0071602641572223145,"190":-0.06165025582078105,"191":0.16306154930274433,"192":0.030688941031727014,"193":0.18085766575359358,"194":0.09294045480847428,"195":0.04558860779957011,"196":0.016831106421243514,"197":-0.04933014758018011,"198":0.21867200042813303,"199":-0.5117958776645672,"200":0.2513786773677606,"201":-0.02076998765261128,"202":-0.017598317316857053,"203":0.018222719593855515,"204":0.1278085352851094,"205":0.17753125511831366,"206":-0.7423620194135235,"207":0.22985720448496258,"208":-0.011922813833528856,"209":0.09419659130547922,"210":-0.010783514648911866,"211":0.04700328247301746,"212":0.31521340701578,"213":0.09436989489361512,"214":0.4784463738602864,"215":-0.04756105098903592,"216":-0.010376423006007642,"217":0.02453678089499677,"218":0.03782264764502217,"219":0.3230107553717264,"220":0.008881098189218287,"221":0.2987618179843049,"222":-0.059495384586723175,"223":-0.053452598850008796,"224":0.04449446889339014,"225":-0.007023103541107045,"226":0.3879260342494947,"227":-0.08268859640410245,"228":0.45181474803280147,"229":0.05756034884775616,"230":-0.007112390300650444,"231":0.05811989020786542,"232":0.08217901372811957,"233":0.41842919988783495,"234":-0.06231897185354957,"235":0.5563680207865443,"236":0.0097074655397534,"237":0.002623995960663771,"238":0.011547668119237771,"239":0.06868023900835164,"240":0.7779587556922357,"241":-0.8799369206297442,"242":0.7673310333466667,"243":-0.029963429960091482,"244":0.01200766934537084,"245":0.08107484513863578,"246":-0.002354695258390958,"247":0.42250907337908666,"248":-0.7321148013955193,"249":0.35915960003365516,"250":0.011335233500060944,"251":0.025602592391348877,"252":-0.035306053370386295,"253":0.02831872179701369,"254":0.2733023261443556,"255":-0.426938692592495,"256":0.1762323095172718,"257":0.034600803457723296,"258":-0.0030177282603742555,"259":0.04106959147458846,"260":0.04575159134757898,"261":0.36032787012521456,"262":0.02609770792648336,"263":0.14923604696490136,"264":0.0012467335203393342,"265":-0.03466295483265536,"266":0.06484202425606818,"267":0.02814108977730563,"268":0.1276581852038938,"269":-0.040789372136791756,"270":-0.0267895418433867,"271":0.03234609762483454,"272":-0.04388267692558965,"273":-0.07720800690681702,"274":0.07127679035246966,"275":0.23222599632688393,"276":-0.030670842479860138,"277":0.18089222333829502,"278":0.03954761046582666,"279":0.015200798802841352}},{"sx":1,"sy":1,"depth":280,"w":{"0":-0.054155116979538793,"1":-0.004757619520545093,"2":-0.14815202320815068,"3":-0.03326221124692536,"4":-0.06721995573553431,"5":-0.00219201002997413,"6":-0.038381308095928254,"7":-0.07557364978197634,"8":0.008369213886124112,"9":-0.06551659266742904,"10":-0.009566927606371352,"11":-0.052078843367756596,"12":0.0015454812590798732,"13":-0.014962381001969163,"14":0.05790641298165894,"15":-0.035307109511626356,"16":-0.10468316912678774,"17":0.09741656633298026,"18":0.0378655449699076,"19":-0.030574091014600034,"20":0.010241828190861772,"21":0.007620594180778893,"22":-0.0601360351974811,"23":-0.0050338066978036985,"24":-0.01604155656280721,"25":0.03598434403172579,"26":0.0010981788926433765,"27":0.04296058588847981,"28":-0.0011945610909131958,"29":0.008763357637489207,"30":-0.1313765897664891,"31":0.08773290692906197,"32":0.00550761077611823,"33":0.006315551941053656,"34":-0.019178851350950724,"35":0.11127451452370388,"36":0.02471961222390425,"37":-0.013972792864849915,"38":-0.004770787561259971,"39":-0.06557670349507744,"40":-0.010973563008436956,"41":-0.05779318433485495,"42":0.03075200014560726,"43":-0.045094171867791875,"44":-0.036526235957808406,"45":0.018742728720391018,"46":0.013647909385982284,"47":-0.07024053856168898,"48":0.04430618804263231,"49":-0.025179505779447192,"50":-0.06241907930492988,"51":0.017268630730737214,"52":-0.015298655742405375,"53":0.036581043006473773,"54":0.02920311498798134,"55":0.010524294727818668,"56":-0.041848219286964757,"57":-0.018233988856822744,"58":-0.10642298317169828,"59":0.09077971242227542,"60":0.06196419036254573,"61":-0.05079920641277336,"62":0.0365301531243034,"63":0.08486398167213823,"64":0.05368769485507392,"65":-0.017430748241877864,"66":0.028097579096937077,"67":0.0006021292700239931,"68":0.01031826249496289,"69":0.01710880493080108,"70":0.042100920310602884,"71":-0.044123114226959706,"72":-0.07418578243305654,"73":-0.04455617973148654,"74":-0.0410728535283225,"75":-0.04735400085443108,"76":0.0009932791888341782,"77":0.06020933865730954,"78":-0.034060315763911275,"79":-0.041311257236838275,"80":-0.0649621702234721,"81":0.016405403843839768,"82":-0.0091339775635799,"83":-0.031930030770244006,"84":0.018979767495682302,"85":0.07445693395578352,"86":-0.09450492371131039,"87":-0.021375238550885245,"88":-0.06399193844536608,"89":0.03505680660657544,"90":-0.012667653780090774,"91":0.028216886292976754,"92":0.048105019288960445,"93":-0.01916654773709502,"94":-0.006927397993443596,"95":-0.004360690890003361,"96":-0.01419630504195222,"97":0.0544694681439455,"98":-0.011099757245307271,"99":-0.05660989976024787,"100":-0.10047523691328765,"101":-0.21600374001187192,"102":-0.041376387460161125,"103":0.05631119252493386,"104":0.01638581117683225,"105":0.05446389608913936,"106":0.05890192818259155,"107":-0.03277360918990131,"108":-0.031758286693006815,"109":-0.00008040374080803785,"110":0.03908101909416445,"111":-0.007779982113221756,"112":0.03041886486950321,"113":0.0314703364756753,"114":-0.03444422060911397,"115":0.048686609128296345,"116":-0.02777690341648277,"117":-0.022879411696801553,"118":-0.03466652434460012,"119":0.01026792596148962,"120":-0.005641836288106673,"121":-0.08783670499368017,"122":-0.1750615093722811,"123":-0.03426506511846352,"124":0.060810790742444526,"125":-0.005135374354691256,"126":0.044459986097472884,"127":-0.022130904159337276,"128":-0.11535429365634725,"129":-0.35683482705224884,"130":-0.13124523755889916,"131":0.03981113110322501,"132":0.02313126279821747,"133":0.04671706239598522,"134":0.08749828455617979,"135":-0.0037180748640835816,"136":-0.3187015794621704,"137":-0.01204086443937159,"138":-0.000018122405474012493,"139":-0.07749265684882949,"140":0.05290053524794828,"141":0.12724520005127407,"142":-0.006574165254643342,"143":-0.5029804075030526,"144":-0.00789169091082152,"145":-0.016368090186050895,"146":0.023336313128355095,"147":0.07184013951646342,"148":0.08976800691430724,"149":0.024528202303760873,"150":-0.33593036124593206,"151":-0.08078332606576599,"152":0.05589914967895044,"153":0.00834354769661654,"154":0.03952043250936274,"155":-0.0021361671164710763,"156":-0.1614629371231591,"157":-0.43213072313349343,"158":-0.14627537808051394,"159":0.04129114487054647,"160":0.023998279335031,"161":0.027078089169652816,"162":0.047087940507265585,"163":0.045485812984146536,"164":-0.22052659080415926,"165":-0.10349091321153488,"166":0.004212069367760355,"167":-0.059287638845606484,"168":0.018259348131770846,"169":0.13518900919263055,"170":0.03797811048048845,"171":-0.7212286695526168,"172":-0.1300657188968546,"173":0.02697513099662808,"174":0.04955740213067045,"175":-0.00820852872316625,"176":0.11272962371649733,"177":0.0824970376180829,"178":-0.509202295447944,"179":-0.2105848263232932,"180":-0.04999971844787215,"181":-0.019193050738752868,"182":-0.013835301308219148,"183":0.06521378728536967,"184":0.1326692660453381,"185":0.1716638050993585,"186":-0.0722703229629906,"187":-0.05391641285294432,"188":-0.013316262876251376,"189":0.018381816522913007,"190":0.12235900858911224,"191":0.04527614814117981,"192":0.0716559479922234,"193":-0.002096582911348181,"194":0.05907864641963683,"195":0.046638217424514,"196":-0.031205614795940636,"197":0.0651957567785876,"198":0.16770667862066355,"199":0.8527882369528473,"200":-0.12244457356981764,"201":0.03680541546204139,"202":-0.01823386751299729,"203":0.05271313830092954,"204":0.05922682096381879,"205":0.18798247987539266,"206":1.109068366967402,"207":-0.10634767091403423,"208":-0.05604002982960392,"209":0.04579283944052421,"210":-0.06432025970777788,"211":0.060273464933736455,"212":0.25341108631388465,"213":0.0942607141001982,"214":0.09037145935193899,"215":-0.0066788229944267485,"216":-0.05991495680586163,"217":-0.028032398810448226,"218":0.07211454097976965,"219":0.1341830549347517,"220":0.04779327363912676,"221":0.10890031086538202,"222":0.06622720392456918,"223":0.016585786840355478,"224":0.057797903955416195,"225":-0.01084620540107886,"226":0.15791627427873572,"227":-0.05074879478438474,"228":0.019214147564242116,"229":-0.003997079057857478,"230":0.006404276673105636,"231":-0.08534012396103059,"232":-0.06906168842877902,"233":0.1970521651057956,"234":-0.2611586481445099,"235":-0.05082679853935912,"236":0.019187679946219966,"237":-0.008212910075793974,"238":-0.0056623236049428115,"239":-0.008246709460413374,"240":0.16779489687365043,"241":0.5988807924403939,"242":-0.039915612888299326,"243":-0.04550203524531523,"244":-0.07251028013480132,"245":-0.024722674413607842,"246":-0.02602202030222687,"247":0.08283811205074033,"248":0.605118561334135,"249":0.1968422854720702,"250":-0.056358885288210724,"251":0.005684450721830326,"252":0.001606307548613924,"253":-0.02726965483652632,"254":0.04967476558540423,"255":0.4677030415494457,"256":0.07473976276514031,"257":0.031772596413437694,"258":0.01447750615150208,"259":-0.018270886625941642,"260":-0.10078028449139356,"261":0.0003832083279306415,"262":-0.04949076497985307,"263":0.04996711787033299,"264":-0.023610239659489003,"265":-0.007132792677570477,"266":-0.09534608307904975,"267":-0.02800016280790722,"268":-0.12596925305160628,"269":0.10474738153671664,"270":0.09396035212228146,"271":-0.04769385129227115,"272":-0.049643326157700146,"273":0.023023504793291686,"274":-0.09625454151559797,"275":0.047905328105135495,"276":0.10184461148484314,"277":0.028081071081816,"278":-0.018113610170986054,"279":0.01789681333834216}},{"sx":1,"sy":1,"depth":280,"w":{"0":0.025926945870294156,"1":-0.050012810620521826,"2":0.008218063853747463,"3":-0.14071522483374052,"4":-0.08826790924671223,"5":-0.018338056772736748,"6":0.06141427498525426,"7":0.059179755283233534,"8":0.033714486723884836,"9":0.10726196310855657,"10":-0.054924124609869895,"11":0.030689979380879084,"12":0.005889916180318553,"13":-0.035548031135799116,"14":-0.006883557218835668,"15":0.019642299899333263,"16":0.08787470078909113,"17":0.03898587292108708,"18":0.05437304583149493,"19":0.04985061713817237,"20":-0.045285479081583216,"21":-0.029827814573524878,"22":0.013068404931294488,"23":0.035913541459100584,"24":0.03444312882268755,"25":-0.012686634979145742,"26":-0.021392396601086095,"27":-0.0013757556314112937,"28":-0.030730306474714066,"29":-0.03534805725910324,"30":-0.008650285888858664,"31":-0.11755215209806688,"32":-0.08534920330331154,"33":-0.09576905366353024,"34":0.07014787618054633,"35":-0.10392312306335179,"36":0.001661176620945148,"37":0.04689258359261465,"38":-0.03359061487337455,"39":-0.041334474742119195,"40":-0.013782331182433542,"41":-0.06416636900802233,"42":0.05291806656744984,"43":0.12993280388550693,"44":0.07821067452804101,"45":-0.021427448639069067,"46":-0.014368454073791448,"47":-0.00443727002171348,"48":0.022060158512442037,"49":0.04446868365717106,"50":-0.06762362245873184,"51":-0.04926697178373583,"52":-0.009338982022277212,"53":-0.001315666549147608,"54":-0.03656155064845767,"55":0.0019617966764234685,"56":-0.04481279966038342,"57":-0.03311358158654955,"58":-0.058537002947225594,"59":-0.1245179595241111,"60":-0.17800464642153255,"61":-0.02969705995584509,"62":0.05645273628450498,"63":0.020655250530184136,"64":0.053704640298672626,"65":0.01601205565599478,"66":-0.11186940049775063,"67":-0.04896493517467216,"68":-0.02609561388712412,"69":-0.10058835696253733,"70":-0.008017057417361091,"71":0.018453285018251192,"72":0.04549258651096303,"73":-0.03226775728489708,"74":0.025132404610265533,"75":-0.013256620359560153,"76":-0.023789131962155558,"77":0.0359993650826047,"78":-0.030631467564825918,"79":-0.042316605967525546,"80":-0.03586558769760045,"81":0.04494190791665401,"82":-0.05755780557687485,"83":-0.07183738607024645,"84":0.03467212300798213,"85":-0.03731427298550936,"86":-0.013239258838188878,"87":-0.28770394542491634,"88":-0.08766877743539497,"89":0.028773325295795613,"90":-0.005595500090683116,"91":0.036142136224899715,"92":0.05501387499293411,"93":-0.00796537768866435,"94":-0.2704288102394272,"95":-0.04345924286903898,"96":0.004898905813790331,"97":-0.00798400256899404,"98":-0.024791476773329338,"99":0.015574272978624897,"100":-0.028472914188610497,"101":-0.27478162877309786,"102":-0.06836379381027022,"103":-0.04707526164671662,"104":-0.01288871492148052,"105":0.019644172410518693,"106":-0.03460229597265134,"107":0.04870858230153782,"108":-0.3568593818786609,"109":0.04205750588882795,"110":-0.00680736684692715,"111":-0.01498559665875318,"112":-0.12773824458174654,"113":-0.013114293739505522,"114":-0.07050359041657632,"115":-0.5918873132386939,"116":-0.019001341689566076,"117":-0.0934646297436806,"118":-0.027198254344590153,"119":0.04823466312357207,"120":0.04700544503997508,"121":0.06756481214555393,"122":-0.8011774826445514,"123":0.03983378575472544,"124":0.015248076575797893,"125":0.011729390737266563,"126":0.04167292528111184,"127":-0.005484798693632054,"128":0.08556594102381108,"129":-0.7625488894264361,"130":0.10313046730454103,"131":0.03267028851040182,"132":0.004938843278183018,"133":0.03894814143613335,"134":-0.08734945151491971,"135":-0.007854953849756326,"136":-0.7187040432957993,"137":0.09251337960763996,"138":-0.01897998499872782,"139":-0.07005848515403502,"140":-0.08858743294248089,"141":-0.046064743267682055,"142":-0.02207024950373773,"143":-0.5315192723700463,"144":0.056249659275365765,"145":-0.016279902244876302,"146":0.09836187862861515,"147":0.006671067232062413,"148":-0.01543865021067707,"149":-0.04701904676912389,"150":-0.2514547743720793,"151":0.10385098009846681,"152":-0.010354519658509222,"153":0.025701507968198672,"154":0.01849336282381657,"155":0.06838490570253246,"156":0.19267167752509257,"157":-0.15870968421142748,"158":0.05981532896404079,"159":0.06158432189996696,"160":0.01963613579440705,"161":-0.017503705505553652,"162":-0.023302814324413043,"163":-0.1695148803873465,"164":0.2126435962387684,"165":-0.0405625117211393,"166":0.026313832183381593,"167":-0.003464694983085562,"168":0.04852217196525028,"169":-0.02452367830804004,"170":-0.13516460315737225,"171":0.26142412663445824,"172":-0.07825715690482356,"173":-0.045636442201226285,"174":-0.021751265076917208,"175":-0.0755542005720296,"176":-0.009357599597402524,"177":-0.17797758869816097,"178":0.7689216333155385,"179":0.04772159000645473,"180":0.08681709325759619,"181":0.06798764207130507,"182":-0.013180147128714202,"183":0.04485762942632364,"184":-0.07905376578229178,"185":0.7211992714715318,"186":-0.07724731854492313,"187":0.003935397073052945,"188":0.027255011499904943,"189":-0.01217085156920079,"190":-0.012891186469755159,"191":0.130301524535185,"192":0.4809029477225847,"193":0.14548777847298944,"194":0.01067554871381539,"195":-0.008959494641593789,"196":-0.009761214759493597,"197":-0.042394147099098146,"198":-0.017826957977102115,"199":0.38551056942922507,"200":0.06464339303841063,"201":0.003051408765084634,"202":-0.07040018793950117,"203":-0.0899027543405587,"204":-0.00317589285366288,"205":-0.1485934671469222,"206":0.25806887882393126,"207":0.028933315336149158,"208":0.006876561900331266,"209":0.025137910936301775,"210":0.02557836101076505,"211":-0.06757031800108769,"212":-0.054240682174000625,"213":0.2199506146675455,"214":-0.15449775791329648,"215":0.020331257762391766,"216":0.009307266757117943,"217":0.004937414856896208,"218":-0.004321181168525664,"219":-0.019642092443263218,"220":0.1565008326972655,"221":0.026409327199797415,"222":0.07405741565915536,"223":-0.009269516011452553,"224":0.0434997163912702,"225":-0.02830992553417689,"226":0.015752849161528793,"227":0.13545897165867696,"228":0.08076829971535794,"229":0.02375468887186499,"230":0.048120534006889835,"231":-0.07546677263277905,"232":0.045419076351227,"233":-0.026855664891818794,"234":0.11036972563513048,"235":-0.03257095640218927,"236":0.07357883979495994,"237":0.055127506009399745,"238":0.06199181541901218,"239":0.012515643815965665,"240":-0.05394073840121751,"241":0.35202923203050446,"242":-0.19089254759608099,"243":0.02301156630403376,"244":-0.0019872241881542995,"245":0.0037252928093804644,"246":-0.022474626598854384,"247":-0.02516518150960441,"248":0.34053514956642383,"249":-0.07504141225013361,"250":0.04440138564963717,"251":-0.03401537230032723,"252":-0.044052028276551955,"253":0.05049373947759236,"254":-0.13752279940426532,"255":0.3668708797679561,"256":-0.07816505181961628,"257":-0.0012838729132502928,"258":-0.06579204671079841,"259":-0.0355587421760209,"260":-0.0031120081486480065,"261":0.04466628363289179,"262":-0.013777318569553764,"263":-0.06806382562458699,"264":-0.012148105750503742,"265":0.03775885042611986,"266":0.02515966259090396,"267":0.008924069852097486,"268":0.054388269798663076,"269":-0.09672773344276206,"270":-0.10306811224423788,"271":0.021486310097519525,"272":0.0156629548646706,"273":-0.05105329659848862,"274":-0.017816261495526908,"275":-0.08741040973437579,"276":-0.1432373078485466,"277":-0.04677638155286408,"278":-0.032070119348031736,"279":-0.043597836708558255}},{"sx":1,"sy":1,"depth":280,"w":{"0":0.05011891376900579,"1":0.04058798159243013,"2":-0.06801071080158934,"3":-0.02343414489672687,"4":0.008457934010076142,"5":0.05453991617711345,"6":0.003572681297678843,"7":-0.016100759272148244,"8":-0.1308647722517562,"9":-0.09224247905117357,"10":-0.003533332589852697,"11":-0.025755837711802117,"12":-0.035415810269050295,"13":-0.011571326444220582,"14":0.05831222967202235,"15":-0.012440202368752531,"16":-0.016405679423995984,"17":0.02242302227035756,"18":0.058643379665909844,"19":0.0029919460318935725,"20":0.02494096211351109,"21":0.03332437083131769,"22":-0.030653639854368992,"23":-0.03773521007228764,"24":0.002180295305329762,"25":0.00956264578010737,"26":0.005600243820494263,"27":-0.020208579572971258,"28":-0.0734591284430367,"29":0.0005041979293136971,"30":-0.016856613842579363,"31":0.002951912550734515,"32":-0.09305710448897304,"33":-0.019259911198909296,"34":-0.08318127359715825,"35":0.07112489152163205,"36":-0.017577665777683188,"37":-0.03422904175524664,"38":-0.05355675635718125,"39":0.01700179923668133,"40":-0.0877855320304377,"41":0.022178516504718422,"42":0.0020831983776724437,"43":-0.04619317761257407,"44":0.026842531546182772,"45":-0.045947980004000855,"46":0.08174086562462984,"47":-0.030672670046606083,"48":-0.03961173452917112,"49":-0.07012773329341468,"50":0.02876827659765051,"51":-0.15572602631540627,"52":-0.04781147431559731,"53":-0.0892687193386038,"54":0.009439094289934679,"55":-0.050640481331736605,"56":-0.08687428655110194,"57":-0.04121655178426054,"58":-0.02227831916149524,"59":-0.09907877740382438,"60":-0.09439341334714217,"61":-0.09038011721591228,"62":-0.0742050676104559,"63":-0.03376619509682268,"64":0.06510718230354316,"65":-0.06188662702763077,"66":-0.028700069793949994,"67":-0.04003776653918084,"68":-0.08763527423606811,"69":-0.012490702270490029,"70":-0.011814769390563508,"71":0.004996046749647747,"72":0.05766102430790866,"73":0.00037289979329939487,"74":0.05885985679293183,"75":0.008323183604654954,"76":0.07740070279040384,"77":-0.0685465255316899,"78":-0.009822772945634545,"79":0.014560323757599749,"80":0.039687455034440676,"81":-0.07748806048865879,"82":-0.14265216640154446,"83":0.1380533760223186,"84":-0.03706050664440952,"85":0.04049351395001599,"86":0.048117471948552766,"87":0.10882771065611209,"88":-0.0782250066957557,"89":-0.03472618389793396,"90":0.006225473048078369,"91":0.0013680462437155715,"92":-0.009606041817691814,"93":0.06449975999548242,"94":0.03420367789877635,"95":-0.027034625688354845,"96":0.04164198926665666,"97":0.02343721917645698,"98":0.11146960283037134,"99":-0.026525303349568735,"100":0.029880377625509262,"101":-0.05397952523506819,"102":-0.022111642768524533,"103":0.05080311932466626,"104":-0.04132897225984814,"105":-0.0125081845267898,"106":0.04967289102547511,"107":-0.057020673147152666,"108":0.053670640624329795,"109":-0.003600145332929071,"110":-0.039956051516733225,"111":0.1496252755292019,"112":0.001999572292027313,"113":-0.01904888948773972,"114":-0.004448503608991745,"115":0.0540871004513752,"116":0.12527266125534384,"117":-0.0062611825232008304,"118":0.07549707619923293,"119":0.0888783094769578,"120":-0.12566971125899026,"121":-0.003420850682062565,"122":-0.006304598766832879,"123":-0.0026465984586114344,"124":-0.02688245211624709,"125":0.007782136356324342,"126":-0.00988337677499124,"127":-0.04998275676742883,"128":-0.03846474772008734,"129":-0.1640565155240224,"130":-0.0011031877618669138,"131":-0.006619855602800264,"132":-0.06221072565021565,"133":0.059237159642088026,"134":0.10057954670727,"135":-0.015416943519823395,"136":0.034891873379852945,"137":-0.04250424510264564,"138":0.04606893345692357,"139":0.03087478150693845,"140":-0.024578134015100634,"141":-0.011288868552844568,"142":-0.05180919678626711,"143":-0.01628249966682122,"144":-0.0458016751095023,"145":-0.04089651408039252,"146":0.007524123997749237,"147":-0.07909811825866472,"148":0.029543676035910207,"149":-0.027024633546369768,"150":0.0963929367774057,"151":-0.18055856091260417,"152":-0.006287917074968307,"153":0.05477319325335957,"154":-0.09163818110172298,"155":-0.14124753912604346,"156":-0.019417973737387507,"157":0.0027609989582853935,"158":-0.019705370034970672,"159":-0.044275349612217935,"160":0.039832058008411005,"161":0.07995321861970135,"162":0.10948217154047632,"163":-0.0026472318984564385,"164":0.01737717686824223,"165":0.025687705493277934,"166":-0.08700191285720721,"167":0.003623850004240601,"168":0.12596686644157057,"169":0.07966668560692429,"170":-0.04705947788848506,"171":0.06734318273192592,"172":-0.12881915541149114,"173":0.06826321340820145,"174":0.050766250074257814,"175":0.08928498195743709,"176":0.016415007941327008,"177":-0.024056413753762204,"178":0.04789331381075659,"179":0.02264360699221037,"180":-0.014283700592883666,"181":-0.07891578162226477,"182":0.014559346306038577,"183":-0.03559989187610463,"184":0.05085793067791844,"185":-0.14144268893552622,"186":-0.0829563296285051,"187":0.09689794452140259,"188":-0.09798672115125485,"189":0.06311607194504873,"190":0.007996560236814037,"191":0.06972692345976242,"192":-0.055271711348785606,"193":0.10735450173265836,"194":0.0701373514303304,"195":-0.0035193224261724524,"196":-0.09034652935908687,"197":-0.03764894327181722,"198":0.02723899472103789,"199":-0.05070810557883709,"200":-0.05699905851477223,"201":0.033103154414274936,"202":-0.06791080501453228,"203":0.0027487325140001825,"204":-0.055556093692514706,"205":-0.01622984004083751,"206":-0.0712906429754173,"207":0.03972616006569343,"208":-0.007954063672194462,"209":0.02399866576431573,"210":0.00285088648467659,"211":-0.07434290092828452,"212":0.002214571496940997,"213":-0.06230038673005702,"214":0.062086802970619547,"215":0.004740934225611889,"216":0.015919813632131616,"217":0.013978533760035617,"218":-0.06263049098904273,"219":-0.033793024425788847,"220":0.009492373122000528,"221":-0.04269980715723863,"222":0.03216427247080036,"223":-0.005976997978751938,"224":0.022872457176506863,"225":0.0016109954992731606,"226":0.03409941927990929,"227":-0.005768027438517539,"228":-0.008464483872274517,"229":-0.0024350691684101133,"230":-0.03750749546442948,"231":-0.03978656981879932,"232":-0.07998315556500689,"233":0.03144128851079157,"234":-0.046934009261677526,"235":0.08990392500062964,"236":0.15234091845102785,"237":-0.05627869359532274,"238":-0.030722448031125775,"239":-0.008250306480606085,"240":0.05226640548377916,"241":-0.006666812924463884,"242":0.03880287608293817,"243":-0.06704328999238189,"244":0.02065266596155081,"245":0.01764465317957659,"246":0.0042803823817324045,"247":-0.031879887601123036,"248":-0.026623565558250187,"249":0.018053178638221236,"250":0.011124836014666508,"251":-0.004024081242063219,"252":0.10312536198138726,"253":0.07674356258439283,"254":-0.06846544368505153,"255":0.05603072560537898,"256":-0.03291912951184143,"257":-0.038512346294967505,"258":0.09760020000858864,"259":0.010051714040729248,"260":0.04784305308199687,"261":-0.05126303850400128,"262":-0.10943329635796224,"263":-0.05760087108415479,"264":-0.04241877166587751,"265":0.08077933892780935,"266":0.022289163036110924,"267":-0.05957857780100304,"268":-0.006752194580433782,"269":-0.059632290799011146,"270":-0.10319393862097417,"271":0.017630895025714338,"272":0.04747426086163432,"273":-0.012458637778934786,"274":0.03042564690337732,"275":0.07688707437880493,"276":-0.009191949472893408,"277":0.032966484437487925,"278":0.11408963136500325,"279":0.03131885274378242}},{"sx":1,"sy":1,"depth":280,"w":{"0":-0.04024923843469559,"1":-0.11881367091810133,"2":-0.36525797818440703,"3":-0.5548961426564593,"4":-0.2153451099001066,"5":-0.10799087133395009,"6":-0.07153477844763408,"7":0.007897344087321059,"8":-0.028968792198160793,"9":-0.07434269418261899,"10":-0.16375242452563954,"11":-0.08609637569550828,"12":-0.021915492547456297,"13":-0.03427094973008544,"14":-0.01928580929090291,"15":-0.04222856931190202,"16":-0.0958608758971886,"17":-0.23449340102895924,"18":-0.08037731171624911,"19":-0.007726355588807912,"20":0.04623385515962016,"21":-0.050036146912307795,"22":0.0015021562328051854,"23":-0.032884219454417996,"24":-0.2498649483725208,"25":0.001060989752443594,"26":-0.002209725998947463,"27":0.024060929378892957,"28":-0.05676648243461655,"29":-0.05860887668734358,"30":-0.23145232870536878,"31":-0.4826356067982275,"32":-0.23887154572704639,"33":-0.04631192986971483,"34":0.000263117124744158,"35":-0.03921770643622793,"36":-0.02709136928154665,"37":-0.13576961375016394,"38":-0.29058992897689495,"39":-0.10556918822931136,"40":-0.0000053907165368035604,"41":-0.0221515775597204,"42":-0.052283009282246475,"43":-0.015768365422011512,"44":-0.1018388805340571,"45":-0.27781906242379095,"46":-0.03756702542729363,"47":0.010778972310385488,"48":0.0043579581507653216,"49":0.04087863597758212,"50":0.06296849951244576,"51":-0.06671589144885394,"52":-0.21549589190849144,"53":0.0010556418814402582,"54":-0.036741995610488416,"55":-0.021106057092307836,"56":-0.002530681674194891,"57":-0.11857892870802218,"58":-0.0871647455354554,"59":-0.34658379236283715,"60":-0.04994515267810652,