
//<![CDATA[

// a few things don't have var in front of them - they update already existing variables the game needs
lanesSide = 3;
patchesAhead = 30;
patchesBehind = 10;
trainIterations = 500000;

var num_inputs = (lanesSide * 2 + 1) * (patchesAhead + patchesBehind);
var num_actions = 5;
var temporal_window = 0;
var network_size = num_inputs * temporal_window + num_actions * temporal_window + num_inputs;

var layer_defs = [];
layer_defs.push({
    type: 'input',
    out_sx: 1,
    out_sy: 1,
    out_depth: network_size
});
layer_defs.push({
    type: 'fc',
    num_neurons: 24,
    activation: 'relu'
});
layer_defs.push({
    type: 'fc',
    num_neurons: 24,
    activation: 'tanh'
});
layer_defs.push({
    type: 'fc',
    num_neurons: 18,
    activation: 'relu'
});
layer_defs.push({
    type: 'fc',
    num_neurons: 18,
    activation: 'tanh'
});
layer_defs.push({
    type: 'regression',
    num_neurons: num_actions
});

var tdtrainer_options = {
    learning_rate: 0.0005,
    momentum: 0.0,
    batch_size: 128,
    l2_decay: 0.01
};

var opt = {};
opt.temporal_window = temporal_window;
opt.experience_size = 100000;
opt.start_learn_threshold = 50000;
opt.gamma = 0.95;
opt.learning_steps_total = 500000;
opt.learning_steps_burnin = 1000;
opt.epsilon_min = 0.0;
opt.epsilon_test_time = 0.0;
opt.layer_defs = layer_defs;
opt.tdtrainer_options = tdtrainer_options;

brain = new deepqlearn.Brain(num_inputs, num_actions, opt);

learn = function (state, lastReward) {
    brain.backward(lastReward);
    var action = brain.forward(state);

    draw_net();
    draw_stats();

    return action;
}

//]]>
    
/*###########*/
if (brain) {
brain.value_net.fromJSON({"layers":[{"out_depth":280,"out_sx":1,"out_sy":1,"layer_type":"input"},{"out_depth":24,"out_sx":1,"out_sy":1,"layer_type":"fc","num_inputs":280,"l1_decay_mul":0,"l2_decay_mul":1,"filters":[{"sx":1,"sy":1,"depth":280,"w":{"0":0.05439938661584723,"1":0.09326060298312301,"2":0.10606402945629566,"3":0.2399547050202124,"4":0.028184332438399063,"5":0.0010237534450715,"6":-0.02463831029384672,"7":-0.05151169567987815,"8":-0.0943661017131969,"9":0.0854292533484327,"10":0.0264110860237591,"11":0.0311092001192321,"12":-0.021415871016953327,"13":0.01750168174761427,"14":0.013320046121021369,"15":0.014547039486176602,"16":0.013505392235876467,"17":-0.024546638915647005,"18":0.016067559187228114,"19":0.07628789921320944,"20":0.029337351047585385,"21":0.0028304795953858377,"22":0.022492651296147508,"23":-0.08960793343846897,"24":-0.040748508041178126,"25":0.010829914371121895,"26":0.0012801185854453623,"27":-0.014487616141175564,"28":0.012507848238601403,"29":-0.03242200991240087,"30":0.10640511668186904,"31":0.2594528250277278,"32":-0.0541086812446896,"33":-0.016781098589765096,"34":0.08590882963455686,"35":0.03520421618159713,"36":-0.023376186087172773,"37":0.03202791375103142,"38":0.060262369138893004,"39":0.11121408833413922,"40":0.037110944024243205,"41":-0.011171705304873093,"42":0.03903920719500777,"43":0.021497771431359062,"44":0.04815452240280114,"45":0.10850135322839831,"46":-0.013230957916308683,"47":0.047004025984635024,"48":0.025453550541590698,"49":0.06266021799327308,"50":-0.027707702027950018,"51":0.05948424152030015,"52":0.0322773951590229,"53":0.016510553074755484,"54":0.008780724966710894,"55":-0.07615825543251233,"56":0.0075114577558040895,"57":-0.03222986650631348,"58":0.04590360206534082,"59":0.12944782557236706,"60":0.011514040468728578,"61":0.10413215731720431,"62":0.028045988831556994,"63":0.07917942299200681,"64":0.033251187716996984,"65":0.08264296290927459,"66":0.21255557074182288,"67":-0.0008569266335160914,"68":0.07463326030140315,"69":-0.01979518465405718,"70":0.018887903049852574,"71":-0.018168211549126602,"72":0.07645438507364717,"73":0.169989932278696,"74":-0.031730638002302594,"75":-0.004634545873661913,"76":0.0004913078923619171,"77":-0.017346793386229034,"78":-0.0072238358468442706,"79":0.03510359995880503,"80":0.1345996516070055,"81":-0.016912211914151827,"82":-0.01071939229353591,"83":-0.04290372144907461,"84":0.0069633674630309875,"85":-0.12745953521602152,"86":0.17350775976234906,"87":0.22072468596621903,"88":0.04744563243292437,"89":0.0682404189868656,"90":-0.03383521196201095,"91":0.08866163775342845,"92":-0.005140344630784333,"93":0.0016510260428671602,"94":0.1859230912375074,"95":-0.07807286725382503,"96":-0.05351498671868383,"97":-0.05598585217289002,"98":-0.03468618593929089,"99":-0.0054916462214739,"100":0.13322876960055682,"101":0.13859154897146508,"102":-0.03244872897974715,"103":0.04947899974789406,"104":0.09015135126197359,"105":0.01057577508315639,"106":0.05927966686414086,"107":0.15031632364120176,"108":-0.055351199734969235,"109":-0.08164892206290311,"110":-0.03455291334288187,"111":0.005665682591977658,"112":0.1238395919519133,"113":0.04114608979087539,"114":0.0834580227211325,"115":0.3522511993664319,"116":-0.023900074908960962,"117":-0.019577362634695467,"118":0.005909484696533869,"119":0.029800224477299186,"120":0.03283973077283072,"121":0.1329820419777771,"122":0.08099377606139407,"123":-0.0214212869784538,"124":-0.048761659499620066,"125":0.018595002252152968,"126":-0.014919154992504888,"127":-0.07871056347818349,"128":0.10861383660519829,"129":0.004685618451430394,"130":-0.10751021944635931,"131":0.051582919767015616,"132":0.015967481368408684,"133":0.011773464537209502,"134":0.05187214238736936,"135":0.0987503009113498,"136":-0.14123734454700343,"137":-0.017922812459434105,"138":-0.10054663427264454,"139":0.0566056528085528,"140":-0.0038704661256904614,"141":0.09272172957890107,"142":0.13938594806150065,"143":-0.42364017391649095,"144":-0.018137207506227174,"145":-0.018047077315352295,"146":0.02205600384889578,"147":0.03107463430074816,"148":0.006816380670895394,"149":0.0067064358091925794,"150":-0.39424927209512495,"151":-0.08573266687969147,"152":0.049774542376131665,"153":-0.061719034061691,"154":0.09343672502329853,"155":-0.007166909747142097,"156":0.10475965764013892,"157":-0.25689893059311736,"158":-0.17052795410021324,"159":0.009079471688319752,"160":0.005753511556927421,"161":0.015549674634075868,"162":-0.01135325737211169,"163":0.04340515179636814,"164":-0.2385205218630617,"165":-0.1771490344834755,"166":-0.03806740518405539,"167":-0.03408590109970628,"168":0.057339730790579,"169":0.030016003282917925,"170":-0.053879928058481755,"171":-0.44784585695932283,"172":-0.1157438519994799,"173":0.07797530530061342,"174":0.0019814562984819964,"175":0.0719242665799405,"176":0.005856724959181551,"177":0.04571007745906121,"178":-0.35084537102240304,"179":-0.10105951004522636,"180":0.04760086255724159,"181":-0.0020023843023102726,"182":-0.0755385817138153,"183":0.025165833681685533,"184":-0.13694592515833284,"185":-0.46118083993743925,"186":-0.05496692858526715,"187":0.05643442823110543,"188":0.0036317106444751232,"189":-0.01770290867015784,"190":-0.06891101663372752,"191":-0.08370769416743004,"192":-0.25959868264450187,"193":-0.10615120967858377,"194":0.07130694674972218,"195":0.06973468539747939,"196":-0.0016582102655196397,"197":-0.005164219468355794,"198":-0.05761038411628751,"199":-0.17379116641175932,"200":0.011915084377203795,"201":0.049761901194052695,"202":0.011609151196296772,"203":-0.04480541773916864,"204":-0.0441951488370275,"205":-0.056728256816526,"206":-0.1642726531726347,"207":0.02211428545848796,"208":0.11164098800287364,"209":0.061249398377814596,"210":-0.0037700660963848128,"211":-0.019514832799031545,"212":-0.2011313341990564,"213":0.09964690124727602,"214":0.0813431924716684,"215":0.059204290059182894,"216":-0.014140683169849077,"217":0.09713640230608922,"218":-0.10535212159997898,"219":-0.1486808507135365,"220":-0.038300861322229755,"221":0.03659820460820464,"222":0.004699799312371114,"223":0.05171336286680712,"224":0.06696465500977365,"225":-0.014021241733064124,"226":-0.20713925322111992,"227":-0.01591816065456522,"228":0.15684913745542345,"229":0.051342445127646893,"230":-0.06960987420604393,"231":-0.006725649036707639,"232":0.019463402462397073,"233":-0.22188615493716657,"234":0.08058040416037011,"235":0.10954445573415597,"236":0.013656473990711626,"237":0.002839645058756172,"238":-0.11006847291357622,"239":0.016543575019724338,"240":-0.14781135424115682,"241":0.08162182744810133,"242":0.19587615289736662,"243":-0.026648982496949494,"244":0.058542821252019685,"245":0.007108598117100903,"246":0.005599821129304896,"247":-0.1726830445774288,"248":0.07692885833074241,"249":0.09706847504307509,"250":-0.025952541484727757,"251":-0.11072459064062101,"252":0.026103939584102398,"253":-0.008211482613848997,"254":-0.13240332968909363,"255":0.12389157318824312,"256":0.020224367446310922,"257":-0.06638537020155819,"258":-0.004251928249407461,"259":-0.020577571482277443,"260":-0.08590463278525752,"261":-0.06439223589084703,"262":0.11062049371063622,"263":0.08563053876773997,"264":0.007916295729724352,"265":0.026417390325243102,"266":-0.018935087518432727,"267":0.048301302048312414,"268":-0.08859088665314277,"269":-0.004056052577191251,"270":0.014339569977957503,"271":0.043009860817741975,"272":-0.08507042612674406,"273":0.019592454079392793,"274":0.10084217610448633,"275":0.026776430851740043,"276":0.010356338971733717,"277":0.0640066201273769,"278":-0.1037287916590107,"279":-0.04799526936669363}},{"sx":1,"sy":1,"depth":280,"w":{"0":0.00006066227178754788,"1":0.04558487372306146,"2":0.06988268310885763,"3":-0.03441715292100741,"4":-0.03564107653068225,"5":0.010077353898836662,"6":0.043988382794614325,"7":-0.013251778954396654,"8":-0.02598850264051007,"9":0.010125628870649868,"10":-0.09143119872055684,"11":-0.038582651467494636,"12":-0.0007062030719293028,"13":0.0016387993878141476,"14":-0.004994494871919556,"15":0.001328716929143137,"16":-0.00662221190647397,"17":-0.028519982124954192,"18":-0.007921029732098574,"19":0.010567440315469145,"20":-0.006935875913060404,"21":-0.04651786393281397,"22":0.028364577896063062,"23":0.0031181093653272545,"24":-0.1050470925574829,"25":0.011168190713572872,"26":0.06714211350679136,"27":0.03999345819566749,"28":0.013254011851965147,"29":-0.019414100125879987,"30":0.07120926605756737,"31":0.013881341051501798,"32":-0.021446144850520283,"33":-0.0061366562900000456,"34":0.04996386163193925,"35":0.043339627283270926,"36":0.045335366617316276,"37":0.03532607299582341,"38":0.02926013292751324,"39":0.03034601828293036,"40":0.03476338944539305,"41":-0.04034260246690925,"42":0.022764745457999714,"43":-0.016980826332885883,"44":-0.01112900759201581,"45":-0.05572795036206974,"46":0.018439925128525297,"47":0.024482832047776775,"48":-0.019704768789545524,"49":-0.013591841483237822,"50":0.008111545390360818,"51":0.020625180664370867,"52":-0.03197864061955319,"53":-0.0006188344074205918,"54":-0.030808325354153412,"55":-0.04042945940089077,"56":-0.012240874274314252,"57":-0.024285616561672933,"58":0.027786431541872512,"59":0.07037934914784368,"60":0.012999234860551188,"61":0.08373417004526651,"62":-0.00026888468324750935,"63":-0.015896698918832886,"64":0.07963626505740017,"65":0.01957499500795481,"66":0.08352006606319994,"67":0.0260223382550096,"68":0.09722015303246545,"69":-0.05255712191392044,"70":-0.03468493641190931,"71":-0.009318918496579039,"72":0.0412991285167414,"73":0.01838835337215273,"74":0.06248201196723161,"75":-0.05073115055260089,"76":0.002813751407984317,"77":0.07559173235367901,"78":0.012411246394994132,"79":0.008282645091438619,"80":-0.033130865839596076,"81":0.009501961517459237,"82":0.07865499317447425,"83":-0.011475056276180277,"84":-0.016805755584152482,"85":-0.042709035903344836,"86":0.11194986830028734,"87":-0.06826865524959962,"88":0.06159814687243747,"89":-0.0033360633904701404,"90":0.03722657770577914,"91":-0.012495333197600867,"92":0.07140620563334416,"93":0.013732345022382941,"94":-0.002652577608385978,"95":0.14658351444552678,"96":0.061644216540070025,"97":-0.024722316615522273,"98":-0.016598878941946584,"99":0.039941955026493274,"100":0.08751721198237246,"101":0.040270228605688185,"102":0.04081924079258498,"103":0.055978192682769885,"104":-0.012589616514053268,"105":0.09195688988332738,"106":-0.02233653678489477,"107":0.09459248474778356,"108":0.26162987296803786,"109":-0.0075698141959220635,"110":0.04071067792115629,"111":0.003196742626178735,"112":0.016027310663745513,"113":-0.0019830476945947523,"114":0.08200965177352168,"115":0.02534256973623206,"116":0.1369213387894317,"117":-0.09032694841490581,"118":0.010210835238247827,"119":-0.005429542132897525,"120":0.11191028906095825,"121":0.031242559828974507,"122":0.10597492940902786,"123":0.0885817970081963,"124":0.03550061958557814,"125":0.05989895078252371,"126":-0.03228803285793538,"127":0.025032332208089925,"128":0.1841654191027605,"129":0.11639995719045497,"130":0.13544893810980985,"131":0.01548471196377345,"132":0.10882479625984512,"133":-0.0014469664855245145,"134":-0.031147025638610052,"135":-0.02049884056145278,"136":0.10609968545451381,"137":0.027478300911318886,"138":0.0303342098758239,"139":-0.008827187231237838,"140":0.009864806976436805,"141":-0.014909934394077777,"142":0.028594774438197874,"143":0.6553759748323451,"144":0.13219243181094234,"145":-0.011800212038483696,"146":0.04626440331726908,"147":0.02761766435331653,"148":0.029594785167155527,"149":0.05260263182907974,"150":0.44440412532185614,"151":0.09513190192188108,"152":0.03007157609184366,"153":-0.06762913284086966,"154":-0.023484803418225772,"155":-0.02782029061802231,"156":0.09514814190820761,"157":0.3647012779065494,"158":0.06252532110944783,"159":0.016443613925592904,"160":0.002577031868211132,"161":-0.009179527741325917,"162":0.018214899981484553,"163":0.01481037531031729,"164":0.7229875488913066,"165":-0.035776295285982744,"166":0.0046607225084523375,"167":-0.09426342746899513,"168":0.09594564133596672,"169":0.018108979916696265,"170":0.10644719095847321,"171":1.0443958698867537,"172":0.1467954032011599,"173":-0.08142317807482682,"174":-0.02574014420028212,"175":0.0609346050974369,"176":0.05931721532995644,"177":0.045718383506618006,"178":1.0938322992046698,"179":0.08511219585380939,"180":0.0010476799541329512,"181":-0.06727184322545353,"182":-0.0716388769094328,"183":0.014946446831098486,"184":0.18233187798591488,"185":0.8490643296082867,"186":0.12261660110533323,"187":0.005973207443813384,"188":0.04800465122525625,"189":-0.0828793744177872,"190":-0.039746489029354314,"191":0.05390136719343937,"192":-0.11745594849827014,"193":0.14460259278375084,"194":-0.010448965808186146,"195":-0.016199141812124385,"196":-0.04348983699194236,"197":-0.023482633891083574,"198":0.1238996481686476,"199":-0.7319379055289389,"200":0.12564913472780678,"201":-0.039740854683226315,"202":0.06120950033575279,"203":-0.02597094003752778,"204":0.011844107461855853,"205":0.06787290294456931,"206":-0.7778237372851577,"207":0.047478342594712133,"208":0.041280601998284656,"209":-0.05739565256196423,"210":-0.07818438696780826,"211":-0.047762745497016985,"212":0.02651990171808465,"213":0.0622971969469459,"214":-0.01355521443859902,"215":-0.041355385147850816,"216":0.02023170342282703,"217":-0.0417847581198673,"218":-0.08383775688679726,"219":-0.06556974645222088,"220":0.0217418426567867,"221":-0.0377454392619983,"222":-0.04989538010050237,"223":0.040930839062432146,"224":0.0609442367357637,"225":-0.07601695413921083,"226":-0.034769757352316764,"227":0.1506022053423361,"228":-0.045461550946622985,"229":-0.04493744730926282,"230":0.0011381696269261484,"231":-0.04514915152001353,"232":-0.04339217504278018,"233":-0.09037541711497428,"234":0.014926045336866612,"235":-0.13891520958119846,"236":-0.014923116248028745,"237":-0.016366789671752344,"238":-0.04919411997542196,"239":0.011954108951372807,"240":-0.1947287443340529,"241":-0.7804229844126793,"242":-0.275129429341158,"243":-0.023633729254462707,"244":-0.047113144765183364,"245":-0.006055157148189751,"246":-0.1105655775577167,"247":-0.1697747171427213,"248":-0.7675769159301176,"249":-0.3131756685429731,"250":-0.09685038093868646,"251":0.000745610673435369,"252":0.0323884627984902,"253":-0.03781042920252336,"254":-0.14451733849760728,"255":-0.6097888226987309,"256":-0.20551375284933315,"257":0.0392769840071655,"258":0.04374300662958088,"259":-0.01796509098289901,"260":-0.04806645441642403,"261":-0.05538123322350373,"262":0.06022900561522294,"263":-0.08344618439931031,"264":0.005024424892276317,"265":0.02344970145668068,"266":-0.04652455272468444,"267":-0.008583856251179153,"268":-0.12966413789857625,"269":0.05101431292279089,"270":-0.017048790413269045,"271":0.010194035712303002,"272":0.014462445358253117,"273":0.03263727305866265,"274":0.006244421074087722,"275":-0.09482469335905798,"276":-0.05261619003918508,"277":-0.146416920750374,"278":0.01567395846786919,"279":0.0025790187585868663}},{"sx":1,"sy":1,"depth":280,"w":{"0":-0.017683862439942365,"1":-0.008587553919004974,"2":-0.009120114948214054,"3":-0.016680359815373004,"4":-0.020420138350356363,"5":-0.0022086929224834463,"6":-0.04632391056215335,"7":-0.15354384956178851,"8":0.023845211914354014,"9":0.02811917910916732,"10":0.05651107829224499,"11":-0.08607136111530272,"12":0.02512020174486816,"13":0.021983397448538815,"14":-0.03375653719549404,"15":-0.07251132583608755,"16":0.01830661710101622,"17":0.001232984575069908,"18":-0.004879568548812413,"19":0.045220869770642956,"20":-0.012633384780158902,"21":0.05004970401727676,"22":0.08754839691937964,"23":0.010202283683820153,"24":0.01855791043946829,"25":0.035524134879263335,"26":-0.04797372293412734,"27":-0.0679406348527909,"28":0.0017232203476798924,"29":0.01862136565048154,"30":0.037645611971752146,"31":0.018955165116377688,"32":-0.11212034839110037,"33":0.04786801505477597,"34":-0.024095543354797584,"35":-0.07406914930904626,"36":0.01033896939238127,"37":0.02841134775001964,"38":-0.0908878164355487,"39":0.008785220572648827,"40":0.04076949902937615,"41":0.07440452965371212,"42":0.036959093803356755,"43":0.02646563303786832,"44":0.03655104355884498,"45":-0.026321981913279044,"46":-0.05347926516392192,"47":0.09397957297888111,"48":-0.09237624060442398,"49":0.044170615721855204,"50":0.007973366194871753,"51":-0.04953045897680663,"52":0.027953513158571416,"53":-0.017968199611349423,"54":-0.05462974685559176,"55":0.06817684607923233,"56":0.11877602209669731,"57":0.08897214545817769,"58":-0.07721881291424011,"59":0.1016550397025432,"60":0.07514481252356207,"61":0.035007161031873964,"62":0.03432017731705462,"63":0.07915489640306336,"64":-0.09150308700731816,"65":-0.09760050016525501,"66":0.012693393805805628,"67":-0.07159143405017292,"68":-0.0042030524576506,"69":0.03627457997423798,"70":0.04182965935135462,"71":-0.003742638020610393,"72":-0.040935442642981004,"73":-0.1439308888980603,"74":0.02237234653049664,"75":-0.05615016874183609,"76":0.053334776287857294,"77":-0.10980189655799691,"78":-0.01902181221537355,"79":0.041773943401219295,"80":0.04435271352333295,"81":-0.008348720545723642,"82":0.012991943531130054,"83":-0.005978646484814917,"84":-0.0325539082183216,"85":0.013724955558406715,"86":-0.06549762549442253,"87":-0.024038807857394873,"88":-0.06201037815549889,"89":-0.060575033283119695,"90":0.021269767530921444,"91":-0.01970405563712123,"92":-0.1692651991086711,"93":0.05604814091423075,"94":0.06694495557110632,"95":0.005088484641896801,"96":-0.037438755368456735,"97":0.09539027977836688,"98":0.02573048852541008,"99":-0.015046555384524053,"100":-0.07889185258583041,"101":-0.050363920114541987,"102":-0.06364905131084929,"103":0.011313173966328862,"104":-0.022973512324265567,"105":0.019550864636966158,"106":-0.033026618368131457,"107":-0.049330714235641684,"108":-0.05556725532912309,"109":0.007038072417462722,"110":-0.0359039885688603,"111":0.042813835646552494,"112":0.010816166527343575,"113":-0.07415007898899156,"114":0.007178479510755958,"115":0.05938718186729325,"116":-0.09247831706607694,"117":0.05679800184881618,"118":0.02899229746606035,"119":0.01920095096279798,"120":-0.00922722259275567,"121":0.025765231339491258,"122":0.029788817478483526,"123":0.08574000900437793,"124":0.029524929200225702,"125":0.004140526570877693,"126":0.0159015716528037,"127":-0.0391458201684051,"128":-0.04074330627922137,"129":0.026577112180389606,"130":0.014150619615207648,"131":0.00034513149819137117,"132":0.08422884511204365,"133":-0.07845164203609607,"134":-0.02486390611579613,"135":-0.09374265420721628,"136":0.05490838697101843,"137":-0.012389783208149395,"138":0.03572618564244433,"139":-0.03746783935762025,"140":0.04522015736023546,"141":0.04312165611211735,"142":0.02895573952804828,"143":-0.03909066812132653,"144":-0.10639212482089383,"145":0.03301581606025951,"146":-0.12131379805754064,"147":-0.002441148853916193,"148":0.06400364372100106,"149":-0.034249453565039584,"150":0.012388414212444819,"151":-0.0017305323725466976,"152":0.011375702257503268,"153":-0.0016086406323444094,"154":0.09368986686282489,"155":-0.021594261059968627,"156":0.04746901970108225,"157":-0.010752235213511756,"158":-0.03009804374087665,"159":0.0011258989253270753,"160":0.01536250555431703,"161":-0.1572485770256453,"162":-0.05210362583819396,"163":0.04000205670585128,"164":0.024884816693394988,"165":0.05936678697280132,"166":-0.10221705355886904,"167":0.059941709762299185,"168":0.01540024699480579,"169":0.026747362211396602,"170":0.10794830845783776,"171":-0.01160388521427889,"172":-0.10468993201994661,"173":-0.01907035904726707,"174":-0.013634906818820968,"175":-0.028959468931665632,"176":-0.009263454079650258,"177":0.07497810814758347,"178":-0.03642935368503435,"179":-0.04741681669035937,"180":0.027268958309079938,"181":-0.045827526607991526,"182":-0.004508447234716526,"183":-0.0010377959446458648,"184":0.04583744043494697,"185":-0.007389052642945193,"186":0.08991559396939822,"187":-0.00795092398447231,"188":0.037775689661899196,"189":0.00919649678906321,"190":0.008560921857722363,"191":-0.0734763550602716,"192":-0.061059479438618544,"193":-0.05603730704038702,"194":0.00011728507547425776,"195":-0.033978580230911354,"196":-0.04836345263913846,"197":0.03362015499955029,"198":-0.03384471760753215,"199":-0.019463210768049674,"200":-0.12897675833174788,"201":-0.06446578215466635,"202":-0.016476855810880344,"203":-0.059255222847434126,"204":0.015175188551919173,"205":-0.0005782050781329945,"206":-0.04861369152020217,"207":0.008057552482715315,"208":-0.015969249190631373,"209":-0.10017394810163434,"210":-0.036799066185628164,"211":0.051183071147932586,"212":0.020454039063729154,"213":0.019416747595919458,"214":-0.09815429307563911,"215":-0.1130095457489135,"216":-0.02252341207992728,"217":0.07387304744754906,"218":-0.1200475069316854,"219":0.04941935760938033,"220":-0.04653516842757641,"221":0.08778860942314154,"222":-0.015990420320054117,"223":0.01174603670306213,"224":-0.003961678099088338,"225":-0.07622110971450148,"226":0.0260941989278419,"227":-0.011098714591052654,"228":0.01585858695977623,"229":0.011206855546168265,"230":0.09734084212230353,"231":0.005332084377301553,"232":-0.04918428839311698,"233":-0.05518786798849633,"234":-0.19004398195703162,"235":0.07077198055614867,"236":0.1495254415025938,"237":0.007847262301515808,"238":0.06741316571582628,"239":0.022382362722440274,"240":-0.00697563130693542,"241":0.04273014344047308,"242":-0.01217938467857232,"243":0.012423627520889298,"244":-0.04975306985536147,"245":0.04857749531391557,"246":0.009744640066914164,"247":0.01121001618571,"248":-0.07379694922182607,"249":-0.021421361512373435,"250":0.09262855368213954,"251":0.055873607762491936,"252":0.08510206958756007,"253":0.0722229278503913,"254":0.00623721981392362,"255":-0.011249309158887296,"256":-0.03316375650972078,"257":-0.08292284975519343,"258":-0.012429469585450157,"259":-0.04636080854299271,"260":-0.18709306092194145,"261":-0.04827512360672319,"262":-0.058458854079872946,"263":-0.04466598060277456,"264":0.007832586624401991,"265":-0.02466570613663669,"266":0.019976717414921578,"267":-0.05265650989161432,"268":0.09391962062443125,"269":0.03857589642831372,"270":-0.13402017984793416,"271":-0.02992378890159169,"272":0.15602919633135576,"273":0.053314145239277175,"274":-0.02722450674545206,"275":0.05984875862882071,"276":-0.08478056243090458,"277":-0.04033734750100605,"278":0.012383716088906682,"279":0.002756252788102468}},{"sx":1,"sy":1,"depth":280,"w":{"0":0.035755050253241036,"1":0.07388207082504411,"2":-0.012337287643978992,"3":0.0037305984078372977,"4":-0.1130478438874394,"5":0.06469561382058753,"6":-0.04959722423567744,"7":-0.058741961479781536,"8":-0.10892436149242174,"9":0.07915977545431391,"10":0.057773316732002415,"11":-0.0731819862757686,"12":0.01163535004084442,"13":0.1376268927797935,"14":-0.07363956896059683,"15":0.050666963878842196,"16":-0.10326916422328654,"17":-0.04445367478099527,"18":-0.05719052088237127,"19":0.03054615045435234,"20":-0.016992278092235157,"21":0.005535422947816431,"22":0.017104465255557214,"23":0.04801987980903488,"24":-0.10187687157507662,"25":-0.11782506167972788,"26":-0.006458222660966493,"27":-0.19462032934985926,"28":0.04465345108385258,"29":0.013317733263045726,"30":0.02852007510753872,"31":-0.010799225344148894,"32":0.03500224728945737,"33":0.08245086158565373,"34":0.06663283076229029,"35":-0.054108423053627515,"36":-0.029337092679425348,"37":0.02700143084454279,"38":0.003550663727672776,"39":-0.06574757916530284,"40":-0.11218245059515347,"41":-0.05190362811565227,"42":0.01693563554221966,"43":-0.10614603353088908,"44":0.012992379785647584,"45":0.006502477067796528,"46":0.01253690803860732,"47":-0.06365703285421033,"48":-0.00415192493678601,"49":-0.061994817344499256,"50":-0.0431934369342815,"51":-0.11283953448357223,"52":-0.037249269809320744,"53":-0.15671110051498116,"54":-0.0305201627412409,"55":0.04239539266754507,"56":-0.053991162568444655,"57":-0.010778030577749655,"58":-0.02746348835299948,"59":-0.0031045957792853874,"60":-0.01775860649681974,"61":0.07091194665432281,"62":-0.024760774699038715,"63":0.014347657836341489,"64":0.09420955083167758,"65":-0.01215068721134311,"66":-0.013421936629097488,"67":-0.01346550912721736,"68":0.08095578015801934,"69":0.01894467432127523,"70":-0.024659935203689233,"71":0.08879381788193817,"72":0.0064993000091150485,"73":0.03976937069618156,"74":0.023224670890333057,"75":-0.0016053774145364172,"76":-0.12491876207789315,"77":-0.07427273616265177,"78":0.033965645163486095,"79":-0.07823964409539617,"80":-0.001929389091007478,"81":-0.07580571412515401,"82":0.010109545338762821,"83":0.007996822618540695,"84":-0.0823839639227897,"85":0.022121244483629364,"86":0.0653160066252553,"87":0.051274799705981255,"88":-0.06779549493933448,"89":0.043640312764849414,"90":0.01401768101204305,"91":-0.0037367119536806277,"92":-0.07138729718966501,"93":0.03820584200263364,"94":0.0002023590920055295,"95":0.051744520112764626,"96":-0.03831823298124848,"97":-0.008635941675892137,"98":-0.00434483044507253,"99":-0.03650161242642684,"100":0.11866514044330671,"101":-0.026692387414915156,"102":0.07076131101173407,"103":0.06252235072902627,"104":0.07778934920080634,"105":0.03342686837487124,"106":-0.1277324650057358,"107":-0.04962715693476333,"108":0.08335412408705518,"109":-0.0456085716250059,"110":-0.07215491449845801,"111":0.05519913916436055,"112":-0.0007034813102514871,"113":0.07403695502183018,"114":0.12096161832655347,"115":-0.023498335607760403,"116":-0.08074891739481811,"117":0.055493362913521395,"118":0.022569665747713425,"119":-0.048186772222832026,"120":-0.060949912601751144,"121":-0.07258171037784045,"122":0.10553057298984214,"123":-0.09183643856335431,"124":-0.03974050600457279,"125":-0.0403263175924035,"126":-0.046026010632832674,"127":0.002319896994848754,"128":-0.017573611696092447,"129":0.048514149318946105,"130":0.01270804349898837,"131":-0.06992596327571755,"132":0.09085287154541574,"133":-0.10446913920731771,"134":-0.014875691736234967,"135":0.07924864885541304,"136":0.011456130387415428,"137":0.006040418000876026,"138":0.11511514525153183,"139":0.011147447515053243,"140":0.07361806566293759,"141":0.02634801989100398,"142":-0.08903014127246936,"143":0.021971335924745115,"144":-0.06210556594338714,"145":-0.048217188135030974,"146":0.011240128287625526,"147":0.0070895221469803385,"148":0.08853743639048393,"149":-0.06663908547708812,"150":0.049630446821171466,"151":0.029295307739570123,"152":0.08673083461407832,"153":-0.041683543938690185,"154":0.12970098829689292,"155":-0.018871843567389798,"156":0.024187359174267738,"157":0.10810308325880685,"158":-0.02085072734278863,"159":-0.012923469714089126,"160":0.08826565092134683,"161":0.05086616442536983,"162":-0.09018319649063153,"163":-0.08040238361490264,"164":-0.05240057669483023,"165":0.08983207032928078,"166":0.14753231250747514,"167":-0.02586588947833406,"168":-0.13850359800641096,"169":0.04629521373202973,"170":-0.08804575156760219,"171":-0.0764246171282991,"172":-0.06076773974973617,"173":0.0013712235557266814,"174":-0.03905086916424816,"175":0.05155225869945893,"176":-0.00838293441036345,"177":0.020535302597457124,"178":0.062386659999756025,"179":0.03180789753846322,"180":0.09469605981860843,"181":-0.0715026559346707,"182":0.05975618281608776,"183":-0.011601305601369008,"184":-0.0946654496717427,"185":-0.044925764138739034,"186":-0.06493110297852958,"187":0.09881960007538769,"188":-0.04970267875212343,"189":-0.08802249229065583,"190":-0.09326398726921531,"191":0.0006221653453747359,"192":-0.036291614941638205,"193":0.06299418757054538,"194":0.012676099362782621,"195":-0.005498597358022529,"196":-0.1523358400489481,"197":0.00523573730945506,"198":-0.02317389544830253,"199":-0.01686584186055369,"200":-0.028171076509850946,"201":0.029361040968582663,"202":-0.019872532498822284,"203":0.016454410188985184,"204":0.09070346323870689,"205":-0.06725552825145463,"206":-0.002976336116518254,"207":-0.03287877643200961,"208":0.11260940540312867,"209":0.005091564334130669,"210":0.017693969788596234,"211":0.02399298135249662,"212":-0.07472357162485543,"213":0.04511040718194993,"214":0.002418679327665224,"215":-0.03921418677352942,"216":-0.03958382780183254,"217":-0.05418418265012362,"218":-0.0011204935942302273,"219":0.010353365212363005,"220":-0.035327158576597746,"221":-0.16326041269775787,"222":0.013737886506278801,"223":-0.06003171494294832,"224":-0.002938601225192718,"225":-0.025913395932382205,"226":-0.017482716192024975,"227":0.01646441306145619,"228":-0.11094234159011654,"229":-0.06645696801847864,"230":0.08538071051946133,"231":0.04855140556158617,"232":0.04963126152953069,"233":0.07664075522649605,"234":0.0694321322655495,"235":-0.1014422976113191,"236":-0.023540438106045662,"237":0.06536959520933332,"238":0.0729693617170628,"239":-0.03657997001256654,"240":-0.08265953518489302,"241":-0.0325006042243,"242":0.028817962395042734,"243":0.014861000879433857,"244":-0.07664453123280862,"245":0.059044044001426106,"246":0.007850087304676822,"247":-0.06246390161069448,"248":-0.08360901078295044,"249":0.0197092373757537,"250":-0.0076757783402338605,"251":-0.03805325568756954,"252":0.0596159184584983,"253":0.031230573585678233,"254":0.005208990261860597,"255":-0.027011185559228112,"256":0.0049593148836632635,"257":-0.024688649271940404,"258":0.0051775567702859,"259":0.009458941913097154,"260":-0.045264403914939806,"261":-0.03866854149344557,"262":0.09894999943484889,"263":-0.008837246725166625,"264":0.05667594341471256,"265":-0.109023108201358,"266":0.0018570187821336916,"267":-0.04447587244578169,"268":-0.06928522867084984,"269":0.03224096944259438,"270":0.06903725250132421,"271":0.06953787779041927,"272":0.0026625994484045607,"273":0.005403442512370495,"274":-0.037224916535589646,"275":-0.034537959452144724,"276":-0.04457215929931897,"277":-0.06725339648465149,"278":0.04020997800495453,"279":-0.06415399740757063}},{"sx":1,"sy":1,"depth":280,"w":{"0":0.11692280413361344,"1":0.07647026226736917,"2":0.08998580759499115,"3":0.05868486023169176,"4":-0.02284804174096685,"5":0.07284974336358598,"6":0.03471404595687107,"7":-0.018857390421293026,"8":0.09412558533038629,"9":0.014672650437989833,"10":0.04960008597469558,"11":0.07227603764511749,"12":0.06540555931291285,"13":-0.016218393747438394,"14":-0.02451103002268716,"15":-0.014015002477298569,"16":0.0003064652828361159,"17":0.04752158264692852,"18":-0.08683265290303788,"19":-0.061837747065493234,"20":-0.03197116067614176,"21":0.037652963601015055,"22":-0.015846407298846128,"23":0.06568047549832526,"24":0.06192808504148703,"25":-0.04794835847658796,"26":0.0879023814591908,"27":0.0037745466226776153,"28":-0.008541107930684676,"29":0.04852516642027326,"30":0.0840505590218283,"31":0.05140839560494454,"32":0.0067276617746770614,"33":0.10072443239672586,"34":-0.017790354327961604,"35":-0.042689695177730684,"36":0.02151862967330012,"37":-0.006569514814728106,"38":0.0756577957047301,"39":0.009854043558494787,"40":0.0376450937477048,"41":0.09423088261275209,"42":0.10479985570612202,"43":0.048521733765791164,"44":-0.0036550532051309965,"45":-0.08436555303609762,"46":0.013262979514666942,"47":0.0727141726104047,"48":0.02817008384900072,"49":-0.031503023170519125,"50":-0.05535752746348659,"51":-0.03777981553858866,"52":0.04262635834640459,"53":-0.08133199085917335,"54":-0.008529710396310088,"55":-0.04537374528912133,"56":0.03479471367199737,"57":-0.0022894083586602557,"58":-0.01161836825724718,"59":-0.001667445915601948,"60":-0.012219976254906723,"61":-0.024745606705122186,"62":-0.08285016371843056,"63":-0.05112270864960678,"64":-0.01500132000745567,"65":-0.05322814199113948,"66":0.0028662139182411913,"67":0.03737321175666506,"68":0.11352270654636648,"69":-0.017271544775320887,"70":-0.016934141798180317,"71":0.016836974035357336,"72":-0.1733317893982869,"73":-0.012740555791655322,"74":-0.02290971891646399,"75":0.011556712416559556,"76":-0.07827973480750446,"77":-0.1117030538734355,"78":-0.04210629429772119,"79":-0.1585656710174426,"80":-0.0758760703493266,"81":-0.0668156596686394,"82":-0.05067503760768471,"83":0.06540563155193697,"84":-0.006831187929028021,"85":-0.027913686267559194,"86":-0.06364204583819352,"87":-0.10580725428755322,"88":-0.05038639671364624,"89":0.026063180679727228,"90":0.09532176628671117,"91":-0.016102727628292242,"92":-0.05372797997390795,"93":-0.11198129447476529,"94":-0.12402594906816689,"95":0.05507599622739058,"96":0.001829805072005647,"97":-0.030053574612190433,"98":-0.013172014026834345,"99":-0.13764326721509212,"100":-0.16836617768891396,"101":-0.2320098277555419,"102":0.029321770363207742,"103":0.045390483813145435,"104":-0.0968020509604755,"105":0.041241222186500205,"106":-0.03838725597839613,"107":-0.18490830515655957,"108":-0.013603928932134737,"109":0.013574413504600761,"110":-0.011753706710252944,"111":0.06804074792676698,"112":-0.033591283066448555,"113":-0.08311897190413989,"114":-0.208124572789192,"115":0.07712252355991793,"116":-0.026033039605095374,"117":-0.03742283279873884,"118":0.04336764319810445,"119":-0.006067811366164036,"120":-0.08797534296855826,"121":-0.24736969936026437,"122":-0.11655841532014627,"123":0.05846555949122316,"124":-0.010194339640008801,"125":-0.11969746731360605,"126":-0.05201176137205679,"127":-0.08060486201962669,"128":-0.17315761488203368,"129":-0.14838186005320453,"130":0.04061069184224492,"131":0.03498864348642169,"132":-0.0054691000721683895,"133":-0.07226202833836129,"134":-0.13835943221945618,"135":-0.27473441696306444,"136":-0.1835647687818501,"137":0.025470743208325243,"138":-0.06966572796568736,"139":-0.0070108891808714656,"140":-0.020949751252969613,"141":-0.009955928850019688,"142":-0.2470125851345377,"143":-0.3672390812564123,"144":-0.0036014840533732263,"145":0.04397335224239856,"146":0.02105986481041152,"147":0.00863276631678125,"148":-0.0998566068020174,"149":-0.23418172551799524,"150":-0.3299277669104793,"151":0.1485094100241375,"152":0.010739049400499441,"153":-0.08900204888548272,"154":0.04664238251859384,"155":-0.05442159932679707,"156":-0.278706241002148,"157":0.11018843780720071,"158":0.1481679629197721,"159":0.04467270712193661,"160":-0.02465994101318537,"161":0.025753891747534348,"162":-0.13840191570163363,"163":-0.2541373572473571,"164":0.23162978117797206,"165":-0.06685132485755879,"166":0.0015844722566691397,"167":-0.00013100274564185763,"168":-0.04831228143528016,"169":-0.004182814942284135,"170":-0.2978934006898039,"171":0.34453135411087554,"172":-0.017324232974653714,"173":-0.009980499289378799,"174":-0.007916515623320526,"175":-0.039302404520170385,"176":0.010524991025393149,"177":-0.3189403041553864,"178":0.4173854029684317,"179":-0.025823970820412014,"180":0.04007456993804512,"181":-0.04152153842009182,"182":0.08137420473181435,"183":0.055747193580246567,"184":-0.26447334621779867,"185":0.12218691727583142,"186":-0.011622201931734723,"187":0.000689769869107184,"188":0.0009741192119657591,"189":0.04274223148929171,"190":-0.012460773433154732,"191":-0.10979174009497086,"192":0.1550813041836493,"193":-0.02342836616744243,"194":0.017112689199434275,"195":-0.06156051482680986,"196":0.004106270898994993,"197":0.09704171531597724,"198":-0.16672502883075346,"199":0.07047679277746074,"200":-0.05166363187352576,"201":-0.0398440278938374,"202":0.03206043068433215,"203":-0.048881230839348574,"204":-0.01898971627874601,"205":0.06014430224429149,"206":0.11665472035032255,"207":-0.039128799222172654,"208":-0.03535356082166101,"209":0.020546108005824192,"210":0.06040674644703521,"211":-0.027128686160785412,"212":0.16288914627954623,"213":0.05193490508394078,"214":-0.08187679508639611,"215":-0.11056341491454794,"216":0.021673485820443185,"217":-0.11734974959145707,"218":0.13105506921195345,"219":0.3417386763549804,"220":0.06001996269894556,"221":-0.0565459555610571,"222":0.009983232655501247,"223":0.05267659050969486,"224":-0.031356041794494575,"225":0.060314789872923415,"226":0.36474092442223605,"227":0.0806613711189205,"228":-0.12235238000082345,"229":0.034446076836415866,"230":0.02425151403520417,"231":-0.007243558482468752,"232":0.017445867914380485,"233":0.44636972817939946,"234":0.14483774472482344,"235":-0.02923508832425341,"236":0.005610446251715442,"237":0.005981238727472097,"238":0.04406678518777874,"239":0.001818488042408876,"240":0.45472972040737003,"241":0.18230431153648943,"242":-0.11490943594631331,"243":-0.021886082160569996,"244":0.0013116095740944647,"245":0.014090861047777634,"246":0.08072964204314355,"247":0.3117858030005198,"248":0.1425816264647699,"249":-0.10611354527951104,"250":0.0020793277351383505,"251":0.015989999412338675,"252":-0.03181908960360754,"253":0.06715722760977341,"254":0.22797336745266383,"255":0.056552801103599074,"256":-0.02806437574188272,"257":0.024703237181086038,"258":0.04204581754201997,"259":-0.009638160562270213,"260":-0.06037826962211109,"261":-0.035539708655109865,"262":0.1231057637436865,"263":0.03457735472521224,"264":0.003583225924844645,"265":-0.0016962934462982572,"266":0.02453445883135919,"267":-0.00663824242858164,"268":-0.07311155112518772,"269":-0.019208877009385585,"270":-0.001694705406405816,"271":0.05374708335782925,"272":0.055239094736093466,"273":0.007732698485452886,"274":-0.02748986976160279,"275":0.026564775535517577,"276":0.15282582974395764,"277":-0.04007523195316866,"278":-0.07705848391752002,"279":0.0024273481138619144}},{"sx":1,"sy":1,"depth":280,"w":{"0":-0.05230673229286883,"1":0.04312179829218155,"2":0.011441730502548432,"3":-0.09643262516059632,"4":-0.024137121590115423,"5":-0.05301830519655949,"6":-0.11391551021546986,"7":-0.11969076252683752,"8":0.023929779135342027,"9":-0.12532328994286743,"10":-0.09878930749929891,"11":-0.032030493211194395,"12":0.04225514003212151,"13":-0.08685130707686878,"14":-0.09043120912267122,"15":-0.015520127076045928,"16":0.017077896448120116,"17":0.05850882649241715,"18":0.07196746162580638,"19":-0.01470375660762763,"20":-0.1086436629169799,"21":0.006393040848917664,"22":0.05407853343331859,"23":-0.0732207306048242,"24":-0.08277797084368496,"25":-0.03251048155673431,"26":-0.04349893936721365,"27":-0.03198825696194415,"28":-0.06873926681645538,"29":0.04874006015025222,"30":-0.10868905624713197,"31":0.040260728809976686,"32":0.023230482141253075,"33":0.034155138965954956,"34":-0.10074667165809685,"35":0.11996103171414821,"36":-0.07191870051044617,"37":-0.04032753980811676,"38":0.09608453111935171,"39":-0.039489379021718785,"40":0.0971362382515484,"41":-0.07033633521467365,"42":-0.05938228804082461,"43":-0.028447419355331023,"44":0.002691568333881165,"45":-0.12760391270635366,"46":-0.01012319932634964,"47":0.0010616098477952353,"48":0.10136775434876408,"49":-0.03119976579807724,"50":-0.08741912767824958,"51":-0.09941538710581561,"52":-0.012162432664263827,"53":0.014027497193812258,"54":-0.036024878313912496,"55":-0.00002478217319324009,"56":0.07309711858327869,"57":0.07635219603599402,"58":-0.014017787465662792,"59":-0.010317341985436577,"60":-0.002026315752473002,"61":-0.10505216282538632,"62":0.011178824895123842,"63":0.07453685513814955,"64":0.017780424114693435,"65":0.04060712274906169,"66":-0.017963864617508093,"67":-0.011911527992146629,"68":0.0858067454748559,"69":-0.002040811317736689,"70":0.051550664616093186,"71":0.041707216461879436,"72":-0.10862605303412816,"73":0.05312756269126399,"74":-0.036171302397301854,"75":-0.07095570671112578,"76":0.02515886233326042,"77":0.01867278161004468,"78":-0.0111610484580671,"79":0.0840469734163039,"80":0.14004884352608699,"81":-0.11264555102580022,"82":0.034301487973298794,"83":0.045996873334897014,"84":-0.02822667531795188,"85":-0.05293305896607095,"86":-0.012564506580806068,"87":-0.020187918134019024,"88":-0.07643035059132314,"89":-0.013977209277187232,"90":-0.06855228039889723,"91":0.048546002830555615,"92":-0.04100419092553603,"93":-0.03268386014342653,"94":0.04650394457982176,"95":-0.04186754891556645,"96":-0.03222710232292709,"97":0.0011736331876301422,"98":0.056497443108624514,"99":0.11459153115184248,"100":-0.022619746607161505,"101":-0.05779214200170062,"102":0.023666684117276182,"103":0.014402990884606882,"104":-0.05672063992759013,"105":-0.14720305955700327,"106":0.09395099683495606,"107":-0.012896665818953629,"108":-0.09791183761693673,"109":0.03785357561787449,"110":0.09595167730366225,"111":0.04170196948148805,"112":-0.05142473770863246,"113":-0.011279793231414629,"114":0.036266801472868884,"115":-0.0012232946806382933,"116":0.022579272269032943,"117":-0.17446472045383635,"118":-0.036104088249601485,"119":-0.005620234334103988,"120":-0.07015414422660783,"121":0.0771353777740504,"122":0.05401323592611772,"123":0.08475555267784321,"124":-0.05084654134141635,"125":-0.030204082758005093,"126":-0.054139140241975914,"127":0.11528145723504081,"128":-0.1192729039978833,"129":-0.057720787146405744,"130":0.11108234318362657,"131":0.10434601391345368,"132":0.049257349543122476,"133":-0.04499371595054446,"134":-0.03458696802919477,"135":-0.1298358108180648,"136":0.04657849277470978,"137":0.0027025543604029994,"138":-0.0026109830598621177,"139":0.09514941404698572,"140":0.07519344301021556,"141":0.0613134487855886,"142":-0.02263613836425786,"143":0.08520874092677218,"144":0.02089232195248075,"145":0.05525353689358893,"146":-0.08210571074664193,"147":-0.06465794281296877,"148":-0.0950746863882248,"149":0.07412952057185974,"150":0.004618238672489788,"151":-0.022479873634968277,"152":-0.026506038839044434,"153":-0.07530201919380684,"154":0.02469213326931722,"155":-0.017294262222861827,"156":-0.079678647507167,"157":-0.08115519105941538,"158":-0.11181439118068016,"159":-0.12357042418673281,"160":0.02573175590581815,"161":0.04131427068923523,"162":0.034819640266336,"163":0.01350253891580508,"164":0.04644965776874931,"165":0.04880607020787177,"166":0.09115863548755734,"167":-0.038639219963457955,"168":-0.0070944288160667505,"169":-0.09443126623328098,"170":0.05329606305452017,"171":-0.06960732499998093,"172":-0.09277228560892714,"173":0.05272764704819136,"174":0.10110369785572214,"175":0.05153336050900441,"176":-0.024320812420547438,"177":0.013398046562744183,"178":0.0010256938655347787,"179":-0.029793271339773345,"180":-0.08530084629158007,"181":0.17220160144550536,"182":0.036145841923894736,"183":-0.038791115863332226,"184":-0.04080221603702006,"185":-0.011450660683522643,"186":-0.04771857188148064,"187":0.06264366247944946,"188":0.07558963988086945,"189":0.0035794726653784656,"190":-0.0266671735585669,"191":-0.09895783904752338,"192":-0.1254092992183928,"193":-0.026065723706738576,"194":0.04633180770012706,"195":0.032128931586139275,"196":-0.030116603600976555,"197":-0.11434285342609013,"198":-0.04594514305066679,"199":0.019051537447817117,"200":0.02258248435929532,"201":-0.00878254618857232,"202":0.10973928031515336,"203":0.014490669875175295,"204":-0.03706031151648121,"205":0.025397342142865036,"206":-0.011938645694928491,"207":-0.0590739404521587,"208":-0.03794400356835986,"209":0.0861128215787963,"210":-0.028598650215749328,"211":0.10446820527647577,"212":-0.07142308412094707,"213":0.02917977687293578,"214":-0.03529661895921758,"215":-0.0334133829079082,"216":0.022079388501411768,"217":-0.07465885084251749,"218":-0.0007664018906108554,"219":-0.022579422527479777,"220":0.015168644847709712,"221":-0.033913262748422233,"222":-0.07134014796825312,"223":-0.06925835220410527,"224":0.05366679134541644,"225":0.025828814922597608,"226":0.014921449923557886,"227":-0.0020284671637969447,"228":0.017054765897918486,"229":-0.04191123513727868,"230":0.06157982927241873,"231":-0.07325017406700239,"232":-0.05882755840452702,"233":-0.00901424314755586,"234":-0.053532265889305715,"235":-0.022330532909374173,"236":-0.004868220146320712,"237":0.03272623573551389,"238":0.003409719599575425,"239":0.005504266483608741,"240":-0.037231283676752484,"241":0.020135928679517766,"242":0.09844125580719162,"243":-0.1166029301659379,"244":-0.008725932763480848,"245":-0.001753547376863516,"246":-0.03619876891872854,"247":0.031077404755239856,"248":-0.01897862990351752,"249":0.02321872092065269,"250":0.03683576620640438,"251":-0.06149271038538648,"252":0.043418156035107854,"253":-0.02714613063998458,"254":0.021628000215619995,"255":-0.005360344609281911,"256":0.09776077599175807,"257":-0.12103690588324512,"258":-0.13403125054521633,"259":-0.1188951720594447,"260":-0.059829879711689946,"261":-0.010981724290990624,"262":-0.012049447896941269,"263":0.05337077188387836,"264":0.1406702499030185,"265":-0.003878944403410084,"266":0.03314091527892329,"267":-0.12026849058397841,"268":0.042109244411010105,"269":0.06519647168320405,"270":-0.06934807617539639,"271":-0.04617415033552331,"272":0.09829400255441284,"273":-0.06307661820703818,"274":-0.022380306610437814,"275":0.05301216490685034,"276":-0.019364622086215633,"277":-0.08387865647431424,"278":-0.048452123686553494,"279":0.005052601619237605}},{"sx":1,"sy":1,"depth":280,"w":{"0":0.006152302067233976,"1":-0.007823197629950695,"2":0.07638010989330413,"3":-0.04397005817950601,"4":-0.04159833129843553,"5":0.04554807721693123,"6":0.02505120130338157,"7":0.07120993456208657,"8":-0.03835192937719033,"9":0.008227386686174969,"10":-0.06416389210106939,"11":-0.07393376602398773,"12":-0.003006840321696358,"13":0.06024089146749727,"14":-0.026593583165600336,"15":0.019961816475616026,"16":0.06217752061019399,"17":-0.04994654144856785,"18":-0.08285339319840461,"19":0.015642946675251377,"20":0.006561392232800036,"21":-0.0994455821541158,"22":0.0038372334769658316,"23":0.06656222997050186,"24":0.009891640638232235,"25":-0.11065450043323542,"26":0.02390503228602712,"27":0.028190041622597244,"28":-0.0020275889770419394,"29":0.025503699727464094,"30":0.044103020440653944,"31":-0.13765224806921608,"32":-0.07083687399487834,"33":-0.04816249264284291,"34":-0.008721594865301552,"35":-0.08577816787431328,"36":-0.03115812338661801,"37":0.05673645333187122,"38":0.03511953543292447,"39":-0.06512257326256217,"40":0.0486699036703665,"41":0.020865629713159535,"42":-0.022810624598656896,"43":-0.0221523894091686,"44":0.07295736013154752,"45":0.004713677319044128,"46":-0.03802154666860742,"47":0.005738435064555628,"48":0.0304776593151303,"49":-0.02597285565386023,"50":-0.03924747652340864,"51":0.08964109693273234,"52":0.045511384683909036,"53":-0.027945950098815633,"54":-0.03404195952024475,"55":-0.0971484061815157,"56":0.010091003123524242,"57":0.003979760832776139,"58":0.06282278935182377,"59":-0.021108395280880887,"60":-0.09623830598808746,"61":0.019181973552559354,"62":0.0241128127183269,"63":-0.01432875865181519,"64":-0.08238784242913597,"65":0.02031996230922767,"66":-0.060429869026177634,"67":-0.020852504995954403,"68":-0.012871549151384878,"69":-0.08306913209158139,"70":-0.09569081764103733,"71":-0.004234955453995206,"72":0.0062654211220334235,"73":0.007549696527324836,"74":0.08032178133935773,"75":0.06435162042580085,"76":0.06068127334499395,"77":-0.00248672430727686,"78":-0.009923642810187074,"79":-0.0039621570959228,"80":-0.04660750281989056,"81":-0.03585310601683148,"82":-0.026425335943780052,"83":-0.03069296605929005,"84":-0.008056203459771396,"85":-0.0051064506634167775,"86":0.04105626445008892,"87":-0.08647958636754005,"88":-0.06364011863293374,"89":0.011705591048878963,"90":-0.013688586529961501,"91":-0.019848394172686645,"92":-0.07220648870181057,"93":-0.048027299784227435,"94":0.02073152658392654,"95":-0.06127006743036355,"96":0.04301589127183451,"97":0.04053481504660109,"98":0.03341211503970192,"99":-0.03876137018503278,"100":0.10276604224359731,"101":0.004136985722981024,"102":0.0031877733728748387,"103":-0.06095193506288858,"104":-0.02569809278758375,"105":-0.06651547733728057,"106":-0.1067931136106046,"107":0.012780821006497882,"108":-0.07822393311131925,"109":0.020866051514549042,"110":0.03058535842777561,"111":-0.017225442666692604,"112":-0.10783295302370706,"113":0.005642259785065575,"114":0.009168035323307273,"115":0.05229533945640661,"116":0.011880315465723938,"117":-0.03641351937972544,"118":0.011337020997839443,"119":-0.05127841046808501,"120":0.0810859369703765,"121":-0.05674485083508536,"122":-0.028386952824361985,"123":-0.06496616709220125,"124":-0.021436206462017198,"125":0.17019892997938452,"126":-0.05723154812343867,"127":-0.05985833033621578,"128":0.046197314248347714,"129":-0.041840852773127296,"130":-0.09573338566310258,"131":0.023528117892962976,"132":-0.053786746504280405,"133":-0.07291034560005728,"134":-0.07472233542163838,"135":0.05375062759843068,"136":-0.02695569506596504,"137":0.07597552814860083,"138":0.06384598431731188,"139":0.11944083558491372,"140":0.0012257587804792391,"141":-0.030155515949373792,"142":-0.03551508644326778,"143":-0.1710077987450673,"144":0.04337226399431489,"145":0.016829186045468163,"146":0.018105017577403754,"147":-0.04728065609388515,"148":-0.027015874820633813,"149":-0.019028764242747413,"150":-0.34208214986183444,"151":0.11206620709747615,"152":-0.02962525206042146,"153":0.04001569599832722,"154":-0.04298800384164751,"155":-0.00782192030108949,"156":-0.015794195255836058,"157":-0.39427492362791444,"158":0.01650084587515853,"159":0.059404235160753334,"160":0.019461844194311413,"161":-0.019128353346094862,"162":0.09135928291193621,"163":0.14963595700642202,"164":-0.32320325896616203,"165":0.18802501815190947,"166":0.050765079225273596,"167":0.04339473045203315,"168":0.04651132488770464,"169":-0.09176503667920158,"170":0.030734204669899963,"171":-0.4455325637704174,"172":0.21307752176522118,"173":0.04731712211046466,"174":0.03809948107166409,"175":0.05916181689272812,"176":-0.049694558236958605,"177":-0.051895431271494825,"178":-0.30787431496885,"179":0.13236080095123304,"180":0.02663397895995996,"181":-0.00024985436347028895,"182":-0.01760014780060878,"183":0.07560111002274886,"184":-0.0734565549110764,"185":0.028100075667235155,"186":0.2292947763198016,"187":-0.08156146938050725,"188":-0.07533511536618914,"189":-0.05450624270322632,"190":0.01878983632487547,"191":-0.1035466417864821,"192":0.05756427857884443,"193":0.08018319070487853,"194":0.04582858988538366,"195":0.04564866347469031,"196":-0.0553842158804365,"197":-0.02364010246131704,"198":-0.0008379994502250726,"199":0.41030223093274554,"200":0.13762310824737026,"201":0.05412991404494044,"202":0.07559719890693462,"203":-0.017193314732736317,"204":-0.0020955943385817587,"205":-0.04647431729656068,"206":0.43948677521492835,"207":0.09117885420839943,"208":0.08502377777750249,"209":0.006261302309549046,"210":-0.03989083030629905,"211":-0.024617178748137757,"212":0.03301831041700772,"213":0.022168535885707823,"214":0.04616973543794971,"215":-0.05307164833999786,"216":-0.04528061202582301,"217":0.06289925928855766,"218":-0.03055904848471321,"219":-0.002396247731508075,"220":-0.028254277787215596,"221":0.09853843320817988,"222":-0.03669872887537157,"223":0.013718086282710627,"224":-0.049422788700843164,"225":-0.01964827295105764,"226":0.03310588700067074,"227":-0.0006250556719962535,"228":0.08261933604596569,"229":0.07311340625992799,"230":0.12486262346585512,"231":-0.004351627291429461,"232":-0.0525961098129791,"233":0.08995117254187819,"234":0.0717741910586829,"235":0.020951778796455472,"236":-0.02309548636220876,"237":0.03286871469681278,"238":-0.03174781593522612,"239":0.028293512639318417,"240":0.01031310181564387,"241":0.5554087453539159,"242":0.010312493976237775,"243":0.039402345450615404,"244":-0.04495795000879315,"245":0.012193016782685981,"246":-0.03152661263307615,"247":-0.0647528409708347,"248":0.34134217735635797,"249":-0.11654459733946959,"250":-0.06601605457659183,"251":-0.013390962684621987,"252":0.015987037816204672,"253":0.02705117962446795,"254":0.0020435470272400337,"255":0.22937484498714888,"256":-0.07361353773619042,"257":-0.009489818690865,"258":0.03317624452965152,"259":0.0798381162760146,"260":-0.006065664563478698,"261":-0.04277699792229928,"262":-0.04539772894073128,"263":-0.11264629688156998,"264":-0.003419473318892452,"265":-0.00027835366223247465,"266":-0.030253524232955943,"267":-0.01233382038629448,"268":-0.034854838839935544,"269":-0.09335718556655057,"270":-0.015438765730944621,"271":0.0162827980485656,"272":-0.0046427440162652,"273":0.00744499268228284,"274":-0.0024168059929285937,"275":-0.06650565836603474,"276":-0.0646605560620176,"277":-0.07136745182522973,"278":-0.026537729064812,"279":-0.029864990600822972}},{"sx":1,"sy":1,"depth":280,"w":{"0":-0.02192979111725664,"1":0.005171269483723083,"2":0.054044235117763725,"3":0.03817034969614073,"4":-0.0020611328580700597,"5":-0.034126844763786,"6":-0.0036678823040816716,"7":0.040761845676438375,"8":0.010714606170259398,"9":-0.05334602643595875,"10":-0.045113997740177235,"11":-0.02167635037039487,"12":0.017443367998485084,"13":-0.01945556264439445,"14":-0.02799079287077125,"15":-0.0007731259516731698,"16":0.06334806950085606,"17":0.012898418907783956,"18":-0.10227392866000441,"19":-0.049290547481588225,"20":-0.005894267137123463,"21":0.04637310658973417,"22":0.002707539955016421,"23":0.04153820539035845,"24":0.08396910447505777,"25":-0.06192006777791958,"26":-0.03460258192295869,"27":-0.037543717613910475,"28":0.013341029031406966,"29":0.006851047014707419,"30":0.10169499035411639,"31":0.04743660763603319,"32":-0.006754239221057137,"33":0.007140736348660767,"34":0.002454233042195716,"35":-0.04231732237159319,"36":0.04120704859911418,"37":0.019247387564676442,"38":-0.003505218744446166,"39":-0.10843349843957882,"40":-0.037123875489740395,"41":-0.023505282126418416,"42":-0.04080002223654732,"43":-0.0076816462894837585,"44":0.0772781018684216,"45":-0.05245194511827886,"46":0.02033779301965455,"47":0.03905572959404256,"48":0.03396106485933657,"49":-0.02815179692672923,"50":-0.06817783895422418,"51":0.015074877322147916,"52":0.07465705491470606,"53":-0.06550848922621023,"54":-0.036322308275421766,"55":-0.09567102677946687,"56":0.02089445044923648,"57":-0.12887084422722322,"58":0.05742367635864849,"59":0.013416873793411622,"60":0.018853438273544097,"61":-0.018744607581267187,"62":-0.004748153071908678,"63":0.002709324816603505,"64":0.047335821919413136,"65":0.06218204380613938,"66":0.0058260344386423975,"67":-0.003845368882361059,"68":-0.04464088708904766,"69":-0.04308683936265298,"70":-0.14506433316023987,"71":-0.039211457367559766,"72":0.0014082378785954936,"73":-0.01144202501111426,"74":-0.06306518223671974,"75":0.055924972892355033,"76":-0.04411663439803871,"77":-0.056197283296560666,"78":0.05370520908769612,"79":0.04398765835473271,"80":0.021844563492611636,"81":-0.09908525224106439,"82":-0.07742756926711937,"83":0.02521300378946247,"84":0.02009460018117501,"85":0.04118589631869133,"86":-0.024254692711070197,"87":-0.043662937895727144,"88":-0.008546983149395471,"89":0.01785321675166554,"90":0.015774418616799235,"91":-0.00953814233886555,"92":-0.02086720091831791,"93":0.15226898222232463,"94":0.00018844520611478212,"95":0.0075141454893953834,"96":-0.03196988602963232,"97":0.023114109829466333,"98":0.05081848481416149,"99":-0.04781973489587018,"100":0.0797302507342308,"101":-0.02703127042456927,"102":0.012012823190657967,"103":0.0025353553009717987,"104":0.06197134763728626,"105":0.003851851201786099,"106":0.033688786016436795,"107":0.05476522368874997,"108":0.07996329289945525,"109":-0.013429062336717146,"110":-0.04466051775870096,"111":-0.05827272658770989,"112":-0.049247896138095326,"113":0.04572635867956715,"114":0.048487740631522364,"115":0.04834086112513001,"116":-0.0004445185297970118,"117":0.007373663005445783,"118":0.041050469003622685,"119":-0.02007551175873137,"120":-0.004840582054846655,"121":0.12936610559246448,"122":0.05997604935089023,"123":0.030641416045005702,"124":0.019902056616903984,"125":0.042846015561801176,"126":0.03312192528805054,"127":0.0019053351837192223,"128":0.14990474537496823,"129":0.15991950648085376,"130":0.012359966031911872,"131":0.022872463858321746,"132":0.04924638122011646,"133":0.05169376836438695,"134":0.05834097237631607,"135":0.1223253631340922,"136":-0.005088097878313252,"137":-0.07565517222998991,"138":-0.04910772892339673,"139":-0.05303668230854033,"140":0.014071838543538247,"141":0.01697808140374046,"142":0.1024969575187309,"143":0.10794627915511429,"144":0.08546622907893804,"145":0.06274785025809007,"146":0.012515972968277061,"147":-0.03121657728140825,"148":0.00453983112337131,"149":0.12362291148618636,"150":0.08422233320227523,"151":0.04884201219936968,"152":-0.0030156429880425694,"153":-0.06675663705579071,"154":0.09273809951902341,"155":-0.05650257724177276,"156":0.19041000913188558,"157":0.43099654446564184,"158":0.10850356781799592,"159":0.03215515262003848,"160":0.11805677277368307,"161":0.0006008913401445638,"162":0.056798551408049555,"163":0.18145530629229895,"164":0.082783329215252,"165":-0.12887036611522798,"166":0.030051397350797458,"167":-0.0547291260797559,"168":-0.01223971052199642,"169":-0.05534471406474413,"170":0.22193445005848803,"171":0.26935390649618124,"172":-0.024816653694730028,"173":-0.015646261008968324,"174":0.03448146724118169,"175":0.021045682375071317,"176":0.02478199840778937,"177":0.13784128995331213,"178":0.09351236703725548,"179":-0.056641007446374195,"180":0.0814544067455094,"181":0.0024072217083541503,"182":0.08043199471955112,"183":0.0384748056387716,"184":0.17011835794441066,"185":-0.5456053842316891,"186":-0.18945468205708058,"187":-0.026968954146728476,"188":0.1148404290615353,"189":0.04575722425968105,"190":0.03975000177667822,"191":0.15768774325140988,"192":-0.33573270759015605,"193":-0.06142358120533783,"194":0.010215279069948728,"195":0.013244133614011151,"196":0.09477406145970824,"197":-0.013021800143712785,"198":0.17290491732239244,"199":-0.45640286141984737,"200":-0.07386664131355297,"201":-0.057545566475598386,"202":0.040340442746024704,"203":0.034843427583496754,"204":-0.000685766106106465,"205":0.18436068549574983,"206":-0.5462757942047041,"207":-0.14397301100784332,"208":-0.02475040579107993,"209":0.011857422806722423,"210":-0.011963060981726985,"211":-0.01026355485169927,"212":0.3451173269589186,"213":0.3021468789915304,"214":-0.256641194461447,"215":0.05897589480844863,"216":0.09951057587941745,"217":-0.001096904297285627,"218":0.025454106483160592,"219":0.2347543986361314,"220":0.1722443107920514,"221":-0.12817507729296068,"222":0.0009032741595815784,"223":0.04922305379138755,"224":-0.03473289973418998,"225":0.0487830097437856,"226":0.17861484691815632,"227":0.05556807647241705,"228":-0.17512811067310946,"229":-0.05938095505496898,"230":0.045319480325197004,"231":-0.028983028256518602,"232":0.004518704265249849,"233":0.2259001295602964,"234":0.33477562411430717,"235":-0.09291587913075719,"236":-0.09902868020142748,"237":-0.05515940204779152,"238":0.11107127948995262,"239":-0.019476022364170835,"240":0.35154650558238704,"241":-0.447721859458793,"242":-0.16354798934119363,"243":0.1582284512063831,"244":0.12211608833432883,"245":0.010795229864548467,"246":0.0313543077520147,"247":0.02151410606273115,"248":-0.32903364768716464,"249":-0.15041167257815824,"250":0.0044381449138489225,"251":-0.03162065022189822,"252":0.015010567988416792,"253":-0.02870397186246466,"254":0.06465743136451928,"255":-0.19692958551623874,"256":0.09939970092963185,"257":0.02214337515618775,"258":-0.0432143551663905,"259":-0.010933689182123774,"260":-0.015285105928100206,"261":0.08634013369923021,"262":0.04840665493417523,"263":-0.0029118246218568446,"264":0.0014649600547616617,"265":-0.0018625502510995916,"266":-0.013833243960735072,"267":-0.07331848635373457,"268":-0.06663056203102727,"269":0.08218221773417173,"270":0.02604514259223335,"271":-0.043790811502425496,"272":0.02201208226638055,"273":-0.047925575785120765,"274":-0.02314038375652897,"275":-0.029041383211294104,"276":0.04043230356835273,"277":0.022854981811740917,"278":0.018804941143764606,"279":-0.06077829484135473}},{"sx":1,"sy":1,"depth":280,"w":{"0":0.015082400864963742,"1":0.020592647973613105,"2":-0.12171748720883804,"3":-0.026249444282157638,"4":-0.12556998148020296,"5":-0.06921079604101629,"6":0.03790678112222825,"7":0.0326004939378361,"8":-0.04279302245085998,"9":-0.014651863229027399,"10":-0.020655390295472913,"11":-0.06177550974164476,"12":0.028278802193552006,"13":-0.015708865075021013,"14":0.04079671322882111,"15":-0.02116822014855078,"16":0.006903471602427966,"17":-0.022238004615489308,"18":0.07461236764732951,"19":-0.010709589371071557,"20":-0.01754625903543399,"21":0.06758621394910697,"22":0.03715454377168491,"23":-0.0028137989359276836,"24":-0.016858808439737732,"25":-0.09200272805754475,"26":0.01231410174047456,"27":-0.07839656069509089,"28":0.01673577313438716,"29":-0.03456140151626893,"30":-0.05638081253161835,"31":-0.08976297900500099,"32":-0.11440986728970615,"33":-0.11419758762369517,"34":0.022960692651920585,"35":-0.04226833114691612,"36":-0.029859924309318508,"37":0.01961794137415567,"38":-0.08675649038054462,"39":-0.03810161068349975,"40":0.012877922044911685,"41":0.01905871953831412,"42":-0.05226779604493032,"43":-0.07129314627514304,"44":-0.08340486996411149,"45":-0.09358058222327865,"46":-0.11414079436884825,"47":-0.022315330870764486,"48":0.030905666498358842,"49":0.04845605302776967,"50":-0.028902983946553194,"51":-0.08619407354243828,"52":0.02605248445865928,"53":-0.08615768644076803,"54":-0.08068780130155451,"55":-0.08344440532968503,"56":0.015117586998881181,"57":0.014958107769691184,"58":-0.04226368383604002,"59":-0.10916209963072396,"60":-0.08154632288053416,"61":-0.012592832566918328,"62":-0.013427220503313351,"63":0.06794106582870307,"64":0.03430639580681625,"65":-0.00703720459057883,"66":-0.12946192651019917,"67":-0.056451048009205675,"68":-0.002278318685597839,"69":-0.05137044578894517,"70":-0.0358871568039973,"71":-0.027276867910496747,"72":-0.050672564967826364,"73":-0.1100653629066106,"74":-0.13727592073413727,"75":-0.037071543358454265,"76":-0.04267880800267305,"77":0.046912144520037884,"78":-0.0036839105891787573,"79":0.04535217831998159,"80":0.01791278698906137,"81":-0.12186273552924987,"82":-0.05906263708225454,"83":-0.04681295326871372,"84":0.04975133636266495,"85":-0.05870905551271066,"86":0.03993765781130314,"87":-0.14630171479914614,"88":-0.1516866014527683,"89":-0.0050201840439856186,"90":0.0038768470269722683,"91":-0.019315740801263786,"92":0.021316567614825376,"93":-0.09794852658231996,"94":-0.19882401695520135,"95":-0.04815395430265153,"96":-0.024626398017992403,"97":-0.0654092313251444,"98":-0.03776785299271644,"99":0.04859803060622949,"100":-0.013263333020237503,"101":-0.15543767287857171,"102":-0.042532827617119025,"103":0.028378270567957237,"104":0.0151137038818538,"105":0.006820126172041698,"106":0.0953843796437613,"107":0.04278074557731788,"108":-0.10120348658101713,"109":-0.13763240176822092,"110":-0.05598883044202931,"111":-0.049550839589472616,"112":0.05908797325712522,"113":-0.03088257110429629,"114":0.06232996656864687,"115":-0.07013803012811055,"116":-0.16727703489624735,"117":0.043527263752651604,"118":-0.029820024723270926,"119":-0.042964900597158885,"120":-0.022946306464267745,"121":-0.04690307647713473,"122":-0.09900401923843925,"123":-0.04203771685149233,"124":0.0007179049531917506,"125":0.0016314465098228078,"126":-0.002594690425652218,"127":0.018508429296413224,"128":0.03870765880712082,"129":-0.0471918810518742,"130":-0.09321739551827356,"131":0.03884595596008177,"132":0.048785779720074585,"133":-0.0007835577385415808,"134":0.030146342414633192,"135":-0.12422236149834393,"136":-0.11112002153041382,"137":-0.1461744074103893,"138":0.04033979188146385,"139":-0.0824638359998738,"140":0.08154560190203711,"141":0.04494038799331955,"142":0.016496122684628495,"143":0.20496518674099184,"144":-0.09320329605492543,"145":-0.00835776694385811,"146":0.036678504224372126,"147":0.05464746134639131,"148":-0.000018222644214565823,"149":0.029431615874594693,"150":0.3692704733763173,"151":-0.10082022693700451,"152":0.02147736468806084,"153":0.018566056905377895,"154":0.0901499590424655,"155":0.007590967886533448,"156":0.06478795138238166,"157":0.15117280159672414,"158":-0.0013573366092791113,"159":0.07975795858756346,"160":0.029603267071959854,"161":0.06592429303455828,"162":0.10582093175091267,"163":-0.1161215895177354,"164":0.28723195919123384,"165":-0.27445304640628676,"166":0.0011394547657726174,"167":-0.06684306501584535,"168":0.06107726125098538,"169":0.012562465170146253,"170":-0.030076937738023637,"171":0.47994257746359015,"172":-0.03082508030436825,"173":0.06464416923942723,"174":-0.0027054703862102935,"175":-0.018329864111562774,"176":0.028831589656795498,"177":-0.07198356607112844,"178":0.5114111334856991,"179":-0.050640182295348404,"180":0.05270729146170492,"181":0.029725077425113645,"182":-0.0481070603469659,"183":0.04855979543564128,"184":0.060607936630361084,"185":0.5701174793377402,"186":0.02043005910625899,"187":0.053905848191144794,"188":-0.029447965601916686,"189":0.041285837148440606,"190":-0.009157912400380596,"191":0.03293153566357986,"192":0.23485229564290183,"193":0.188570453680905,"194":0.03491204574999587,"195":0.03693900991440814,"196":-0.0160844997156245,"197":-0.01311848169915361,"198":0.13484627251007122,"199":0.17389321032638802,"200":0.21386933511222567,"201":0.08635120145000146,"202":0.0590183545920942,"203":0.08712845635358926,"204":-0.04870462763804043,"205":0.0692762678194183,"206":0.18318771857465546,"207":0.20838843542592966,"208":0.0884835871482526,"209":0.0470169301607758,"210":-0.06602493086358478,"211":0.04853013990208121,"212":0.09546780222544016,"213":-0.08226406151052278,"214":0.22831263875040933,"215":0.07056309710304161,"216":-0.07373907495521075,"217":0.09660799581658397,"218":-0.0949986726631746,"219":0.1292277994153009,"220":-0.0004583051931302991,"221":0.3382462504952494,"222":0.06235737700603652,"223":0.082169838140402,"224":0.014755286458544474,"225":-0.027566283310988624,"226":0.20605666308561524,"227":-0.16310840481272953,"228":0.3507634342187841,"229":0.06834358647127613,"230":-0.005977581100968421,"231":0.01705303777199838,"232":0.004245284293006959,"233":0.0784972054654112,"234":-0.13847308183518522,"235":0.3554487242330919,"236":0.10764608211200209,"237":-0.024499183179370203,"238":-0.04164851614000185,"239":0.017945756446236322,"240":0.1266146990661659,"241":0.12856443417819344,"242":0.3946103182310695,"243":0.032279479433780456,"244":-0.053708707045509244,"245":0.035849787551555816,"246":-0.003146254125256571,"247":0.043352282855420296,"248":0.04360745613070665,"249":0.38725101633379566,"250":0.01668825031689329,"251":0.030450373291036687,"252":0.05137728900412834,"253":0.02910952069940674,"254":-0.01480476833612858,"255":-0.0918466235994388,"256":0.2061425050455302,"257":0.0024555545276829993,"258":-0.002812658033970438,"259":-0.004341403051253661,"260":-0.0691579385337578,"261":-0.007300675733406868,"262":0.09494362336539491,"263":0.08835417506909178,"264":0.049087919248567126,"265":-0.009240684926515624,"266":0.059779703590745484,"267":0.014266537034334632,"268":-0.032401646555881236,"269":0.07718015995961575,"270":0.16812114451645468,"271":0.04085586590899376,"272":0.0069603559476689465,"273":0.04224750540966459,"274":0.016042831028041157,"275":0.005628824641483908,"276":0.17711018254656324,"277":0.18251505911068397,"278":0.0037554674049879683,"279":-0.013272794328369647}},{"sx":1,"sy":1,"depth":280,"w":{"0":0.04713960505109448,"1":-0.005324246450922584,"2":0.04440971432013185,"3":0.04833239973020338,"4":0.043650311198438985,"5":0.03211076701837087,"6":0.04587743083526155,"7":0.05940270276833185,"8":0.14067979330521613,"9":0.019569921070617263,"10":0.025801888846492666,"11":-0.023866444595284798,"12":-0.08771946399752918,"13":0.02029906085858378,"14":0.016251020277200566,"15":-0.009315330777816475,"16":0.036622655221042556,"17":0.028587254348581052,"18":-0.04658846089446143,"19":-0.028720846297739994,"20":-0.0123506805248808,"21":-0.0349849659434725,"22":-0.012037598607468654,"23":-0.07459383553986292,"24":-0.008660901820229393,"25":-0.03613815256240717,"26":-0.005383697842431681,"27":0.014699051637722234,"28":0.03149429923524957,"29":-0.05724251252132603,"30":0.1262875528955104,"31":0.025985853477130644,"32":-0.006179426852956223,"33":0.02399705270512165,"34":-0.08750346390639649,"35":-0.02846424594932878,"36":-0.021585174032312464,"37":0.024345941755239495,"38":-0.02012201539876147,"39":-0.0011381425677178423,"40":-0.006809303671321235,"41":0.02170494165276614,"42":0.10733442211337513,"43":0.007739762959398923,"44":0.019868053294792132,"45":0.09165496270539755,"46":-0.04238343200359471,"47":-0.03567457663087157,"48":0.0075117640293765895,"49":0.05243721555586484,"50":0.03513340098155281,"51":0.04983261850488019,"52":-0.0239701563988468,"53":-0.052207121626847625,"54":-0.03219081550508171,"55":0.000886178153146441,"56":0.00014868889899476075,"57":0.04041308483189514,"58":0.03926695760381926,"59":0.09189297483262622,"60":-0.00612636035375852,"61":0.03929466942561928,"62":0.027465221287294346,"63":-0.009066218357696524,"64":0.007143375799912625,"65":0.05326824021163353,"66":-0.11843631191364686,"67":-0.04030344530572474,"68":0.02472775518091612,"69":-0.03390444033877627,"70":0.04506744996536607,"71":-0.07040837710514905,"72":-0.04051099473714877,"73":0.00857495478124435,"74":0.005390777743301711,"75":0.017149733574820927,"76":-0.033738778988343425,"77":0.023910115640838954,"78":0.0901591684771143,"79":0.12736550276602493,"80":0.006692590802960699,"81":-0.0895719558445433,"82":-0.055757024728870376,"83":-0.02011257022659544,"84":-0.011218222203578517,"85":0.0730243004782173,"86":0.009603939546506731,"87":0.0739123816510803,"88":-0.08580465872402203,"89":0.03713246492617651,"90":-0.03360658343964696,"91":0.06195091049187822,"92":-0.04379657526966462,"93":0.01059904497500423,"94":-0.06931943796640434,"95":-0.07609423550682155,"96":-0.044878500544345806,"97":0.14842040629227662,"98":0.06554360073941347,"99":0.04101758358836127,"100":0.011212516894481094,"101":-0.02691296998093566,"102":0.01914003464057325,"103":0.05005998115426383,"104":-0.05163321297504426,"105":0.03309363892825146,"106":-0.042153840604877486,"107":0.023051825123047598,"108":-0.02187292930990482,"109":-0.05171693248854816,"110":0.07575039689094197,"111":-0.010271685132854808,"112":-0.051997229484187425,"113":0.125868075163893,"114":-0.09192858964637043,"115":0.04321404680541498,"116":-0.020857362882459405,"117":0.10563328662499412,"118":-0.065515259524629,"119":0.08561037423390293,"120":-0.04955409134702636,"121":0.04000983706226164,"122":-0.08170631055614729,"123":0.010325313300443277,"124":0.028163623621590462,"125":0.07685014842726501,"126":0.040889493299499265,"127":0.0323462851792441,"128":0.030755343003715845,"129":-0.1033439199324581,"130":0.054725370776538926,"131":0.022709054092082112,"132":0.024988273969943117,"133":0.033176302072010465,"134":0.0028480395395811286,"135":-0.04373943735353786,"136":-0.053169533750789755,"137":0.07583711178109327,"138":0.04411218852054078,"139":-0.015744053499397295,"140":0.008779230176655389,"141":0.02747713253646546,"142":-0.03942438243077671,"143":0.016253449985543546,"144":-0.08307035650740202,"145":0.10358668928566538,"146":-0.04339631312300902,"147":-0.01594703329971986,"148":0.05479200294614068,"149":-0.03169488783192968,"150":0.05881456670026381,"151":0.04060531647340023,"152":0.08034448018312887,"153":0.0797811184244446,"154":0.02912853414041376,"155":0.1069145647843917,"156":0.16825438875393423,"157":-0.26782521009149635,"158":0.11913513353342552,"159":0.14502622374719104,"160":0.05578126330676142,"161":0.06771274046613451,"162":-0.09546520692774163,"163":-0.02133607898619865,"164":-0.22782793007433158,"165":0.20957900879439867,"166":0.10509677877964968,"167":-0.02396734962281284,"168":0.060488720633996906,"169":0.04242804768293214,"170":0.008002621943590783,"171":-0.11753912656578709,"172":0.1586334169753902,"173":0.02534092779104564,"174":-0.10235528300662004,"175":-0.05140670893150359,"176":-0.0076212118085945526,"177":0.02286845557121817,"178":0.08061314164389016,"179":0.21099669849797453,"180":0.10974256440171286,"181":0.07115221180589786,"182":0.12005366644302375,"183":0.09348644152186077,"184":0.13472097346057182,"185":0.18426892819662855,"186":0.3394430537660601,"187":0.03390280141650638,"188":-0.06605287335416216,"189":-0.029300705899945396,"190":0.023074168344318115,"191":0.1897773100180963,"192":-0.07746254488414933,"193":0.17148886719277343,"194":0.09659519717606141,"195":0.00465452509760955,"196":0.0024233991727617464,"197":-0.06545862430043094,"198":0.2190505424776701,"199":-0.5173486994593067,"200":0.25219893124322135,"201":0.12643102378571797,"202":-0.04130854204741511,"203":0.06592912766001659,"204":0.12862182646428214,"205":0.19713661115116526,"206":-0.6197698590878861,"207":0.27247925695801245,"208":0.034398584751664935,"209":0.0316207982068242,"210":0.01089439914539109,"211":0.014597938893018813,"212":0.26698830599408735,"213":0.048251222718919295,"214":0.3849151657900058,"215":-0.015356364671954614,"216":0.0015960581379066748,"217":-0.04390037627336825,"218":0.01616987315010421,"219":0.22136451455113274,"220":-0.03360417230944018,"221":0.2684720570615713,"222":0.0019764819287671964,"223":-0.00865544460185233,"224":-0.012284138592179545,"225":-0.0009253164866508928,"226":0.23616852770187158,"227":-0.09305447998859336,"228":0.2902903197670308,"229":-0.004482768433060625,"230":0.07350669960239924,"231":0.014947429798895788,"232":0.06406812386641063,"233":0.3109218215277843,"234":-0.052263355992531,"235":0.3775108089961597,"236":0.030353123874286413,"237":-0.024102470302066244,"238":-0.0980490227122624,"239":0.08698981722542164,"240":0.3880121586666006,"241":-0.6462168327612251,"242":0.6147111952515344,"243":-0.03772536121812464,"244":-0.05515685758773541,"245":0.0956029286901409,"246":0.024001996871739227,"247":0.18612890861390194,"248":-0.5445403864385433,"249":0.26997411926682385,"250":0.03744725960576242,"251":-0.03456332475623994,"252":-0.054328268595055004,"253":-0.05862470697048623,"254":0.12831560162903202,"255":-0.38358638907841675,"256":0.22087990746329036,"257":0.008076279522779858,"258":-0.05726774283401815,"259":-0.00865743984639073,"260":0.05613351167655255,"261":0.11122426832839326,"262":-0.010714578329284165,"263":0.0937180140198163,"264":-0.0182930362557605,"265":0.03313560182392498,"266":0.08734017686265777,"267":0.03670789278701018,"268":0.029426270488575528,"269":0.04578958083533993,"270":0.011014827673084461,"271":-0.0042891685248334895,"272":0.013035028230821442,"273":-0.015642539676423185,"274":-0.025140010654377584,"275":0.03292168743904079,"276":-0.013417513554127037,"277":0.14694176267898734,"278":-0.045668028509784256,"279":0.018471217327960348}},{"sx":1,"sy":1,"depth":280,"w":{"0":0.006041315906351541,"1":-0.031768942010593125,"2":-0.0802912070182369,"3":0.06408955510991482,"4":-0.030999187419778317,"5":-0.013331424538636014,"6":-0.10280650374089559,"7":0.006250556682860812,"8":-0.021618917708750334,"9":-0.02284279722850831,"10":0.026258880398402434,"11":-0.0075259132996128445,"12":0.058743960648417665,"13":-0.01639348252507616,"14":0.019935934460444633,"15":-0.04823955734528078,"16":-0.11010820622676082,"17":0.07858735981268444,"18":-0.009771207693875666,"19":-0.010180350345801082,"20":0.041922551229755085,"21":-0.015163094283391049,"22":-0.028967954577503743,"23":-0.030605586004242104,"24":-0.057942817204283154,"25":0.07896583260083544,"26":-0.029684151800785683,"27":-0.03729972933576661,"28":0.005606885810693086,"29":0.020372225307338673,"30":-0.10322856465981939,"31":0.12152582431763842,"32":-0.03262858081258731,"33":0.032406954523296484,"34":-0.02400007496928299,"35":0.0798354498405294,"36":0.06371166523296673,"37":-0.051378587421237555,"38":0.008460740132816684,"39":-0.05746917335907646,"40":0.016889617708146242,"41":-0.07831449146069064,"42":0.09195827865115185,"43":-0.01108117014983769,"44":-0.06526032124953654,"45":0.06920782881154904,"46":-0.01663075766516345,"47":-0.015081962934451972,"48":0.05215177029647665,"49":0.02604308440990467,"50":-0.06164963716226824,"51":0.008966082783794762,"52":0.028301251678018505,"53":-0.007156814244897115,"54":0.014171274254040307,"55":0.00986319098834583,"56":-0.04826515320832031,"57":0.04767338318891999,"58":-0.01656273387722144,"59":0.05621514340814091,"60":0.05784741881238692,"61":0.019356504976109957,"62":-0.0465588211657788,"63":0.09762178111532589,"64":0.043576238208282,"65":-0.004976927366489722,"66":0.1265142759361101,"67":-0.05358871154497087,"68":0.03286305038804788,"69":-0.03670743880274404,"70":0.004615810627731662,"71":0.058150059546529076,"72":-0.03748195181456724,"73":0.02586062023259993,"74":-0.0751811541863465,"75":0.01173249861421654,"76":0.004764881083655343,"77":0.021373302202496613,"78":0.031714765921755754,"79":-0.009060797730392138,"80":0.08233771435337414,"81":0.053825287535555766,"82":0.08215315252124886,"83":-0.046893433667276684,"84":0.029868503847691977,"85":0.09699954804761754,"86":-0.0312831772227907,"87":0.1202664483363679,"88":-0.022219682548109364,"89":0.006329224885842658,"90":-0.047522917012615906,"91":0.0045616376601344995,"92":-0.0046973411986755325,"93":-0.04720851150915119,"94":0.086578819124345,"95":-0.001307332045866673,"96":-0.04261758491298108,"97":0.03838191807100616,"98":0.02183033479769366,"99":-0.05682783800678494,"100":-0.0487101116919521,"101":-0.003665385481450974,"102":-0.00035151106412341696,"103":0.037929968331083766,"104":-0.03328968046338393,"105":0.11424832279749751,"106":0.05972925467577378,"107":-0.003755993092482076,"108":-0.0009676103642189872,"109":0.015536785875605632,"110":0.050704517875499,"111":-0.001752855833351594,"112":0.05897606102122716,"113":0.05823403927662627,"114":-0.021608074798374323,"115":-0.00024126474359453682,"116":-0.052066179424124,"117":-0.06172649679277709,"118":-0.0021768338476536695,"119":0.04873817510996478,"120":0.04099006604015005,"121":-0.10037591436681804,"122":-0.03906757343340239,"123":-0.03068169958466456,"124":0.01736049685231474,"125":0.03961288439178546,"126":0.03158551801208427,"127":-0.09601338999013681,"128":-0.05703065263111255,"129":-0.13932457353558278,"130":-0.06947395182012293,"131":0.01696189900435261,"132":0.013000698857839763,"133":0.06143260126670287,"134":0.05398125845332896,"135":0.038255266344086894,"136":-0.051285397820085954,"137":0.06944056582476199,"138":-0.04741689168305191,"139":-0.07146999827191536,"140":0.022209803887506086,"141":0.04256761337627566,"142":0.011054758607825576,"143":-0.1682276959259444,"144":0.09830640370418177,"145":0.025293133578590508,"146":0.04935779044358153,"147":0.017576380183407597,"148":0.05507869245491573,"149":0.07946316253081691,"150":-0.25790339309790633,"151":0.03205113909733582,"152":0.042364338455130775,"153":-0.03035446124126605,"154":0.025433418915238665,"155":-0.011441573575802833,"156":-0.05977207296533339,"157":-0.3798920380348547,"158":-0.056470902644178034,"159":-0.000030621807936201953,"160":-0.025478488686075274,"161":0.02193698650796717,"162":0.003635689535344588,"163":0.07910490572654548,"164":-0.20877374589995945,"165":-0.01171667042221837,"166":-0.05584021381973095,"167":-0.08189312671305435,"168":0.045836505238947584,"169":0.061300672363504845,"170":0.06137350140672036,"171":-0.47392267050134923,"172":-0.12371030107302357,"173":0.05537510418628351,"174":0.028103538584884215,"175":0.04964517988919119,"176":0.06716561340014332,"177":0.059736804199035404,"178":-0.29560081280454453,"179":-0.1865869357285027,"180":-0.02863877092860649,"181":-0.07408239653880047,"182":0.05654553725561016,"183":0.024596998831965967,"184":0.022696587177803266,"185":0.22669649952859955,"186":-0.07994486342872556,"187":-0.0029618321138492904,"188":-0.014605212654392918,"189":0.011147904094183534,"190":0.09125947869107626,"191":0.061638047257075904,"192":0.26393454187470056,"193":-0.06348832926941453,"194":0.04524504051357158,"195":0.017872677576678875,"196":0.04377247518523985,"197":0.03299017066868101,"198":0.03596578679539385,"199":0.6385879641171899,"200":-0.1123534368810904,"201":0.03589048033129371,"202":-0.026346916611574605,"203":0.022866188952729176,"204":-0.004256708848015506,"205":0.16548065131060297,"206":0.7341670464668072,"207":-0.12007730858282331,"208":0.02387653615693726,"209":0.02981833452027899,"210":-0.0347789754203351,"211":0.01805286463043991,"212":0.08934149915425116,"213":0.013219256096781299,"214":-0.0912389555849942,"215":-0.05709294557287552,"216":-0.014683722109155289,"217":-0.020065876405819767,"218":0.11979438097078503,"219":0.0763445889716521,"220":-0.07119891400363985,"221":-0.030127081774901573,"222":0.05050776549611101,"223":0.09750296559576932,"224":0.011149645374332988,"225":0.02590876538604701,"226":0.07505092163427997,"227":-0.08186743075434363,"228":-0.0435033987530653,"229":-0.04208884295066758,"230":0.03955936806878885,"231":-0.048972650177395875,"232":-0.002440499300001064,"233":0.11918480371563656,"234":-0.24892471077682943,"235":-0.16335482669510576,"236":-0.04663669419106351,"237":0.10433815355413152,"238":-0.004193131633559569,"239":0.019665853102858663,"240":0.10994833201879657,"241":0.3775499289028607,"242":-0.026870972073960605,"243":0.046124804337048186,"244":-0.14196880369690204,"245":0.03938733303237882,"246":0.0028706602213150034,"247":0.08859122543208472,"248":0.45592279229441923,"249":0.03962802177051406,"250":-0.016518222269916776,"251":-0.01248281068557007,"252":0.05089203547379067,"253":-0.05016978977207935,"254":0.04635790142736997,"255":0.41079840383663546,"256":0.09674620513807518,"257":0.07737118586624174,"258":-0.018631663947167417,"259":-0.014349619951553332,"260":-0.03903655236174226,"261":0.007553313258555354,"262":0.036647541714040006,"263":0.037344467068578184,"264":-0.00630995074188431,"265":0.03533596003364654,"266":-0.03236641956672614,"267":0.000479718831336673,"268":-0.11301023393338269,"269":0.05373099421803956,"270":0.1268377986610963,"271":-0.06611652489280992,"272":-0.057507235244852614,"273":0.0491154384843255,"274":0.04001309080346843,"275":-0.03474554307081253,"276":0.11824190573671661,"277":0.03135727948268236,"278":0.016396905358321334,"279":-0.06758029184329141}},{"sx":1,"sy":1,"depth":280,"w":{"0":0.053908459041944516,"1":-0.08001697624653947,"2":0.006942915485958897,"3":-0.1934972717700753,"4":-0.07663436521050955,"5":-0.04814903633931992,"6":0.04390625123969885,"7":0.018052082114651053,"8":0.019928699078717357,"9":-0.03411472253660611,"10":-0.045704337444155994,"11":-0.030891520037207625,"12":-0.054378882237536216,"13":-0.019891250920097924,"14":0.0022830744610518113,"15":0.015897067168181057,"16":0.0669451421650444,"17":-0.04253573974946529,"18":-0.02085710960731545,"19":0.008712885880723598,"20":0.016465263563350777,"21":0.054139692494759604,"22":0.017167093248688634,"23":-0.031997394911315986,"24":-0.009256569812608135,"25":-0.030264119882146195,"26":-0.048374198976433,"27":0.042833089571914076,"28":0.009312611228266819,"29":0.011316491350438562,"30":0.04280953791234697,"31":-0.08094367671856875,"32":-0.13312677915213025,"33":-0.10920427688506709,"34":0.02496348873867933,"35":-0.02833147984089941,"36":0.007332999566277101,"37":-0.0021444628746339293,"38":-0.1252759401045393,"39":-0.04638103191167616,"40":-0.0493768586263908,"41":-0.07541851363437127,"42":-0.012289002247453799,"43":0.05974376943407675,"44":0.08142068274062729,"45":-0.08528666275159362,"46":0.062148891928672075,"47":0.06469392748031785,"48":-0.02008745714564244,"49":0.020580290192707993,"50":-0.05146238559482777,"51":0.0010607722128345802,"52":-0.04352417964776714,"53":-0.026248652367281855,"54":-0.0758771589167167,"55":-0.01390020433018758,"56":-0.0820275370406356,"57":-0.03898687988903666,"58":-0.06313132646710998,"59":-0.1789094481925443,"60":-0.1279085197606013,"61":0.04344710087629527,"62":0.06243154819654173,"63":-0.026717287820897585,"64":-0.013339330971549096,"65":0.022240566318711904,"66":-0.16229470831722695,"67":0.03370833025292378,"68":-0.037817438684759494,"69":-0.09549503877589405,"70":0.00421102163606667,"71":0.015437317883101197,"72":0.046316748433757604,"73":-0.1302776678257911,"74":-0.04443358787331373,"75":-0.10652217617678406,"76":0.013426777259236765,"77":-0.06487322117881575,"78":-0.043911456499239665,"79":-0.016220530014059476,"80":-0.28226852429635985,"81":0.029040492990726585,"82":0.052267804154595546,"83":-0.02780654275048185,"84":0.02044322432620655,"85":-0.024646126314127437,"86":0.011382095619947716,"87":-0.40180963193631153,"88":-0.04419601596045844,"89":0.025681688140650444,"90":0.0632950321113907,"91":0.01724569574414145,"92":0.1252341755407768,"93":0.04215036837542683,"94":-0.3048691040892182,"95":-0.04626671165237034,"96":-0.008232815790556057,"97":0.005919302149062674,"98":-0.015318273581866952,"99":0.022814830883191653,"100":0.007223057570868191,"101":-0.2639973672558796,"102":-0.05337621167288026,"103":-0.004534014826704706,"104":-0.034060975809936354,"105":-0.00218500785856926,"106":-0.04177366600140514,"107":0.0446429238795376,"108":-0.30730987407305027,"109":0.1312511063944106,"110":0.07706637926108151,"111":0.04086773899469946,"112":-0.053492957080099955,"113":0.0766671789964936,"114":0.011888121652608611,"115":-0.4434596024215967,"116":-0.008698544158531062,"117":0.032626301672687076,"118":-0.011858209221570765,"119":0.0020407802889716004,"120":0.0605101158277156,"121":0.1127802852081703,"122":-0.591184928454996,"123":0.03901017685085537,"124":0.04907506163025647,"125":0.024206527473587692,"126":0.03338873535542306,"127":0.08669667535381384,"128":0.10206920332303074,"129":-0.5656339585424061,"130":0.06882716940907947,"131":0.05257595563442152,"132":0.06243387203059381,"133":0.07296273600631932,"134":-0.024966100173321244,"135":-0.011641795815915634,"136":-0.5098959920013398,"137":0.07379178558778067,"138":-0.04127634427892997,"139":-0.06433180433193862,"140":-0.13680284038268395,"141":0.02696088430963263,"142":-0.11802882678112397,"143":-0.5316506483900243,"144":-0.0003654994753817553,"145":-0.006487255858512825,"146":0.011673120600978026,"147":0.003973199147621501,"148":0.07205385887525241,"149":-0.05492785682310332,"150":-0.3290817120486399,"151":-0.022379412331774505,"152":0.008374540124938263,"153":0.04937526532564047,"154":0.03028504361824551,"155":0.057343235000185434,"156":0.1190705985321582,"157":-0.18321735571639514,"158":0.04722424591845963,"159":0.11480305508409833,"160":-0.0185845341857831,"161":0.020094010370161185,"162":0.03262895192036242,"163":-0.07858382038645241,"164":0.18541821621416313,"165":-0.01346649522540845,"166":-0.0003732359066617576,"167":-0.07038598233176041,"168":0.06704893646434548,"169":-0.015376962158656539,"170":-0.13090062006011247,"171":0.1704736388486037,"172":0.019537685133440008,"173":-0.03975521517255837,"174":-0.01729336218326548,"175":0.0035901659278196945,"176":0.012492708326101146,"177":-0.1024457594321186,"178":0.4390821710136452,"179":0.0602724199285785,"180":0.1160487111065889,"181":0.024110240140284005,"182":0.04569618336771605,"183":0.044928968237906784,"184":-0.03044181688966914,"185":0.42843448938452805,"186":-0.05671858394934928,"187":0.06608588399682183,"188":-0.02642814071982383,"189":-0.0008174676137923984,"190":0.02427854039087278,"191":0.08892597932141581,"192":0.29298482027597567,"193":0.16353187664683957,"194":0.03724159818401512,"195":-0.0034881645908784635,"196":0.02374288957382835,"197":-0.005616547241956068,"198":0.04829962696769964,"199":0.211777854644067,"200":0.1707254338525065,"201":-0.02746665284556618,"202":-0.025368155368251107,"203":-0.0763330576595475,"204":-0.039476966434006215,"205":-0.061291970946689416,"206":0.09616517513992359,"207":0.04331885505040987,"208":0.0403303386248888,"209":0.0818352994569733,"210":0.011430156873016448,"211":-0.037095846812373344,"212":-0.07579685071408801,"213":0.26674953251224676,"214":-0.10773558763791974,"215":-0.04532174038572921,"216":-0.005346242916877588,"217":0.020948341687476873,"218":0.008414988665706218,"219":-0.021818968141865503,"220":0.20758233605517387,"221":0.09483312213702975,"222":0.010277868001440512,"223":0.005948582424343264,"224":-0.0322162936357802,"225":-0.10915902083591342,"226":-0.013806056969639225,"227":0.17921193970374782,"228":0.06220757320931678,"229":-0.06789042542459019,"230":-0.025989844833230618,"231":-0.12783300740030132,"232":0.011798782316257427,"233":-0.12674414887395175,"234":0.16461971261756062,"235":0.016764846137433516,"236":0.020359980551012118,"237":0.010641099654784636,"238":0.06164298779013755,"239":-0.03125875266576823,"240":-0.054702729344129314,"241":0.18122467317338106,"242":-0.09925146823098215,"243":-0.009386204833245839,"244":0.02061651624903956,"245":-0.008200149998234168,"246":-0.036279927916526546,"247":-0.08262162695424184,"248":0.17634217832862414,"249":-0.05462429389342213,"250":-0.0070136338956483585,"251":-0.05114533661567168,"252":-0.030920246788119065,"253":0.022302994566942784,"254":-0.1284477707760583,"255":0.24729167609037261,"256":-0.0973372011557058,"257":0.005186053775808044,"258":-0.042955106896663056,"259":-0.07149762342729452,"260":-0.06398518039854366,"261":-0.007462490994200635,"262":0.047620591076001854,"263":0.038981673097933184,"264":0.03507633633279424,"265":0.09552311789633021,"266":-0.012996672441255498,"267":-0.05376393855990142,"268":0.05232481532343385,"269":-0.03128999838499818,"270":-0.10810734715467858,"271":-0.006892565824579485,"272":-0.0034713204769116083,"273":-0.03139275240007534,"274":-0.021695563754200023,"275":-0.033734567059148506,"276":0.031444654984451426,"277":0.031894186867957655,"278":-0.03798383691750743,"279":-0.050797851357917874}},{"sx":1,"sy":1,"depth":280,"w":{"0":0.0510079181953751,"1":0.041307927269214416,"2":-0.06921707818659963,"3":-0.022333248930084915,"4":0.010118080370721145,"5":0.057035086871855156,"6":0.005144790815149909,"7":-0.016386352976888657,"8":-0.13318603887624483,"9":-0.0938786671887256,"10":-0.0020794379466880226,"11":-0.024648034150312276,"12":-0.03470535389537317,"13":-0.010253120161975823,"14":0.05934656634038496,"15":-0.012660865470545424,"16":-0.016696681772784838,"17":0.024337328215919773,"18":0.06125052826561783,"19":0.00435576781778817,"20":0.026934377784800227,"21":0.033915475285646667,"22":-0.031197371141931576,"23":-0.03840455356482303,"24":0.0037467161286654058,"25":0.011284742308611104,"26":0.007071156545757534,"27":-0.019335478536387816,"28":-0.07476213933118372,"29":0.0005131413432310704,"30":-0.01715561482230336,"31":0.004398607730154149,"32":-0.09402595583091157,"33":-0.01822996548969923,"34":-0.08335346988440233,"35":0.07238649794189933,"36":-0.017889456706624826,"37":-0.03483619317458997,"38":-0.05336995327412633,"39":0.017945970975356964,"40":-0.08777789301155929,"41":0.023830947923123378,"42":0.0021201499482370353,"43":-0.047012547712152485,"44":0.027318661764599326,"45":-0.04562834463489725,"46":0.08383337263734628,"47":-0.02962406098694382,"48":-0.03905842782250314,"49":-0.07137165221784685,"50":0.02927856549481689,"51":-0.15848827945068686,"52":-0.04752489342766446,"53":-0.09020967907685307,"54":0.011157953407157214,"55":-0.04998320607158788,"56":-0.08841525421128602,"57":-0.04194764697807815,"58":-0.022673489823771032,"59":-0.09956815844481097,"60":-0.09451841301366902,"61":-0.09126171482069093,"62":-0.07404076204675684,"63":-0.03436513658707699,"64":0.06626204718196005,"65":-0.06298436600924949,"66":-0.027683533338724284,"67":-0.03919861102003888,"68":-0.08849138212886244,"69":-0.011199946835841093,"70":-0.012024338622912802,"71":0.005084666141824896,"72":0.058683809958750235,"73":0.001907261210523506,"74":0.061457705719254,"75":0.009149908505535138,"76":0.08008770140824036,"77":-0.0697623971463628,"78":-0.009997008338447305,"79":0.01481859336674404,"80":0.04191917421546297,"81":-0.07837802232900226,"82":-0.14452300428348175,"83":0.14183608692352367,"84":-0.03771788231304947,"85":0.041211783968931374,"86":0.04897097499423151,"87":0.11228583297849926,"88":-0.07916626175534712,"89":-0.03381110741113541,"90":0.0076731105497559494,"91":0.0013923125151624489,"92":-0.009776432854799658,"93":0.06564385047597558,"94":0.03633812637339279,"95":-0.027067870739728,"96":0.04393076930112611,"97":0.025190156959865213,"98":0.11344683982274852,"99":-0.026995806605031758,"100":0.0304103928627327,"101":-0.05340926185589856,"102":-0.022062021393366972,"103":0.05314588187821587,"104":-0.04056661142669518,"105":-0.012730053489501545,"106":0.05055398394372915,"107":-0.05803210031127737,"108":0.056150392193715815,"109":-0.002138306050456724,"110":-0.03924043617565984,"111":0.15377476426981873,"112":0.0020350405112040462,"113":-0.01938677684000871,"114":-0.004527410734101171,"115":0.05657423914474105,"116":0.12902248251481993,"117":-0.00561391337464869,"118":0.0783703033720618,"119":0.09045482430123017,"120":-0.12789882839596836,"121":-0.0034815293993292074,"122":-0.004888682170747483,"123":-0.0011516800758430373,"124":-0.026596450600496393,"125":0.009465252840520619,"126":-0.010058687152645724,"127":-0.050869346054122216,"128":-0.03914703168058831,"129":-0.16547761546215278,"130":-0.00006609978717481632,"131":-0.005846652386106444,"132":-0.06173683893021243,"133":0.060287902628460205,"134":0.10236361694145589,"135":-0.015690407767140927,"136":0.03699970064812575,"137":-0.042879970785740115,"138":0.047835655680179785,"139":0.03299980991518434,"140":-0.025014098569960865,"141":-0.011489109407193932,"142":-0.05272818328868633,"143":-0.015082398459111645,"144":-0.046254006443100355,"145":-0.040110484409758625,"146":0.00866204718599799,"147":-0.0805011530006677,"148":0.030067718893029557,"149":-0.02750399387238323,"150":0.09959166393706158,"151":-0.1833298749263061,"152":-0.004892513915927596,"153":0.056738205504801305,"154":-0.09326365026091968,"155":-0.1437529742612853,"156":-0.019762407870242516,"157":0.0043377202466365495,"158":-0.019127102804922396,"159":-0.043553763843308065,"160":0.04153204585352189,"161":0.08137142104888806,"162":0.11142415566959286,"163":-0.0026941882408505527,"164":0.01921315850126994,"165":0.0277495964121346,"166":-0.08720279551140361,"167":0.004805445176906228,"168":0.1282012544883372,"169":0.08107980554134979,"170":-0.047894214338248184,"171":0.07006545652574887,"172":-0.1294701164671924,"173":0.0708788783540862,"174":0.05332811422559076,"175":0.09086871029868633,"176":0.016706175758450383,"177":-0.02448312408528022,"178":0.05027058771804648,"179":0.02459165726619634,"180":-0.013132244793038546,"181":-0.07865661557890131,"182":0.014817598577242,"183":-0.03623135930179566,"184":0.05176004371446701,"185":-0.1424238386622474,"186":-0.08288002633285567,"187":0.10002152954761347,"188":-0.09806583358165155,"189":0.06423561870124063,"190":0.008138402445905612,"191":0.07096373285827985,"192":-0.054724368641443574,"193":0.11032397419409633,"194":0.07290918791723647,"195":-0.002046646315525756,"196":-0.0919490873250731,"197":-0.03831675657222428,"198":0.027722157364753655,"199":-0.05007981407542951,"200":-0.056953206823506554,"201":0.03521808191017291,"202":-0.0675900641441146,"203":0.0027974892644580143,"204":-0.05654154228847066,"205":-0.016517723367719974,"206":-0.07102744252198405,"207":0.04148989632825483,"208":-0.0065852778801561524,"209":0.025952098724498954,"210":0.00290145523234813,"211":-0.07566158808696839,"212":0.002253853351140118,"213":-0.0634521062541758,"214":0.06405269426111439,"215":0.006338627344747059,"216":0.01766281551406975,"217":0.014226483634689972,"218":-0.06374142455739443,"219":-0.03439244181207483,"220":0.009614106601750485,"221":-0.04211006469988289,"222":0.03424839810118702,"223":-0.004622399615197742,"224":0.023278166601207826,"225":0.0016395711810271026,"226":0.034704271468369075,"227":-0.005916981462271559,"228":-0.007268804864603206,"229":-0.0009646633007571168,"230":-0.036712182003967815,"231":-0.0404923001313506,"232":-0.08140188901282279,"233":0.031998991033745545,"234":-0.0478131614741906,"235":0.09282967755293826,"236":0.15657459851551342,"237":-0.05581634182480413,"238":-0.031267399831447114,"239":-0.008396649615933385,"240":0.05319350190968352,"241":-0.00525732124793918,"242":0.041004128947082344,"243":-0.06734343660683269,"244":0.022499371415348853,"245":0.01795763232454915,"246":0.0043563073888355525,"247":-0.03244536995216092,"248":-0.025561702605119172,"249":0.019761132506803055,"250":0.012198126745315592,"251":-0.002615089534287811,"252":0.10495458963973223,"253":0.07810483244645036,"254":-0.06967987707780235,"255":0.05857444717580767,"256":-0.03211475730746363,"257":-0.0383195150848361,"258":0.10081179335044575,"259":0.010230010368459157,"260":0.04869168851246399,"261":-0.05217233730383674,"262":-0.11137863381906624,"263":-0.0578361184960636,"264":-0.042306542654108076,"265":0.08369256546895451,"266":0.02268452604598214,"267":-0.060635376829529616,"268":-0.006871964352328009,"269":-0.06069426285871154,"270":-0.10425393060300915,"271":0.01944696539773321,"272":0.049844101648398274,"273":-0.012679627886243846,"274":0.030965334074111932,"275":0.07825088983914344,"276":-0.009365577872638543,"277":0.034279325877166485,"278":0.117629778721632,"279":0.033402130469886}},{"sx":1,"sy":1,"depth":280,"w":{"0":-0.0947912357986043,"1":-0.021436321214302518,"2":-0.1611566979999354,"3":-0.2705549161599849,"4":-0.14432004381200128,"5":-0.08081193597093331,"6":-0.022870775578726996,"7":-0.06037104812168796,"8":-0.07334600633402355,"9":-0.08084922738918529,"10":-0.06804899314621438,"11":-0.10808941025222558,"12":-0.06856454940790148,"13":-0.0237260950834987,"14":-0.09024608075597451,"15":0.005173202668146851,"16":-0.19314453809165058,"17":-0.07418235862573123,"18":-0.12641155527161907,"19":-0.027370090074280776,"20":0.05777699592500798,"21":-0.003456972368163169,"22":-0.026958076324098468,"23":-0.13028464352859304,"24":-0.1537669307380527,"25":-0.05241155896164273,"26":-0.04600410268890499,"27":0.03505544351795955,"28":-0.011525886423081966,"29":-0.03353894850953861,"30":-0.14526677630570714,"31":-0.24206214810062576,"32":-0.19735780912448095,"33":0.01228519585958892,"34":-0.025728856485597612,"35":0.02470020496454258,"36":-0.03282046767414104,"37":-0.12260475120578271,"38":-0.13352489274290172,"39":-0.10070284033210289,"40":-0.019276642785535095,"41":-0.025830112467198695,"42":-0.046586838720212714,"43":-0.07299295357136923,"44":-0.12784797315347718,"45":-0.15495294209747848,"46":-0.08789622769218053,"47":-0.06751673734624158,"48":-0.04291249309723046,"49":-0.029583135458502312,"50":0.038963581660666005,"51":-0.08315904898107664,"52":-0.08578421176218784,"53":-0.04336304991686561,"54":-0.05552902104995921,"55":-0.019105656790571492,"56":0.04909080067591958,"57":-0.14721520454368728,