
//<![CDATA[

// a few things don't have var in front of them - they update already existing variables the game needs
lanesSide = 3;
patchesAhead = 60;
patchesBehind = 10;
trainIterations = 500000;

var num_inputs = (lanesSide * 2 + 1) * (patchesAhead + patchesBehind);
var num_actions = 5;
var temporal_window = 0;
var network_size = num_inputs * temporal_window + num_actions * temporal_window + num_inputs;

var layer_defs = [];
layer_defs.push({
    type: 'input',
    out_sx: 1,
    out_sy: 1,
    out_depth: network_size
});
layer_defs.push({
    type: 'fc',
    num_neurons: 36,
    activation: 'tanh'
});
layer_defs.push({
    type: 'fc',
    num_neurons: 24,
    activation: 'tanh'
});
layer_defs.push({
    type: 'fc',
    num_neurons: 24,
    activation: 'tanh'
});
layer_defs.push({
    type: 'fc',
    num_neurons: 24,
    activation: 'tanh'
});
layer_defs.push({
    type: 'regression',
    num_neurons: num_actions
});

var tdtrainer_options = {
    learning_rate: 0.0005,
    momentum: 0.0,
    batch_size: 256,
    l2_decay: 0.01
};

var opt = {};
opt.temporal_window = temporal_window;
opt.experience_size = 100000;
opt.start_learn_threshold = 50000;
opt.gamma = 0.98;
opt.learning_steps_total = 500000;
opt.learning_steps_burnin = 1000;
opt.epsilon_min = 0.0;
opt.epsilon_test_time = 0.0;
opt.layer_defs = layer_defs;
opt.tdtrainer_options = tdtrainer_options;

brain = new deepqlearn.Brain(num_inputs, num_actions, opt);

learn = function (state, lastReward) {
    brain.backward(lastReward);
    var action = brain.forward(state);

    draw_net();
    draw_stats();

    return action;
}

//]]>
    
/*###########*/
if (brain) {
brain.value_net.fromJSON({"layers":[{"out_depth":490,"out_sx":1,"out_sy":1,"layer_type":"input"},{"out_depth":36,"out_sx":1,"out_sy":1,"layer_type":"fc","num_inputs":490,"l1_decay_mul":0,"l2_decay_mul":1,"filters":[{"sx":1,"sy":1,"depth":490,"w":{"0":-0.020761330145941306,"1":0.004777857282739798,"2":0.00010835946625607853,"3":-0.021852464629387842,"4":0.05237478469024797,"5":0.0015812395863272813,"6":0.1042723322818561,"7":0.02946701068884562,"8":-0.042298773465626736,"9":0.10798645796282244,"10":0.054208543704963905,"11":0.05029685499123703,"12":-0.012433828696481618,"13":0.04096549062310422,"14":0.02257817269680156,"15":-0.029901408476814904,"16":-0.03436738756575856,"17":-0.009050799005758966,"18":-0.07152368284824924,"19":-0.01699981226697683,"20":-0.048805384222058885,"21":-0.05978433399842656,"22":0.02105654146280953,"23":-0.06627843869386693,"24":0.05245125176266433,"25":-0.09410480617031697,"26":-0.03426453460508394,"27":0.0308120855742138,"28":-0.015309112198285851,"29":-0.02050824552138893,"30":0.07440892363394877,"31":-0.002557543085346214,"32":-0.10064023376586012,"33":-0.0020495373206875587,"34":-0.05792497030719112,"35":-0.03778860262654766,"36":0.03985985445941173,"37":0.04452927914575864,"38":0.015564697806205641,"39":0.0384259483414262,"40":0.014600500729534874,"41":0.045654796934190466,"42":-0.004400016367134447,"43":-0.006039616168429928,"44":0.020646562851070856,"45":-0.03133801668432588,"46":0.012111730010685771,"47":-0.03412121550044052,"48":-0.021551079323699915,"49":-0.020759927280427512,"50":-0.0030799734494060113,"51":0.04924513070349776,"52":0.05567593788467436,"53":0.05983396322817877,"54":0.01931951670599873,"55":-0.035458851773865,"56":-0.010543901310302792,"57":0.009813502907502976,"58":-0.04376889586280636,"59":0.012714857470129794,"60":0.017138305088653518,"61":-0.016371787081585817,"62":0.060673268076851763,"63":-0.07011203240010418,"64":-0.014685442107508832,"65":0.057643494314084914,"66":0.027627626226310136,"67":0.004293866421470667,"68":0.043066443840717186,"69":-0.01936449973882311,"70":0.017834914601256285,"71":0.06625836343432316,"72":0.06620563341354382,"73":0.06361298182512452,"74":-0.024129981291150737,"75":-0.06182838994936119,"76":0.044843205282779165,"77":0.048454092889525235,"78":0.004137873717372418,"79":0.01623944428353908,"80":0.005508254522296988,"81":-0.011654873232779946,"82":-0.0290942711752906,"83":-0.02408039720451503,"84":0.01375682391725067,"85":0.03947629406288731,"86":-0.04650600801561489,"87":0.037196107850193956,"88":0.02938137603881115,"89":0.05473665001595831,"90":0.04559365949316392,"91":0.054292641498923065,"92":-0.020261795569534127,"93":-0.01885838613887169,"94":0.11072132832715942,"95":0.008850637842577943,"96":0.0011276354201837724,"97":-0.021370463883942828,"98":-0.032650734711433205,"99":0.05253762710173962,"100":-0.07977795705779647,"101":0.027093347180046058,"102":-0.002097303673889973,"103":-0.0097790605459007,"104":-0.008497388193203557,"105":-0.039566179433932355,"106":-0.010705485925652953,"107":0.11045806305436687,"108":-0.05777524648063849,"109":-0.0395373144089873,"110":-0.05973457229600035,"111":-0.016735938606362008,"112":-0.018758882750240582,"113":-0.007993942141157062,"114":0.0036231787165472745,"115":-0.06974055177947563,"116":-0.03940379388063579,"117":0.05567216004380922,"118":-0.010236271450807901,"119":-0.12762335066821986,"120":-0.0038533922873779437,"121":0.00835239993093951,"122":0.03517167173248298,"123":0.035569138265240975,"124":0.010712064511652427,"125":0.043888234369582765,"126":-0.0052422676239687474,"127":-0.07609999445138335,"128":0.04041678721461592,"129":-0.04486042542898069,"130":-0.10449216408394345,"131":-0.07695326151831113,"132":0.025115129443040847,"133":-0.033295548621916374,"134":-0.001235384111166114,"135":-0.01557047247058461,"136":-0.06832353532075526,"137":-0.10135954856805961,"138":-0.037730254753442494,"139":-0.014175940370681782,"140":-0.007388170896328879,"141":0.012706132382098249,"142":-0.005476840376479841,"143":-0.04288490430244972,"144":-0.06006779231534578,"145":-0.0030393070307307966,"146":-0.016826693722354714,"147":0.010393824804904962,"148":0.1247880789243929,"149":0.08499536915348296,"150":0.005540262079021388,"151":-0.08254854344609565,"152":0.004254245861609338,"153":-0.01735805859739462,"154":0.013538168429303492,"155":-0.027770565727110865,"156":-0.04323172310460889,"157":-0.06318298786063267,"158":-0.06230920237615969,"159":0.0031348393419052523,"160":-0.005790025410812544,"161":-0.021633592332449818,"162":0.027759344653230045,"163":0.009587088703113526,"164":-0.020775147524554647,"165":0.008338774459409273,"166":-0.057823758498302125,"167":-0.00462786561384695,"168":0.004787104390288327,"169":0.007353132294177757,"170":0.04078624444330328,"171":0.03725452389129988,"172":0.01477849106819803,"173":0.02572596698083904,"174":0.06121838927890161,"175":-0.044330632909459745,"176":-0.05233716854323383,"177":-0.10263653195962068,"178":0.054459861584724434,"179":0.01573326047935147,"180":0.04245429281686645,"181":-0.04489725304523268,"182":-0.007199283700982254,"183":-0.012833821610294447,"184":-0.03584985597052479,"185":-0.07167036899676098,"186":0.05729750451407396,"187":0.0006763466900115879,"188":-0.0279857221138784,"189":-0.043288981878820236,"190":-0.012177095174431904,"191":0.04396840431108286,"192":-0.009514015902432749,"193":0.013559674314284656,"194":0.0008248817911596645,"195":-0.035462836242084426,"196":0.0642945235742237,"197":-0.005714373975991231,"198":-0.05867434784650252,"199":0.08521349492392748,"200":-0.007478083798467453,"201":-0.052890487207177005,"202":-0.04792165204181832,"203":0.0669992000415116,"204":0.020865277262842777,"205":0.04618835135013898,"206":0.018378960995870417,"207":-0.029537102230674114,"208":0.028202662008827213,"209":0.07563125496624143,"210":0.030756159462534367,"211":-0.029228072706299495,"212":-0.027115827273010717,"213":0.030446932223923768,"214":-0.014593533419642837,"215":-0.0026811783323262956,"216":-0.01349017007438811,"217":-0.0693206168773069,"218":0.06965764022138812,"219":-0.03444985664276272,"220":-0.005242703882333199,"221":0.014341720255485817,"222":-0.03165921363237546,"223":0.03770895292635584,"224":0.0007689761071828887,"225":0.09372269925282449,"226":-0.06519553388636083,"227":0.05284365865703447,"228":-0.004109985297512919,"229":-0.013409446367300121,"230":-0.035225909333882435,"231":0.006901102963172791,"232":-0.05083519550389354,"233":-0.003965934917705822,"234":-0.008884950653425453,"235":0.004098717226936719,"236":-0.015595659869108408,"237":-0.041951042295216845,"238":-0.005727026754759753,"239":-0.06524538918110294,"240":-0.0634809534516908,"241":0.041547152781371874,"242":-0.04014102033207057,"243":-0.02282494028841704,"244":0.008577475434584866,"245":0.04201046752689438,"246":0.0145165247400462,"247":-0.002221709320286628,"248":0.07803775218739982,"249":0.05182529063977135,"250":0.03666772350407888,"251":-0.01978223214753567,"252":0.06211502047079797,"253":-0.02099605627147769,"254":0.0535411104710688,"255":0.05334420910205982,"256":0.0026160517763998063,"257":-0.03744028076146981,"258":-0.06781761616110442,"259":-0.06785321449309949,"260":0.0014087537733726552,"261":-0.010584542651882592,"262":-0.01201357384730521,"263":0.09337024663897685,"264":-0.05495651682880802,"265":0.030559019919154166,"266":0.005979659638498002,"267":0.03130708606608323,"268":0.06363031856195178,"269":-0.03957232452012278,"270":0.010332806292756739,"271":0.034695379922309436,"272":-0.039690878891532354,"273":-0.04536661766864745,"274":0.02543011031060944,"275":0.02028121034986755,"276":-0.0022460437049931625,"277":0.004954767344596148,"278":0.03798851952507635,"279":0.06746744752752841,"280":-0.02581001055792632,"281":0.0015638520113976642,"282":-0.013895364565040678,"283":-0.031062894761425954,"284":0.02744562647112407,"285":-0.01312908672866175,"286":0.0015058122972755167,"287":-0.033248788944325584,"288":-0.09819806199390817,"289":-0.012019615052108652,"290":-0.010426284529055885,"291":-0.00771911595162524,"292":-0.01691013258318471,"293":-0.0015476053086040916,"294":0.08338769772390814,"295":0.06507280108858374,"296":-0.02892881631671467,"297":-0.0725262309438498,"298":0.024621758314302283,"299":-0.0017103989745895793,"300":0.006314644181567777,"301":-0.0362552186152858,"302":0.005777249040286751,"303":-0.054851065967522546,"304":-0.01566512400817316,"305":-0.023118925958994365,"306":-0.018040538707850877,"307":-0.02153300954902938,"308":-0.06488762202145697,"309":0.02518146496446939,"310":0.08115703030816651,"311":0.022918145814983033,"312":0.023123649699824472,"313":-0.041301739115702674,"314":-0.08728475790971732,"315":-0.053093945763103605,"316":0.05970617939067454,"317":0.04426907156446575,"318":0.10866838635807582,"319":-0.07500556639082318,"320":-0.00004813958189676527,"321":-0.015637120247700118,"322":0.04391276298755468,"323":-0.05199374083055331,"324":0.00040605516247884494,"325":0.05242848966042725,"326":0.036664638433710976,"327":0.03652952714861364,"328":0.029628342460984586,"329":-0.019275077977181268,"330":-0.04073648000346019,"331":-0.04751816212485902,"332":-0.02680848089517705,"333":-0.005736515697345546,"334":-0.07529028916581686,"335":0.03896122058380543,"336":0.02808517143440988,"337":-0.008930033592721608,"338":-0.024725143309373504,"339":0.013657108784437658,"340":0.06620140544414758,"341":-0.016211192213487977,"342":-0.020912609372080126,"343":0.11449918121833076,"344":0.00599530378842241,"345":0.023603712663147095,"346":-0.01041517001486856,"347":0.038689939228861533,"348":-0.024522345390954475,"349":0.010949061844642434,"350":0.021028490648422733,"351":-0.014547911117128108,"352":0.004819633325873399,"353":0.01530350678986181,"354":0.009688519220249398,"355":-0.018863046938923708,"356":-0.033997199386213366,"357":0.027393047688436926,"358":0.04572019842755893,"359":0.02166924084589474,"360":-0.0644698256798127,"361":-0.04767989647458648,"362":0.008296011545755317,"363":0.06646777831201794,"364":0.022733715784687563,"365":0.0562879780884312,"366":0.054660115451514626,"367":-0.015193784264581324,"368":-0.08818193358519412,"369":0.03149868512065329,"370":-0.0019134444885719976,"371":-0.043999790789667606,"372":0.033647696786785204,"373":0.09750237888531033,"374":0.012364150972072717,"375":-0.004627162307418166,"376":-0.013911820734027174,"377":-0.040853823122272565,"378":-0.01945511081692626,"379":-0.01925656638684517,"380":0.03362238109830793,"381":-0.04659774707031231,"382":0.04950112799539908,"383":-0.007932156659176594,"384":-0.017199977133606752,"385":0.05143219630090718,"386":0.025926156771658625,"387":0.05010396048075912,"388":-0.08255412620597492,"389":0.03892356873889616,"390":0.045684922776325305,"391":0.0329831115635268,"392":0.04017245920762499,"393":0.03355415962785156,"394":-0.01302001289984924,"395":0.04543082512020176,"396":0.0029243983263956366,"397":0.10932013675399871,"398":-0.03717852412358253,"399":-0.0004389478102174864,"400":0.021204927648763628,"401":-0.010523124112113397,"402":0.042000112489027096,"403":-0.03406672955880743,"404":-0.0369840396176827,"405":-0.005804467857717825,"406":0.010879693104432517,"407":0.04608011837624985,"408":0.01208148957423748,"409":-0.03967695487250077,"410":-0.03286028031413317,"411":0.07731514982492628,"412":-0.11435259994666634,"413":0.009095673065156216,"414":-0.07965715501359433,"415":-0.07131471272278199,"416":-0.015521869490532586,"417":-0.03778851026301656,"418":-0.07479800312624704,"419":0.025192867921862858,"420":-0.028084275752724694,"421":0.02795770158334967,"422":0.02561022592545692,"423":0.03738555902683045,"424":-0.014274206296225268,"425":0.10704427073471354,"426":-0.05193211711244523,"427":-0.011205313174737703,"428":-0.014893324872703374,"429":0.054634471173142275,"430":0.0413810159827091,"431":-0.06435009813158316,"432":0.0045343917102456215,"433":-0.04395782100057617,"434":0.017367411150759664,"435":0.05326162410067641,"436":-0.054007886609070827,"437":-0.06533644363273446,"438":0.012780214013854534,"439":0.07176580257996813,"440":0.10991269159715135,"441":0.006286916614668355,"442":0.017272745499574426,"443":-0.0036954730900049517,"444":-0.059197986343123135,"445":0.02476785291196418,"446":-0.06858523685643927,"447":0.06629397418286102,"448":-0.012897339313869651,"449":0.044909752149497335,"450":-0.015211520392581997,"451":-0.022740994994657534,"452":0.03195903721358997,"453":-0.023952494672568783,"454":0.04572982161793769,"455":-0.025814858430663886,"456":0.05474633440791338,"457":0.007677080909529568,"458":-0.0034334089609841323,"459":-0.0026424020447729187,"460":0.006482210548823832,"461":-0.07232581823633119,"462":-0.016598312123464194,"463":0.02604723796839028,"464":-0.017035140964057945,"465":0.03098335029933296,"466":0.056477037763617934,"467":0.024496766364055733,"468":-0.027479356974591092,"469":0.13362397614306665,"470":0.010692446170935413,"471":0.042940161843068696,"472":-0.05080664579368618,"473":-0.07431839536404257,"474":0.06393699582881163,"475":0.0917209308536463,"476":-0.03928617899936183,"477":-0.017908938423866164,"478":0.03719143749236303,"479":0.006391929272023769,"480":0.00038388956676432693,"481":0.03803766488553972,"482":0.06589735393554721,"483":0.07210410855646482,"484":0.08061545890975082,"485":0.023214097506910166,"486":0.03445226281544815,"487":-0.0469243016405793,"488":-0.029581540120539644,"489":-0.07751823085936077}},{"sx":1,"sy":1,"depth":490,"w":{"0":-0.044127354233555904,"1":0.08371510428174682,"2":0.009287618952750565,"3":0.084374016085614,"4":0.007230830877967231,"5":0.036525841698221186,"6":-0.02303427988223602,"7":-0.00398684921028644,"8":-0.05903506306926566,"9":-0.0034031753877910437,"10":-0.05241167495190789,"11":-0.05139275144082077,"12":-0.04550047840178004,"13":0.02946013788468188,"14":-0.022263494213396268,"15":0.059524917142994106,"16":0.0666006302182518,"17":0.05075726227697111,"18":0.00592872711500705,"19":-0.05177768703163169,"20":0.013575376046570537,"21":-0.0012599185256509516,"22":0.08409666100561086,"23":-0.06807129030219547,"24":-0.00939255254889264,"25":0.058688239923442284,"26":0.02924615421464629,"27":0.014146679072984511,"28":-0.014085984931895506,"29":-0.05019366339077574,"30":-0.05072633693906849,"31":0.01959046716040826,"32":-0.009381826346433746,"33":0.0859144031690396,"34":-0.05247409912050471,"35":-0.04791430161431405,"36":-0.008709069469541003,"37":0.021911865888098403,"38":0.01364359410919986,"39":-0.014602668389761478,"40":0.044298101282135606,"41":-0.026217624888580874,"42":-0.011534589237218545,"43":-0.06516340877016089,"44":-0.06688759525404117,"45":-0.06154457399632001,"46":0.04863557300907964,"47":0.04307850753210327,"48":-0.07466833981186051,"49":-0.03967592259497129,"50":-0.09707427495997138,"51":0.05823567523376776,"52":0.007314145345292753,"53":0.0285865347613372,"54":0.09051751604322336,"55":0.10482725757048078,"56":-0.0769233921332542,"57":0.0025178934452268135,"58":-0.02179721216632575,"59":-0.010419019372146598,"60":0.012280648631042232,"61":-0.053865694423925026,"62":0.05629627631957439,"63":0.02312313568064532,"64":0.027000269796384285,"65":0.017412913278370714,"66":-0.010584750659629745,"67":0.11275452116414572,"68":0.028940791878890725,"69":0.028385519003043484,"70":0.03994137572008694,"71":0.033979090074282285,"72":-0.0818312820067464,"73":0.00014628718941049192,"74":0.06516468254496881,"75":0.07148093053997903,"76":0.01751562013811799,"77":-0.029165230475738674,"78":-0.03101653821752729,"79":0.03320765826828986,"80":0.052875119645044495,"81":0.005219169390638287,"82":-0.009768012596996918,"83":-0.027918865502921723,"84":0.024920621984753182,"85":-0.07260692975018217,"86":0.002527130763603481,"87":0.0357952193106325,"88":0.021792951141336718,"89":-0.011055399278438337,"90":0.04356008300553515,"91":0.053416274289892964,"92":-0.027250478870207793,"93":0.05153007760441616,"94":0.02897449385802722,"95":-0.001270405396194116,"96":-0.011602635888394473,"97":0.006026043659571968,"98":-0.023152434329270267,"99":-0.03535261633785726,"100":0.04195270056744529,"101":0.0022246858127831157,"102":-0.06786525206766596,"103":0.05419435865721381,"104":-0.00774154664571806,"105":0.027754009845923532,"106":0.011003486599376286,"107":0.00305063833007287,"108":0.05892726998819257,"109":0.042701450964928736,"110":-0.06888518535818039,"111":-0.0123344544139509,"112":0.07218556396634752,"113":0.014074253391421007,"114":0.02844578303943011,"115":-0.021165548462937382,"116":0.03478576095435046,"117":0.02102161722690275,"118":0.0053217785303848195,"119":0.07386485135059495,"120":0.11619203873283795,"121":-0.025116078296724284,"122":0.0023721357291017105,"123":-0.12994780146292645,"124":-0.09535810375773703,"125":-0.012252809034611314,"126":-0.02493709573844511,"127":0.0835605958953227,"128":0.04114864449350735,"129":-0.079604985619516,"130":-0.003796177179660086,"131":-0.014383120678385113,"132":-0.06163747793614539,"133":0.027717300368761435,"134":0.02602499724880507,"135":-0.010668070213805399,"136":0.03617220462657172,"137":0.012445742549574618,"138":0.05744851813783638,"139":-0.044170287146030586,"140":-0.0034183522709512,"141":-0.06037295246156076,"142":-0.025142378422840922,"143":-0.016693349758062654,"144":0.020236648794562606,"145":-0.06140674196634671,"146":0.07170145264864339,"147":-0.015221613886237197,"148":0.06744012664847411,"149":0.06785812801976104,"150":-0.06405883272895521,"151":0.0028394361066815125,"152":0.06874006987602091,"153":-0.025274363706917533,"154":-0.025007709051942557,"155":-0.03005435229987667,"156":0.016181694996307082,"157":-0.03376389964442926,"158":-0.04985108459422515,"159":0.02879709797018483,"160":-0.04348451028700497,"161":0.0593085070349172,"162":-0.0223627487772922,"163":0.06069585197167139,"164":0.021394021865268,"165":-0.012511109019050877,"166":0.017200952491083218,"167":0.11901966311477423,"168":0.08945704998683021,"169":0.026939229107453132,"170":0.00014165850929377216,"171":-0.0014807259319270325,"172":-0.07875382542826219,"173":-0.006173233849427026,"174":-0.09482493263107583,"175":0.07393870445697047,"176":-0.018587504470470514,"177":-0.006042151587008599,"178":0.058496067399679136,"179":-0.0030901789565223746,"180":0.04330020090668529,"181":-0.02860069444306451,"182":-0.007205965633859682,"183":0.0027300601290206326,"184":-0.06002954784807948,"185":0.03891224543564163,"186":-0.02538443941631304,"187":-0.01673932074520287,"188":-0.0927178318093925,"189":-0.13391749765265162,"190":0.02270543282625897,"191":-0.01624047078497934,"192":-0.020766777175456382,"193":-0.03415477682057918,"194":0.10779671954575151,"195":-0.014485476176250515,"196":0.005926696638599162,"197":-0.07376328789259544,"198":0.0325274556949026,"199":-0.01727972271173788,"200":-0.05791707736877603,"201":0.0704959761337198,"202":-0.054664362996564374,"203":-0.027730179047772995,"204":0.05030202046407788,"205":0.041719812605499104,"206":0.01564748622169945,"207":0.011978589221336638,"208":-0.08407229253385616,"209":-0.03785709065589454,"210":-0.0975077639566284,"211":-0.020580430739270773,"212":0.058078191377314715,"213":0.015737938294093107,"214":0.014368281870655914,"215":0.007701020720535737,"216":-0.008926098078145374,"217":0.055082754693919864,"218":-0.030217907971872293,"219":-0.0043972566216885925,"220":0.047535717986133784,"221":0.07290082321016544,"222":0.011609958440033923,"223":0.029413307010818054,"224":-0.05173788997769577,"225":-0.0633932015129973,"226":-0.028184759069836987,"227":-0.058688505055986565,"228":-0.020934894939194544,"229":-0.019793523353618805,"230":0.08225291973372757,"231":-0.059346063637542947,"232":-0.005871196411708909,"233":-0.05527152282737521,"234":-0.07485083807217403,"235":-0.03120921102879248,"236":0.015037218964437188,"237":-0.04453685590012089,"238":-0.039561204578212925,"239":0.03063018425691819,"240":0.05797185425848939,"241":-0.013247800394722472,"242":0.02158141538340632,"243":0.04182678492427526,"244":0.0242636832646757,"245":0.07092658807272234,"246":0.08195189397949634,"247":-0.03496628561857404,"248":0.09748548450680694,"249":0.013328951233831293,"250":-0.017837266933239514,"251":-0.048992279630543804,"252":0.020626056801005634,"253":-0.10738415414775462,"254":0.08443443465382625,"255":-0.02119230104850137,"256":0.04354843837774144,"257":0.04625176367068495,"258":0.03833930381128966,"259":-0.03009073236326292,"260":0.0009516869122035932,"261":0.010860015303838356,"262":0.010648921999261889,"263":-0.025147793189570056,"264":-0.01807466602574443,"265":-0.010615503168274937,"266":0.040156448653227934,"267":-0.021440717703177032,"268":0.009625008731752026,"269":0.047324134338482114,"270":-0.058735682444656885,"271":0.05084064740980858,"272":0.03002397614613105,"273":-0.06714549334924115,"274":-0.07265744450883259,"275":-0.01778809359165285,"276":0.008218836852392606,"277":0.007852539610832432,"278":-0.023679202422311838,"279":0.04059308729069801,"280":0.05727712757773592,"281":-0.07164029920659651,"282":0.02644861073450771,"283":0.016798597756807553,"284":0.02312224779294419,"285":0.08713826229528009,"286":0.07418896794865014,"287":-0.04561241931904243,"288":0.012753206806139644,"289":-0.05800485575396241,"290":0.03437169537359846,"291":-0.008789832318911787,"292":0.012203458272523565,"293":0.06467442269794654,"294":-0.06489102503272325,"295":0.006575942278581994,"296":-0.004904239688887194,"297":-0.014192657393161312,"298":0.003133796792954818,"299":0.021682967481150114,"300":0.03147181342714971,"301":-0.019155135076306343,"302":-0.0025837708656467513,"303":-0.018208472976212947,"304":0.0714178082189773,"305":0.05375199867831144,"306":-0.04008113484782075,"307":-0.03446855485484071,"308":-0.03442591553077959,"309":0.024463279364774576,"310":0.05816498838006532,"311":-0.017636021127669686,"312":-0.025777246399546143,"313":-0.014467214355779051,"314":0.06351744173032431,"315":0.019307502799503582,"316":0.0036193708277760597,"317":-0.04197162219195818,"318":0.04787284273566918,"319":-0.055212788251956725,"320":-0.004792840623265991,"321":-0.012177958460419363,"322":0.09672696001859592,"323":-0.011568714773163907,"324":-0.028650488463901724,"325":-0.0015597618731030037,"326":-0.015529222384242388,"327":0.005077814528162552,"328":0.004825050815224571,"329":-0.06927628696917636,"330":-0.02882135641596837,"331":-0.025527516520917663,"332":-0.04639569160358189,"333":-0.004934849638425701,"334":0.036280351715882245,"335":-0.06205885588819077,"336":-0.0365970948228205,"337":-0.011669375523826093,"338":0.010294882132943998,"339":0.049684934774025545,"340":0.00946970252605669,"341":-0.032964026495682086,"342":-0.0450000462047461,"343":-0.10302742568179492,"344":0.003760465973752351,"345":-0.00784957049283019,"346":0.01702998344352242,"347":-0.0073360886299519415,"348":-0.07252600551915145,"349":0.08152144552258633,"350":-0.02249136443830376,"351":-0.020604338451947757,"352":-0.020177200476661983,"353":0.033249486847229316,"354":0.01604161893037128,"355":0.03693981608437757,"356":0.003974423903384517,"357":-0.06819341813323195,"358":-0.018052146802360988,"359":0.04332941995580876,"360":0.009405074836286163,"361":-0.016302544950973736,"362":0.025868665965085545,"363":0.032836422973290744,"364":-0.02536017684391508,"365":0.04364064782883756,"366":0.043488989795325,"367":0.0035031570172710785,"368":-0.07005853428115587,"369":0.010900539763953597,"370":0.00839785403451907,"371":-0.06873800662891387,"372":-0.0008216802267670695,"373":0.040348187980199235,"374":0.023529314940424567,"375":0.010220390274906644,"376":0.06875990347112657,"377":-0.014758641796282368,"378":-0.03651018587015772,"379":0.018662383524083524,"380":-0.047301670987075176,"381":0.06214503924808194,"382":0.01796019911576775,"383":0.030568249515890676,"384":-0.03765701750335622,"385":0.005083105617587045,"386":0.06026050993457257,"387":0.0006205302755645971,"388":0.053636613957766234,"389":0.01827106340497887,"390":0.1459435572880612,"391":0.00987107880594312,"392":-0.037284466381768876,"393":-0.10620253042753765,"394":-0.020825056475916145,"395":-0.03157216035956105,"396":0.08592654009635103,"397":-0.027073346352836404,"398":-0.004133797959854951,"399":0.00528755986855514,"400":0.03699714331238922,"401":-0.01607322643615847,"402":-0.0254218774996613,"403":0.016074802786110835,"404":0.025661554421778993,"405":-0.0029244056362956725,"406":-0.05469646403429109,"407":-0.08389380877383262,"408":-0.021341387137604653,"409":-0.01575467436170095,"410":-0.013320131267022693,"411":-0.030370386400941165,"412":0.046008115406056226,"413":0.014671915084307603,"414":0.02543431146591927,"415":-0.013828069853496161,"416":-0.017866062251047043,"417":-0.08911156814722913,"418":0.012066805681106565,"419":0.04152899821712927,"420":-0.017296471000240475,"421":0.04783124626702177,"422":-0.024433455192061023,"423":-0.03344842676362315,"424":-0.03199248971365683,"425":-0.017711588099293688,"426":-0.05718477190310781,"427":-0.0011346911175961656,"428":-0.013183004002564369,"429":0.025009706421633162,"430":0.013308758385114106,"431":0.046162809163421074,"432":-0.022818095235072187,"433":0.06265567144866846,"434":-0.019882102408465357,"435":-0.01199841535180031,"436":0.04617135361049957,"437":-0.05172683733955099,"438":0.007866306234783163,"439":0.0007438024524100641,"440":-0.10529916979859745,"441":-0.060198752036076,"442":-0.025719115965667366,"443":0.005453785363527186,"444":0.05378309327351208,"445":-0.03783604160821039,"446":0.013557339326292855,"447":0.011506278711091278,"448":0.0517474072780149,"449":-0.051173470393616916,"450":0.0025530440195690924,"451":0.02410129541208692,"452":-0.055095077473240835,"453":-0.0077501320970080325,"454":0.003140457789578643,"455":0.03157011095954162,"456":-0.05614959299297351,"457":-0.0780382327245822,"458":0.07453224200081267,"459":-0.062115841658606744,"460":0.04040348056860382,"461":-0.016616649374938428,"462":0.038041315304785606,"463":-0.03661234796000543,"464":-0.001979982348679293,"465":-0.019135016111872596,"466":-0.04285190522141827,"467":0.04272563127578302,"468":-0.01722084557800168,"469":0.004193041755085867,"470":-0.038713408893628586,"471":0.015311992389588778,"472":0.019930284413227622,"473":-0.042771642260144585,"474":-0.033765389882970946,"475":-0.05039841942367117,"476":0.01415629161133648,"477":-0.011817325873056915,"478":-0.03821463248613184,"479":0.026717609461033385,"480":0.08416726075769579,"481":-0.0006780210564061651,"482":-0.03466114970127888,"483":-0.024696833519237325,"484":0.014915799574844334,"485":0.056752838979438044,"486":-0.049394637590235005,"487":-0.04331433245114968,"488":-0.013641901598301117,"489":-0.01705795472389651}},{"sx":1,"sy":1,"depth":490,"w":{"0":-0.0031967587501670765,"1":0.006952996271307346,"2":-0.009268963894246744,"3":-0.027533311462950422,"4":0.017596219569605536,"5":0.03781295592904814,"6":0.023654408780074812,"7":0.06247399937914144,"8":-0.019898281808569528,"9":-0.02571057954951517,"10":-0.04543857148140102,"11":0.0733556832456853,"12":-0.004138965936966583,"13":-0.006340956148069542,"14":0.09851133282721451,"15":0.0036042156973883147,"16":0.051749074373651255,"17":-0.018686514351607324,"18":0.0116201424536203,"19":-0.03691651110809206,"20":0.015933702437861786,"21":-0.014824760632929732,"22":-0.10541619471273592,"23":-0.006113403248706234,"24":-0.1010656425315599,"25":-0.07147341898847667,"26":-0.006980044071986883,"27":-0.005613152154389448,"28":-0.028025496803986513,"29":-0.021524892686552104,"30":0.04869327952442259,"31":-0.04464870127426071,"32":-0.07096790279494963,"33":-0.022795959558492656,"34":0.04159562122149176,"35":-0.0799739229711707,"36":0.04369211899473968,"37":0.017208049184982643,"38":-0.03431825696197329,"39":0.035276705796583374,"40":0.019170954884057827,"41":-0.0000018156305678029642,"42":-0.07183615573633467,"43":0.07131456608035636,"44":0.007684276273473769,"45":0.009462675211678016,"46":-0.012647329881616208,"47":0.038825337569878174,"48":-0.023427018637292112,"49":0.02576394000326473,"50":0.054541269755490666,"51":0.06347547563918922,"52":-0.018084099937924532,"53":-0.0862613454778377,"54":0.002081740038738786,"55":0.0073252116923061905,"56":0.015654536803476476,"57":-0.008648765215432215,"58":-0.012744284158036627,"59":0.004745084467827306,"60":0.005213617375224731,"61":0.07844272585618454,"62":0.026050458875887045,"63":-0.007999831685653668,"64":0.024647101920089003,"65":0.00746221742983537,"66":0.02363383900216306,"67":0.04435950593182121,"68":-0.0383911634523106,"69":0.01144677199874936,"70":-0.01751337823152401,"71":-0.03888245801975986,"72":-0.007637462731157145,"73":-0.027263489207117093,"74":-0.05012976659274786,"75":-0.011752268705741541,"76":-0.02196572742230087,"77":0.07102628452203291,"78":-0.03657440141246058,"79":-0.07300578329686022,"80":0.02173860545824388,"81":0.013257716511056552,"82":-0.07653125635896865,"83":0.0348492868768313,"84":-0.07647165720788067,"85":0.02970950650350907,"86":-0.029443786817772023,"87":0.05752759118122362,"88":-0.02123265370566838,"89":-0.025648359776713165,"90":-0.009081711398551018,"91":-0.059499331925210744,"92":-0.045220693140911074,"93":0.10346568825819874,"94":0.027378022090278,"95":-0.04691206092423175,"96":-0.03537289703017566,"97":-0.06950748954332749,"98":-0.004977474134561873,"99":0.016799503116135116,"100":0.04293178842176741,"101":-0.13154623211272137,"102":-0.0065170396525903946,"103":0.020792926360701954,"104":0.055948152176168234,"105":0.0004004739318223016,"106":-0.0703567346672454,"107":-0.06514444621467182,"108":0.025961202154016653,"109":-0.003147919754715391,"110":0.007364683855072183,"111":-0.01672982396165448,"112":0.013911711530485987,"113":-0.033296665427808056,"114":0.10093927258405025,"115":0.04229082147016209,"116":-0.115645857640464,"117":-0.009800596774493039,"118":0.05704697889435475,"119":0.018030851401933577,"120":0.010340750762810966,"121":-0.04688545684029944,"122":-0.05101921353165665,"123":-0.009014526445575766,"124":-0.0874152272568778,"125":0.019615972889324464,"126":0.112167280957749,"127":0.0526275643628204,"128":0.006936574947311975,"129":0.0178032315991848,"130":-0.0216397772216754,"131":0.024560095586612152,"132":-0.024440893792337798,"133":-0.03648684218663057,"134":0.027256399102718015,"135":0.041272517833638354,"136":0.08159217892574354,"137":0.05624591484094339,"138":0.046068002121420946,"139":-0.09076526720878127,"140":-0.07745182057617893,"141":-0.0008441614334353386,"142":-0.07005804564747686,"143":-0.026031265908742638,"144":0.00028075937132177606,"145":-0.044714496464327305,"146":0.002517305119337883,"147":-0.05277327272953476,"148":-0.0758356138084096,"149":-0.036955439232849795,"150":-0.10140175194344131,"151":0.024563803969068074,"152":0.001713434787209964,"153":-0.03061899308185045,"154":0.013015302331003434,"155":-0.005404319860247891,"156":-0.012981542216597015,"157":-0.006438023174570378,"158":-0.010586836494628797,"159":-0.019172740838615327,"160":0.000020778433801812455,"161":-0.015795806032087197,"162":-0.04536089887158428,"163":0.0449254914644696,"164":0.06092745116492751,"165":-0.0027071878593497548,"166":-0.07978203899389986,"167":0.019457524894862695,"168":-0.008876908192293507,"169":0.031243995095594553,"170":-0.019872934500670198,"171":-0.041677549155878485,"172":0.1341481447753271,"173":0.032208589195712733,"174":-0.04963638151475979,"175":-0.08159995448158523,"176":-0.07261286539305349,"177":0.03304023992034444,"178":-0.015442649492652685,"179":-0.04008197413774183,"180":0.03066859637452132,"181":0.019156922781037068,"182":0.026671050321603777,"183":0.05896767585019231,"184":0.010366556040025966,"185":0.027280362178555652,"186":0.01072813760461644,"187":0.005335650867032105,"188":0.014983767670191727,"189":0.02718086276700451,"190":0.01179261198932976,"191":-0.03145424561389086,"192":-0.03907683989332118,"193":-0.02758464624928556,"194":0.05393778670058504,"195":0.08167052918939757,"196":0.056784633864416616,"197":0.017002644061019576,"198":-0.09884213944244499,"199":-0.06591526651928509,"200":0.052709527360885584,"201":-0.011831922214298934,"202":0.037411609009239774,"203":0.0026536268662181624,"204":0.04661684445348034,"205":0.021594931879182697,"206":-0.023847233008456013,"207":-0.0023517133757367113,"208":-0.062388117592586285,"209":0.05498352600864216,"210":0.025589143900273077,"211":0.002239311665168668,"212":0.00149922061730947,"213":-0.03353443158914077,"214":-0.012773817501964596,"215":-0.10690640113929521,"216":-0.009734916007474155,"217":-0.06466007159991279,"218":-0.016433083735137733,"219":0.04174385227120631,"220":0.0077783939904466715,"221":-0.0025513427646675978,"222":-0.03566254601280078,"223":-0.030290105410449696,"224":0.010746174797153134,"225":-0.068674727182103,"226":-0.05232671763693523,"227":0.008458124898503814,"228":0.014127694084340914,"229":-0.04981137725088434,"230":0.009098549948200635,"231":0.028787163680629717,"232":0.050751584222991974,"233":-0.03455703106926524,"234":0.10099411090037998,"235":-0.08057910912923527,"236":0.003280355199805318,"237":0.00950633607943283,"238":-0.024097248018655096,"239":-0.046108051474961,"240":0.005985422831397135,"241":-0.014918226047716686,"242":0.01790046562350954,"243":0.005388519916968325,"244":-0.0023406853884485597,"245":-0.023014783533230453,"246":-0.03968823590426543,"247":0.0193670564323352,"248":0.039143584463542005,"249":0.010048031997177558,"250":0.036289454829844185,"251":0.04370393738643406,"252":-0.030461082671800904,"253":0.015046052514924083,"254":-0.03742221946624439,"255":0.0009554090241979319,"256":-0.06037292406371818,"257":0.08941112491937143,"258":0.026798318317094984,"259":-0.057073208600870416,"260":0.044342326862133914,"261":-0.02375525392336968,"262":-0.14447458062143953,"263":-0.04337265803064481,"264":0.02418724697451577,"265":0.04664719054914317,"266":-0.017762100611541164,"267":-0.06587860160577663,"268":0.029837725222309295,"269":0.08767926768679239,"270":-0.026535701803752417,"271":-0.0297675486712805,"272":0.03956487456953834,"273":0.03204416421167872,"274":-0.004528050244177968,"275":0.0000857576705845054,"276":-0.04276825825598221,"277":-0.04198193138894932,"278":0.017863748852196014,"279":-0.061453350029523096,"280":-0.11491176420702295,"281":0.003934996040771506,"282":0.09617488230050672,"283":0.046283552421665035,"284":-0.0958924815541859,"285":-0.009649430838207927,"286":0.006715629828145803,"287":0.036897144660517404,"288":0.0036191179157434696,"289":0.016493826680047622,"290":-0.030565259671254594,"291":0.013026704612451838,"292":0.000025509521627642806,"293":0.11547008646440707,"294":0.04812150781427558,"295":-0.03553617950750396,"296":-0.0206736383560651,"297":-0.09066364909549168,"298":-0.03415734760214251,"299":0.0030647199135462344,"300":0.021700900237078394,"301":0.12428847299141606,"302":-0.01881254151011691,"303":-0.01916161343709412,"304":-0.005552406684887003,"305":-0.009957787797495071,"306":-0.023958886670261283,"307":-0.03617434857412126,"308":0.06177368499641947,"309":-0.010539646470769893,"310":-0.05287329325408305,"311":0.03215180385150575,"312":0.008395941616259584,"313":-0.05432508798377048,"314":-0.11230278528882992,"315":0.0037229684263943128,"316":-0.018962239103094213,"317":-0.08752818122846194,"318":0.039783046718522556,"319":0.084688525744311,"320":-0.02822597497072728,"321":0.0004340031170162186,"322":0.0485710496202885,"323":0.022934270262372408,"324":-0.02317446860393923,"325":0.04343497591428821,"326":-0.05973963602467101,"327":0.05388904219293757,"328":-0.030992066882750507,"329":0.012365668718684785,"330":-0.0018837663017122947,"331":-0.008399797932034927,"332":-0.021161757620204277,"333":-0.016413828848826115,"334":0.023561831042537285,"335":0.09930949433590444,"336":0.04010568712525475,"337":-0.013780086189267527,"338":-0.05507055468717422,"339":0.03825878436792459,"340":0.048400272447034494,"341":0.013365911291455828,"342":-0.08263411145279487,"343":-0.027517653528533012,"344":-0.007382131991111709,"345":0.021224092302089714,"346":-0.014329356658029304,"347":-0.0038987716835972353,"348":-0.001180880050849044,"349":0.01743884066078923,"350":0.00521496343148211,"351":0.0017004545734648849,"352":0.021374199442511305,"353":-0.0145389823182687,"354":-0.013570050802245114,"355":-0.02285253748784887,"356":-0.008700013960231534,"357":0.041080312073502386,"358":0.05838161556191693,"359":0.025980122502026262,"360":0.020623571516376855,"361":0.08886504435827998,"362":-0.006856660350776427,"363":0.06798523523766778,"364":-0.00414932757147317,"365":0.021090193372017216,"366":0.040814758198772706,"367":0.015160602160031985,"368":0.0036034883713023757,"369":0.03882265530783187,"370":0.02449506810744594,"371":0.03566403207114153,"372":0.06846487600941245,"373":0.04571784379967264,"374":-0.02655932109607529,"375":0.061756855812134984,"376":0.040064499459426126,"377":0.009446216965889964,"378":0.026657512387804293,"379":0.038351036642109114,"380":0.0750989066304467,"381":0.053782490093808054,"382":0.03956844713304749,"383":0.022498997826115294,"384":0.01933755674588868,"385":0.11346191593947849,"386":-0.04864108191591189,"387":0.03926059377866606,"388":-0.11969325364048389,"389":-0.007736804847738044,"390":0.011367463425228331,"391":0.022419930355629253,"392":0.0479906041392648,"393":0.04865703624211,"394":-0.048033690518098436,"395":-0.07505012017952113,"396":0.03419738770160253,"397":0.02412988174337578,"398":-0.07628038610915926,"399":-0.026424345826902104,"400":0.08788724046163382,"401":0.07367503151237902,"402":0.0037005879010221887,"403":-0.030020555456133767,"404":0.0021932282082511648,"405":-0.034796067080573576,"406":0.08001967783746174,"407":-0.009324561148402652,"408":0.023775687335226378,"409":-0.05061092967480085,"410":0.06269723802606621,"411":-0.07137336708700262,"412":0.028359138789157873,"413":0.001011429313429669,"414":0.011470342370337361,"415":0.0034112028986417226,"416":-0.06607925762051747,"417":0.06717576621425332,"418":-0.03182268261818551,"419":0.09243158623570787,"420":-0.043653391159142914,"421":0.008833870430952209,"422":-0.008026648021681893,"423":0.12393388077720552,"424":-0.02002642802017762,"425":0.002073663561034848,"426":-0.025426890605737017,"427":-0.054411124439838345,"428":-0.004281331827989478,"429":0.012075384529481354,"430":-0.034754131241527354,"431":-0.0179949404985543,"432":-0.09793038773679193,"433":0.07050385737800118,"434":-0.011529826533456434,"435":0.009128398145628082,"436":0.0174757520842539,"437":-0.04656809901512831,"438":0.0021633358171849674,"439":0.002478089907890547,"440":0.023835392309628396,"441":-0.023186329900079974,"442":-0.00667257917252818,"443":0.04546520646745177,"444":-0.0951836675155518,"445":0.05767351409272238,"446":-0.050148311691697305,"447":-0.02867572463426162,"448":0.08153088522341588,"449":0.0469420741382739,"450":-0.03279357787459266,"451":0.09271581626372878,"452":0.07833807697807714,"453":0.01587526692050902,"454":-0.059880410428889,"455":-0.027049283105669772,"456":0.011870626099776809,"457":-0.013184143522933576,"458":0.012941026234754927,"459":-0.005818022947494991,"460":-0.03094136972699119,"461":0.009937589463018426,"462":-0.03240243415521895,"463":-0.051103716092530664,"464":0.022367360715418182,"465":-0.07773964232621734,"466":0.05475051910746081,"467":0.03242096214314031,"468":0.04837012044809455,"469":-0.041906922784233455,"470":0.02459163511292941,"471":-0.02253716705579751,"472":-0.07742264941644232,"473":-0.009417030522176465,"474":0.0011476212207613698,"475":-0.01761912331354067,"476":-0.013336387627428524,"477":0.040843200009492105,"478":0.008240020699565833,"479":0.07304006595295065,"480":-0.042500157064411764,"481":0.10395367110420642,"482":-0.02565721605787261,"483":0.00802664467452487,"484":0.006379839722578185,"485":-0.003616503517751285,"486":0.06203706343409607,"487":0.02895327854798744,"488":-0.017763831875741598,"489":-0.027057377085021383}},{"sx":1,"sy":1,"depth":490,"w":{"0":-0.051766010429111706,"1":-0.11969877994328905,"2":-0.007188552534871583,"3":-0.0641207809039075,"4":0.004868251851842803,"5":-0.04153566538814753,"6":-0.0024527327019373446,"7":0.09659327075759719,"8":0.09452521775659277,"9":0.009194353671187228,"10":-0.07077151814181061,"11":-0.005399658729800377,"12":0.03190680419549701,"13":-0.026704955834562043,"14":-0.0704155072041193,"15":0.006641298051481845,"16":0.05570250406974316,"17":-0.0016807809746938317,"18":-0.016761118557450563,"19":-0.04987752168349596,"20":-0.03641865675231783,"21":-0.023987229967061957,"22":-0.05776906464656823,"23":0.06355229774163051,"24":0.06918028657396506,"25":0.017571715643370726,"26":0.00016757461545520357,"27":0.03174945676906239,"28":0.02432656098488176,"29":-0.005372195135728806,"30":0.03364292029184156,"31":0.017016000462918107,"32":0.0010174420587931343,"33":-0.04644370642397766,"34":-0.04489634153745901,"35":0.015664321107362423,"36":0.003374823568511546,"37":-0.01330270883057232,"38":-0.02050045623149733,"39":0.04030613606155067,"40":0.05546685656830887,"41":0.04719124945872604,"42":-0.04990357406249339,"43":-0.013581199878004045,"44":-0.019855946968464093,"45":-0.0011189338660612454,"46":-0.0049119937706837554,"47":-0.10232280048705135,"48":-0.046935058861273075,"49":0.04963233847159705,"50":0.012341570812043692,"51":0.008356812057752218,"52":-0.03173226233455419,"53":-0.06543770249376003,"54":-0.008124681227147443,"55":-0.037360214616219356,"56":0.05378043358038431,"57":-0.0674912194251955,"58":-0.02250078180545532,"59":0.03524961881185581,"60":-0.08668742199701661,"61":-0.03175809177770718,"62":0.03996464793804711,"63":0.05762951197934487,"64":0.052534834775077914,"65":-0.046836449419383516,"66":-0.03727041030715518,"67":-0.05809961441988748,"68":-0.03705483301712708,"69":0.056266871862207225,"70":0.03405375862257722,"71":-0.07647592993613166,"72":0.02513606191935982,"73":0.035947386526679594,"74":0.036428789586029464,"75":0.07977554425408584,"76":-0.021217804346861182,"77":0.001931684899071601,"78":0.0344378909512133,"79":-0.000044035791993147,"80":-0.017576237591159106,"81":-0.08961019197443382,"82":-0.04618661297555175,"83":-0.016579978531247132,"84":0.07495957617009201,"85":0.030577864187291373,"86":-0.007835293660309866,"87":0.07009158432076183,"88":0.015281576429746346,"89":-0.02625114228127389,"90":-0.03348459073009421,"91":0.024299508500807462,"92":0.046547536902848186,"93":-0.0427587576336205,"94":-0.061511796158954524,"95":0.026227934804981406,"96":0.08678744969940608,"97":0.0335014843672612,"98":0.040170440972204756,"99":0.06934923937622404,"100":0.030952436858439437,"101":0.09137723558428458,"102":-0.04418584724861494,"103":0.07603909483361539,"104":0.008197319531516674,"105":0.019537962503085277,"106":-0.03377988197178219,"107":0.05599248165404014,"108":-0.05396448710692312,"109":0.006661420416071548,"110":0.024873035611809303,"111":-0.06280462214626667,"112":-0.021462899874481262,"113":-0.010669880002352554,"114":-0.029385044004203296,"115":-0.014440536086467047,"116":0.0328913219297627,"117":0.01630233010303397,"118":0.018689689597019218,"119":-0.0049478172323531066,"120":-0.03658453610209105,"121":-0.005716740449018845,"122":0.11687202805124647,"123":0.011995638529088713,"124":0.02950341384125266,"125":-0.02614772276381448,"126":-0.008970333733759155,"127":0.053567189482056694,"128":-0.0066034876594957435,"129":0.03467820505489128,"130":0.07920311281919139,"131":-0.03319121774050479,"132":0.04946351195626275,"133":0.043715476368110774,"134":-0.07076145100915775,"135":-0.06633732364255701,"136":0.026394189490537345,"137":-0.02088832052140272,"138":0.006020451779263411,"139":-0.04378501900066905,"140":-0.030151815837099343,"141":0.06380858974177439,"142":0.01390109603324173,"143":0.006855797818628603,"144":0.014303611098209578,"145":0.009000738316095823,"146":0.004800439472189417,"147":0.020382301290834036,"148":-0.03226300227214052,"149":-0.009122902059187305,"150":0.07501798438847566,"151":0.039951443395493606,"152":-0.0364380276935954,"153":-0.04038111795913059,"154":-0.04661719014461448,"155":0.0015332792023594437,"156":0.0026432149842801427,"157":-0.025265377936911252,"158":0.038697247336875046,"159":0.06807227477835813,"160":0.028470067269919616,"161":0.0019129851576845428,"162":0.03521687648225979,"163":0.07229130036690083,"164":-0.023636892805517135,"165":-0.10822173045873273,"166":-0.027962803310596907,"167":0.026064101586018015,"168":-0.013320527675054096,"169":0.02115388905673636,"170":0.028968111834504245,"171":0.06248596929434959,"172":0.07143950293240889,"173":-0.05062374429303709,"174":0.034566412547403315,"175":-0.03970950363394105,"176":-0.011605343796140371,"177":0.003639319046238423,"178":-0.011805461508742324,"179":0.004364415298728165,"180":0.015730901281994326,"181":-0.06285220599609266,"182":-0.014086288961643826,"183":0.019016428730510116,"184":0.01421638198378962,"185":-0.0022782955674541558,"186":0.032712712151728315,"187":0.0061270730227493625,"188":0.021716085985385446,"189":0.018066136939555073,"190":-0.07147951186771657,"191":0.016957665991451248,"192":0.044600183295819745,"193":0.02475176062782571,"194":-0.007102951141563769,"195":-0.011263088913169074,"196":0.015745722095498408,"197":-0.04314714391512402,"198":-0.023870263810081328,"199":-0.030396484035541526,"200":-0.0363680515077968,"201":0.006030089463914329,"202":0.016197957721820498,"203":-0.005987435085544315,"204":-0.03080118664924543,"205":-0.0313818897877878,"206":0.026773418545493807,"207":0.007368646824480724,"208":-0.08502331868619972,"209":0.005190318495561447,"210":0.03850342359795552,"211":-0.05671376904582946,"212":0.06081939527095898,"213":-0.018178219383097615,"214":0.06853656069177606,"215":0.009457038348573863,"216":0.019110433408379812,"217":-0.02625358604159933,"218":0.011288056049053117,"219":0.022912901656228415,"220":-0.07993078318851417,"221":0.09602376287419082,"222":0.09778447981252078,"223":0.04021326128759338,"224":0.041189272743463054,"225":0.001003956644829667,"226":-0.00889527613325355,"227":-0.013359597723273301,"228":-0.11290900485729594,"229":-0.029960456549089944,"230":-0.049311893658983384,"231":-0.018019624802653827,"232":0.03924415682271827,"233":0.011731734552742163,"234":-0.05883245970435597,"235":0.0058386723463996456,"236":-0.01341903144773435,"237":-0.019192282086036867,"238":-0.04460908006855675,"239":-0.04323733822904417,"240":-0.020133174661982507,"241":-0.038689477247166884,"242":-0.027453736074995627,"243":-0.03804403125982676,"244":0.05018263692201661,"245":0.03371246738093175,"246":-0.017208984030962066,"247":0.05575539158819432,"248":0.04829577664145085,"249":-0.017915153738733224,"250":0.10463925562969868,"251":0.04000713402254474,"252":-0.04358400961763531,"253":0.024160701704256063,"254":-0.07784989512482682,"255":0.0029446019887171206,"256":0.0829271957547777,"257":-0.03893945026615405,"258":-0.0528339718303132,"259":0.051354574680111446,"260":0.03621633403735978,"261":0.033887157838545776,"262":0.012937714046689808,"263":-0.024297114910428606,"264":-0.09647305436929406,"265":-0.1311968679424717,"266":-0.007657259812678208,"267":0.014285680450859461,"268":-0.07416020795952186,"269":0.003265150263991455,"270":-0.01048475447181079,"271":0.008574230154219525,"272":-0.04482860811543116,"273":0.016014921026467187,"274":0.08180508619371425,"275":-0.03272666034374576,"276":0.0803543909749386,"277":-0.03520923246054883,"278":-0.057697019130422314,"279":-0.011001806238247619,"280":0.08217913523822022,"281":-0.013265149130584098,"282":0.0024379963181518265,"283":0.027188520388426222,"284":-0.009233302438765393,"285":0.011437629238948616,"286":-0.006768173440181154,"287":-0.0223298649656164,"288":-0.007042198897692614,"289":-0.017000824311706377,"290":-0.046474119546067456,"291":-0.07136633314120851,"292":-0.03949156452317725,"293":0.029942597055368447,"294":-0.035837903543648346,"295":-0.0016279498194010052,"296":0.016490134375310765,"297":-0.05348922772851658,"298":-0.05038630658001659,"299":-0.013649613430890136,"300":0.028789191790788524,"301":-0.008729277452356705,"302":-0.002717443304578315,"303":-0.01486108704848089,"304":0.01583146038469647,"305":-0.019885928574364855,"306":-0.03903504032379687,"307":0.004480645254543531,"308":0.027683351291937174,"309":-0.012070860885444935,"310":0.040591684158204834,"311":0.003361064653901419,"312":-0.0026949066181375385,"313":-0.00255254898363998,"314":0.01988891100468664,"315":0.052410986085982554,"316":0.01662291170421122,"317":-0.017135394781610084,"318":-0.014812317274706494,"319":0.045705622430557064,"320":-0.004451218136036386,"321":0.019364661529457625,"322":0.014817980109028126,"323":-0.018538757865667867,"324":0.04221217501082757,"325":0.023271965268433756,"326":-0.02163377048469873,"327":-0.033957364539064776,"328":-0.07961723194436354,"329":0.012402787344005928,"330":0.055586474211587314,"331":-0.007887499438955432,"332":-0.090338818919192,"333":0.06518874045496076,"334":0.08565199047623559,"335":-0.013207129385605993,"336":-0.09553895518795906,"337":-0.03189682025712758,"338":-0.02315965254234478,"339":0.041901256852530364,"340":-0.004966480831925854,"341":0.06680898744168656,"342":-0.033360865987057356,"343":-0.029110486528297633,"344":0.002620753321248825,"345":0.04628911641517586,"346":0.057587745894645256,"347":-0.05775289269809241,"348":-0.05155577875188009,"349":0.010120299447793598,"350":0.0021338577460963716,"351":-0.059464773210470334,"352":-0.026348978713424485,"353":0.052436012280754125,"354":-0.0244415377905913,"355":-0.05314249352736895,"356":-0.0115106002358244,"357":0.030574221570105968,"358":0.009202060224005418,"359":-0.005157293480700028,"360":0.028328973245849626,"361":-0.01928767630603217,"362":0.025130677566682955,"363":-0.07835815658378102,"364":-0.052775026422241265,"365":-0.0028341597466143217,"366":-0.011558963575177003,"367":-0.01513611203762923,"368":0.06425091375253515,"369":-0.02959036654127751,"370":0.0043843123898057385,"371":-0.09907073971690668,"372":0.03552537857621186,"373":-0.0174160090082013,"374":0.062458164156553184,"375":0.02364685389215826,"376":0.025803372394886222,"377":-0.008352430221076058,"378":0.022559554017225085,"379":0.016666855840357524,"380":-0.01762825054063536,"381":-0.007647706465805788,"382":-0.012241484490326818,"383":0.03465030549601869,"384":0.012029312710545234,"385":-0.011072514326089062,"386":-0.13860267128673137,"387":0.02757027409303969,"388":-0.07297774089182475,"389":0.035308210639130234,"390":-0.060534359413514045,"391":0.011035401683425922,"392":-0.044228852845537354,"393":-0.056706273489640316,"394":-0.09128136025332206,"395":0.018843629923360295,"396":-0.012691813459396375,"397":0.02266648233210954,"398":0.012881019326468783,"399":0.07919319859365029,"400":0.002938005603225916,"401":0.03493405255515014,"402":0.015131376355677769,"403":0.0523657358205182,"404":-0.03257475441678812,"405":-0.03284486656100808,"406":0.02687860126047254,"407":0.007752806184592487,"408":0.019744718315074242,"409":-0.023241863931005687,"410":0.12558886116154871,"411":0.027560342935096998,"412":0.01831857289030844,"413":0.005773973452159451,"414":-0.011230281037897643,"415":0.03970628150135469,"416":0.03815517575003449,"417":-0.009729243428668526,"418":-0.04008324063431709,"419":-0.039596462248020325,"420":-0.09346211505167797,"421":0.05661659575539581,"422":-0.020750136981898693,"423":0.04096077022779754,"424":-0.03672049732959023,"425":-0.07551258276377618,"426":-0.027650310681045412,"427":0.007334375303541089,"428":-0.024044564440059115,"429":0.03624936634426178,"430":-0.04636955101003569,"431":0.10907724036425293,"432":0.08051499162690647,"433":0.024355161717623277,"434":-0.047050809934785845,"435":0.0704631190449288,"436":-0.0563786579680032,"437":-0.05475373202895632,"438":-0.0003243835831858931,"439":-0.024791637469225622,"440":0.03815743464765304,"441":-0.047875366932498636,"442":0.0109508443435217,"443":-0.009752600235608276,"444":-0.07979176858081863,"445":-0.018716282060558833,"446":-0.001918944753594694,"447":-0.017065544429731773,"448":0.03248799412250218,"449":0.0012535013702390427,"450":-0.02750829898511308,"451":0.004339148682622383,"452":-0.039044685557550536,"453":-0.004455827691736547,"454":0.015560461086339532,"455":0.027871355940416745,"456":0.00913561170110406,"457":-0.014389838118198793,"458":-0.03696578239753985,"459":-0.013730054561999163,"460":-0.025815425159763417,"461":-0.005392458740229739,"462":0.008659944880775332,"463":-0.013576671257603999,"464":0.03540913866733135,"465":0.09795435153743073,"466":-0.04173306385967728,"467":0.016608982334158227,"468":0.04801582071934039,"469":0.05993886494520858,"470":0.011138549689824001,"471":0.07691428278943882,"472":0.01530522839415141,"473":0.029535599930525888,"474":0.03356847621022375,"475":-0.0016670736887100445,"476":0.044744403402535125,"477":0.008152978621915422,"478":-0.06917962190216156,"479":0.06583425809042073,"480":-0.09930929452472227,"481":-0.02758629042419218,"482":-0.03340670412555134,"483":0.0716510661092721,"484":-0.009075736458916447,"485":0.052189951962137056,"486":0.006101867798672424,"487":-0.06751998420364712,"488":-0.0069292037517252976,"489":0.008267172938121086}},{"sx":1,"sy":1,"depth":490,"w":{"0":0.016029875389340583,"1":-0.05714390681325532,"2":-0.019756025754622937,"3":0.0003922026123073033,"4":0.0204843043586556,"5":-0.025889437461625593,"6":0.03156939623864545,"7":0.01789248359687233,"8":0.04615125135633102,"9":0.0046512233176153744,"10":0.001602015576508733,"11":-0.04174933104529923,"12":-0.0738316466418211,"13":0.0523206810755882,"14":-0.03130251304108574,"15":0.011251494188679533,"16":0.025896001424307112,"17":-0.10671655794661776,"18":0.03275503931986925,"19":-0.013511678344807139,"20":-0.02543097875390736,"21":-0.028516471277106537,"22":-0.030216431686228607,"23":0.009903388380565625,"24":-0.09117361854677844,"25":0.01972372523943969,"26":-0.06171013062545157,"27":0.012126966760762487,"28":0.0031384384403312046,"29":0.04253245009529124,"30":-0.08806687861232061,"31":0.030766980545633257,"32":-0.08027812475131638,"33":0.0029686813671466854,"34":-0.00013993098303993648,"35":0.0060175530634059655,"36":0.027246038862649345,"37":0.07838304472774237,"38":-0.006437520826780696,"39":0.05669925252342859,"40":0.0010806351751490011,"41":0.058662978420499806,"42":-0.011618466497684048,"43":-0.04144681104450573,"44":0.005052138864911699,"45":-0.007612780998397958,"46":-0.0803760297660528,"47":0.043396724966035964,"48":-0.006621566414837954,"49":-0.07484048402952238,"50":0.03579567974829576,"51":-0.04811849291426584,"52":0.01486871588049573,"53":-0.02846096101687064,"54":0.019186704392554377,"55":-0.03249227202442197,"56":-0.018431717293392606,"57":-0.021928434442521207,"58":-0.030990336965122482,"59":0.006269802800631882,"60":0.04542129484510728,"61":-0.06014578087516085,"62":0.024850532674522453,"63":0.0013609556931953029,"64":0.06549839386571644,"65":-0.022340760334973214,"66":0.009199059506539556,"67":-0.07276848181817476,"68":-0.03492411964864503,"69":-0.010718445842706172,"70":0.012296617293907512,"71":0.006450461675133379,"72":0.02526995810272768,"73":-0.004823823295781653,"74":-0.036110061031620413,"75":0.04885261889344266,"76":-0.06895001260816154,"77":-0.05235651704806039,"78":0.062114043377693995,"79":0.01153471075439549,"80":-0.050027976453941525,"81":0.027773232268953254,"82":-0.03909768198056472,"83":-0.06208485462316667,"84":0.05624439227211136,"85":-0.07258182610534812,"86":0.03306092096241906,"87":0.05170914327910366,"88":0.0033095617247564896,"89":0.008845598916890669,"90":0.04298028117978215,"91":-0.02746585557843969,"92":-0.07978979996844413,"93":0.09001376325184818,"94":0.03619441402350723,"95":-0.0023452695995907183,"96":-0.0005073615411352199,"97":-0.02506262533795748,"98":-0.00871492877194319,"99":-0.0740614455120646,"100":-0.030061673632800812,"101":0.04821632151855254,"102":0.022105238792063622,"103":-0.05550738716888283,"104":0.1313681253812497,"105":-0.01485060348354399,"106":0.14130441767873733,"107":0.011753372266814084,"108":0.02267623130702132,"109":0.016242154221576745,"110":-0.004677907309654167,"111":-0.005878612121491246,"112":0.06150717628474864,"113":0.013120650365474374,"114":0.03896612792780406,"115":-0.015497690846785183,"116":0.027044746469877402,"117":0.025452158795243252,"118":0.042092563514371295,"119":0.022326159833775228,"120":-0.003564172678576426,"121":0.01739513347075142,"122":0.10844407397413615,"123":-0.009402070468342173,"124":-0.0313994197008924,"125":-0.045655640105843505,"126":0.02762059127137099,"127":0.07875455325338937,"128":-0.03455172574797743,"129":0.018010112371263043,"130":0.03545932852695427,"131":-0.03150895891350673,"132":-0.12697118949936517,"133":-0.0015810735376061635,"134":-0.003586992733688047,"135":-0.05841291666038122,"136":0.030640305913277075,"137":-0.10313724120650478,"138":0.035796700897334444,"139":-0.00841427887633003,"140":-0.05112500905255378,"141":0.09826726041356845,"142":-0.031668397083803985,"143":-0.012108363856217108,"144":0.04354867427033253,"145":0.041196252040867964,"146":0.024642140965691624,"147":0.05898525030547323,"148":0.005630049669533341,"149":-0.020847023361985597,"150":0.01729488867373319,"151":0.02275828400240657,"152":0.01569565999750761,"153":0.0394763692186956,"154":-0.029965102705305852,"155":-0.04944617925468809,"156":0.034354670081054445,"157":-0.04885910553542403,"158":-0.05352074957211561,"159":-0.032487511655847214,"160":-0.05692875309908546,"161":-0.0531260316630949,"162":-0.01633710297717264,"163":-0.06941992225551577,"164":-0.01647382483719076,"165":-0.01055595014870296,"166":0.008301454436790586,"167":-0.015243779625578453,"168":0.08115612626270825,"169":-0.04370104972887929,"170":-0.0440546521123189,"171":0.02038541093241701,"172":0.0006351379967525724,"173":0.023078419736369024,"174":-0.03141367588329868,"175":0.017271543191073477,"176":0.04530452193695944,"177":0.0798819557593577,"178":-0.02320238415516238,"179":0.060482309560043725,"180":0.004915027118517261,"181":-0.06286435787042079,"182":0.033727877939198674,"183":0.0389285582538982,"184":-0.013853701704986995,"185":0.021012685913349177,"186":-0.029713165635054935,"187":0.058085771051773274,"188":0.08285828977002914,"189":0.040914230735240795,"190":0.02961273795034108,"191":0.007321351585596537,"192":0.006255801547502695,"193":0.031647682962277844,"194":0.06024984459755327,"195":0.028210497872221886,"196":-0.057337472881395686,"197":0.03656585147472688,"198":-0.08833219622678447,"199":0.03321597347389392,"200":0.00039546636394464094,"201":-0.06481936286174832,"202":-0.007895814703121133,"203":-0.06234288502014341,"204":-0.026521847448150275,"205":-0.09290471298213882,"206":0.031604377636437454,"207":-0.06381735962937472,"208":-0.014101323187391906,"209":-0.020526149844144644,"210":0.017112000755376056,"211":-0.009144664143667422,"212":-0.029353336875063557,"213":-0.049705121468362395,"214":0.03513309389824135,"215":-0.002525306069018701,"216":0.0035084908697462073,"217":-0.05276246055055001,"218":-0.014205795220546548,"219":0.0323469797212267,"220":0.05610124303047237,"221":-0.02766245823048855,"222":-0.04624915249421905,"223":-0.05855946402009613,"224":0.022449490202781457,"225":-0.08030906571161744,"226":0.06251464808132105,"227":0.036851823067412394,"228":-0.013524639539021147,"229":0.044977096506166964,"230":0.016758805561870763,"231":-0.01227659489026353,"232":-0.008016216322640613,"233":-0.012025814283607371,"234":-0.0243670284380145,"235":0.049397685149672486,"236":-0.02691114754433043,"237":-0.04529632733838342,"238":-0.04418599691702571,"239":0.114522678722429,"240":-0.03862898447764972,"241":-0.08925590834987261,"242":-0.09419127724416637,"243":-0.018762814130770588,"244":0.047731856910067545,"245":0.10654372264663886,"246":-0.02420856373986795,"247":-0.03758334580291798,"248":0.09382567451045634,"249":-0.0019865353784115913,"250":0.05386457359418608,"251":0.03548149560944575,"252":-0.011887802995561044,"253":-0.056223846477354254,"254":-0.04693370165858134,"255":0.03764612075797931,"256":-0.004369761360683967,"257":0.12089250316090445,"258":-0.014689079861966325,"259":0.10608240114341091,"260":0.042422352203711225,"261":0.038196913361696956,"262":0.03429657025826829,"263":-0.030929812430333704,"264":0.0340267052092004,"265":-0.03849588270999321,"266":0.05907678569124021,"267":-0.05702324002508199,"268":-0.028394402632012594,"269":0.0774143065322464,"270":-0.02581945362592658,"271":-0.09444221292537452,"272":0.04088168359768015,"273":-0.0023968717815124013,"274":-0.0215506567448356,"275":-0.04070908500879742,"276":0.03933635033583131,"277":0.005596551313450261,"278":0.10701360940582591,"279":0.041390381848843937,"280":-0.020365681461118886,"281":0.035696858669720714,"282":0.0010204910823660605,"283":0.008614886242349674,"284":-0.0200691663419113,"285":0.045142365080059685,"286":-0.003172819777492347,"287":-0.04086371405688129,"288":-0.07043537128512181,"289":-0.01816447563911615,"290":0.04515184791381074,"291":-0.006016409528764006,"292":0.05108490694488473,"293":-0.03664225678908977,"294":0.054781797916191394,"295":0.030198168136863147,"296":-0.025421228235102164,"297":-0.022242962792930608,"298":-0.016242096707605742,"299":-0.0006843432789232158,"300":-0.004171297106609813,"301":-0.021113557657098242,"302":-0.06381073022422827,"303":-0.05919510704443075,"304":-0.02723189643603435,"305":0.055343962320990626,"306":0.0006574245735125413,"307":-0.04111881963523116,"308":0.006902351524036206,"309":0.08929974639580994,"310":0.006224422504557112,"311":-0.09362216459613208,"312":-0.10403933110760559,"313":0.07328790791576797,"314":-0.00877796489252319,"315":0.019305718654263563,"316":-0.04085584612470688,"317":-0.10145409639835899,"318":-0.034795521000859565,"319":0.012635693676864226,"320":0.03665346303422336,"321":-0.02909255117307465,"322":-0.001016022788036743,"323":0.014227043376223804,"324":-0.014258583720036078,"325":-0.013912270115276397,"326":-0.022963349886505564,"327":-0.025974021621052633,"328":0.04254611175838155,"329":0.02478862898680382,"330":0.08669873173078693,"331":0.09781215929251058,"332":0.008504481842125327,"333":-0.005160935034298125,"334":0.05403325581672581,"335":-0.029070127294962424,"336":-0.009468537788948149,"337":-0.004378910625666671,"338":-0.07966506554719682,"339":0.04714830171076359,"340":0.02180655745768661,"341":-0.028303756569126367,"342":0.09193873021046221,"343":0.016678846744951792,"344":-0.06223345707041035,"345":-0.0028501081175929897,"346":-0.017273901275897664,"347":0.01604705623834542,"348":0.021971675779682683,"349":0.004785263308283682,"350":0.06103664890002067,"351":-0.025136594045129232,"352":-0.003713467433717314,"353":-0.022984452886234647,"354":-0.014000553160653103,"355":0.01901814430103608,"356":-0.015398124369306834,"357":0.010199413258009814,"358":0.005982711987928944,"359":-0.040929980480260704,"360":-0.055545478990676564,"361":-0.0011545027227332478,"362":0.04226528186622266,"363":0.12587648901371135,"364":-0.022578828273898836,"365":-0.014497433959228964,"366":0.02356942392785116,"367":0.027222659910467066,"368":0.031398211419249526,"369":-0.003006577154281576,"370":0.08043564821880143,"371":0.060756364287408035,"372":0.033585931160133815,"373":-0.029256161919915483,"374":-0.013956950082397154,"375":0.015332487238115576,"376":-0.018964625017435295,"377":-0.02767349781143032,"378":0.03701708797104997,"379":0.1426129768901768,"380":-0.05016989671315578,"381":-0.0522820279600259,"382":0.043026541713085564,"383":0.008477229790843489,"384":-0.01627171400316256,"385":0.018866013532507497,"386":0.0585049721219928,"387":0.0394388981522008,"388":0.018239336358089428,"389":0.019618789963282614,"390":-0.0610005410221506,"391":-0.03284583272430195,"392":-0.08463762436161609,"393":-0.01054978537871403,"394":0.094946961943374,"395":0.05869917287121254,"396":-0.05796196950460112,"397":0.03382141535931394,"398":0.027984687038004427,"399":0.07048677320600383,"400":0.025169897862474897,"401":-0.004063386733147295,"402":0.029825323432925058,"403":0.040577627756333765,"404":0.01922763143704649,"405":-0.05057558338399499,"406":0.13622094998651071,"407":-0.01889051384861901,"408":-0.027594402601585608,"409":-0.06178239942500973,"410":0.0019274292233618928,"411":-0.030283204455839416,"412":0.03300583665673143,"413":-0.00380683947139201,"414":-0.04240720829561653,"415":0.07416252769653355,"416":0.00023858483342666757,"417":0.04530648598384403,"418":-0.03377730707538313,"419":0.01636906244316494,"420":0.06013577223331608,"421":0.014750568080043816,"422":0.041985900253359736,"423":-0.047053460325507224,"424":-0.06904865690511515,"425":0.06059144416261529,"426":-0.00963804586496789,"427":0.03778219912032829,"428":0.03348317697273928,"429":-0.020945208443178362,"430":0.02098919372163857,"431":-0.028425204921539885,"432":-0.044452754556203726,"433":0.014334006121556346,"434":-0.05576428387781289,"435":-0.03418189322005143,"436":0.0793025520109123,"437":0.032550737090172484,"438":-0.030727099396475367,"439":0.02915011780908949,"440":0.015435562455510947,"441":-0.03288862697483881,"442":-0.05830625548639797,"443":0.05893591311230714,"444":0.04344568506671227,"445":0.041036639481006484,"446":0.04345570557201909,"447":0.07506045319979464,"448":-0.0759373443480019,"449":0.05190320042273258,"450":-0.010786868253797498,"451":-0.03822560670937683,"452":0.0036713394963994793,"453":-0.021675067771039003,"454":0.005864580430551349,"455":-0.04371353858894751,"456":-0.013464483343471707,"457":0.01697965045330493,"458":-0.025635447635482412,"459":0.030227415967763835,"460":-0.03840223420898508,"461":-0.01730062774669218,"462":0.06956649384295087,"463":0.007047465697705538,"464":-0.005844146286275699,"465":-0.023744684379302074,"466":0.005410445614354681,"467":-0.08160249631861727,"468":-0.01002584783811619,"469":0.026360376260998516,"470":0.011856756941430248,"471":0.029698843416685664,"472":-0.03346911214989537,"473":-0.005473643824246128,"474":0.012510727232462592,"475":0.02529272067512569,"476":0.03952259622182209,"477":-0.059631770633593754,"478":0.06118356028325717,"479":-0.010350194167168153,"480":0.12320702020168674,"481":0.0003847540550868658,"482":0.0031275765215370748,"483":0.0009792722792689773,"484":-0.005253027500144593,"485":-0.08981382763736544,"486":0.0473011549045147,"487":-0.0016036724733396847,"488":-0.0080450725825754,"489":0.02671475734744555}},{"sx":1,"sy":1,"depth":490,"w":{"0":0.04459562693007525,"1":0.03271401361913424,"2":0.025436258145140035,"3":0.061994723065303306,"4":0.021576435129213714,"5":-0.051827239363558146,"6":-0.05970021336112899,"7":0.03924391552488804,"8":-0.045238662480888765,"9":-0.045561412265386035,"10":0.03976292785945524,"11":-0.022359772140421015,"12":-0.04170953460284266,"13":0.050276931224398504,"14":-0.0404299982412571,"15":-0.05925316089489009,"16":-0.029195973905217294,"17":0.007346643284570807,"18":0.00103203887112614,"19":-0.02389885991690315,"20":-0.06017687703162758,"21":0.06375092242010913,"22":-0.03666968998157224,"23":-0.053852712170116813,"24":-0.02933433261427304,"25":0.06547605547770732,"26":0.03661937934340629,"27":0.035078849532511384,"28":-0.07160926503934092,"29":-0.018915119103599776,"30":-0.007643959911513535,"31":0.0655975366078397,"32":0.06509756335070578,"33":-0.015239220203271975,"34":-0.009965559766002021,"35":0.04459550192584177,"36":-0.10177216498357251,"37":0.03182284698960012,"38":0.017759682390254782,"39":-0.0405573710029139,"40":-0.03859293894808789,"41":-0.00978674154726141,"42":-0.09924495828682595,"43":0.02613017615066047,"44":-0.02075747263805092,"45":-0.038739097301438014,"46":0.036816831056644336,"47":0.02420733638857521,"48":-0.050858595933812055,"49":0.011711751417168391,"50":0.0026836768436880364,"51":0.017590182774801382,"52":-0.03288758585843065,"53":0.038865525791119314,"54":-0.01712034420913444,"55":0.00090367210146763,"56":-0.11171187210815345,"57":0.04661952355415571,"58":-0.0014704736875412675,"59":0.010112096201321022,"60":0.020034193503933803,"61":-0.02176715204133732,"62":-0.01552993121387929,"63":-0.0039035267069516878,"64":-0.02819845315741255,"65":-0.01479505412861957,"66":0.009191859279656918,"67":0.05409000506634509,"68":0.05895429528994693,"69":0.060846957241997034,"70":0.004925172440475522,"71":0.026035017940578588,"72":0.004202735270151292,"73":-0.008590743230781794,"74":-0.036529799478590114,"75":-0.0400821150320497,"76":-0.052795927380541514,"77":-0.028950844448919436,"78":-0.06768443874281878,"79":0.05454143091607204,"80":0.06897526019098428,"81":0.02155398877586854,"82":-0.044851846906756546,"83":-0.039793975032589815,"84":-0.021949063283547263,"85":0.014292096448893378,"86":-0.060234554383874685,"87":-0.031782225411167604,"88":-0.06845335129866685,"89":-0.0475416725629843,"90":0.040391573582106155,"91":-0.013804565699419598,"92":-0.006846221932389498,"93":-0.0005880637583675989,"94":-0.05743537654967743,"95":-0.03322992600930947,"96":0.005957893738455973,"97":0.03908879491129964,"98":0.022280344853790438,"99":-0.02845724127851714,"100":0.020549938902533246,"101":-0.012642403642172539,"102":0.03727776695117003,"103":-0.008950107871999739,"104":-0.004347963383234368,"105":0.0686882855763151,"106":-0.08312739528873012,"107":0.04503088740926179,"108":-0.02079182938746428,"109":-0.013183639758676658,"110":0.028333972890254175,"111":-0.06297093684099464,"112":0.0033782528115769506,"113":-0.03739895580320164,"114":0.020121056583346286,"115":0.051177233440578854,"116":0.013289099802694966,"117":-0.06292985973683524,"118":0.022426924561242897,"119":0.009868811864650896,"120":0.00013231315735354104,"121":0.008556570043784363,"122":0.004655776598843642,"123":-0.03695595393068295,"124":0.04679366271236189,"125":-0.0397985360418393,"126":0.02344312967494105,"127":0.00884428807732894,"128":-0.030294826194599753,"129":0.08536356075781343,"130":-0.04039561377576475,"131":0.03218390295659106,"132":0.0160695499575677,"133":0.049056195406079285,"134":-0.028186219129424633,"135":0.0435303040552495,"136":0.08881413831359859,"137":0.005346512695235521,"138":0.040667352535851624,"139":0.08537971874411233,"140":0.028017047335896307,"141":-0.09042392856531369,"142":-0.023293800369433272,"143":-0.06321907929686806,"144":0.08352377654819786,"145":-0.013099041701473496,"146":0.04081707591468037,"147":-0.05220734796241544,"148":0.013371166518190826,"149":-0.04465026597656041,"150":0.000022860293100231095,"151":0.02791521782814003,"152":0.055081807290048676,"153":-0.023846353881653317,"154":-0.03496315195418112,"155":-0.046580795333623325,"156":0.07364647794739418,"157":-0.01982969950616882,"158":0.028627827100600384,"159":0.00023022337811378154,"160":-0.01101622784491878,"161":-0.024527571017911767,"162":-0.05277037670228251,"163":0.014005247826490637,"164":-0.035080403776529066,"165":0.0037892689470400906,"166":-0.003171205298159903,"167":0.021977114647474278,"168":0.008796668257027478,"169":0.010506969932241091,"170":-0.05525687214525014,"171":-0.047782674170734965,"172":0.06021142149498275,"173":-0.03334258310043358,"174":0.010537146466684225,"175":0.0446158717064849,"176":-0.007968114747085435,"177":0.042604940117264026,"178":-0.011857249422884507,"179":-0.02283873189583542,"180":-0.03000941013549107,"181":0.011490154804890858,"182":-0.035921827567217186,"183":-0.04496725484583392,"184":-0.04004923487600725,"185":-0.02655159773115223,"186":-0.02990997569033035,"187":-0.07166041230446932,"188":-0.03839120772087822,"189":-0.06551025044707312,"190":0.11744906329700464,"191":-0.07062105857624608,"192":0.048536832656965935,"193":0.07205710495836125,"194":0.019137336288864677,"195":-0.001192874540790418,"196":-0.03163211872788068,"197":0.015993830301627387,"198":-0.028838086095510616,"199":-0.018920445449019815,"200":0.015822349732767815,"201":-0.01868625600548881,"202":0.047369000776920044,"203":-0.03468605096073797,"204":-0.011358367146042249,"205":-0.007485397211801772,"206":-0.043881296889136036,"207":-0.017114288057728556,"208":0.033431653561656755,"209":-0.021320388675347163,"210":-0.03539153506129351,"211":0.05659556425499605,"212":-0.003531736944138428,"213":0.018767790804171073,"214":-0.08420677476191049,"215":0.031469765622010516,"216":0.029083316533858664,"217":0.0025505077101388787,"218":-0.03566227608519517,"219":0.03937720306222482,"220":0.09297964655442217,"221":-0.03248765922218415,"222":0.026256833119016703,"223":-0.022742210509612754,"224":-0.04198975261617995,"225":0.053238534924874896,"226":-0.0008488015281676986,"227":-0.011633483793580712,"228":-0.050017230599747615,"229":-0.01260736305490776,"230":-0.011714001907419676,"231":-0.009482617144144308,"232":-0.01152730044102201,"233":0.004989013747860463,"234":-0.04439316228492722,"235":0.04977274936779845,"236":0.03227479385077643,"237":0.0612525943646232,"238":-0.01341699752009707,"239":0.007458651566001746,"240":0.01847976900695213,"241":-0.02474236163116376,"242":0.01637104081848226,"243":0.08298534408736788,"244":0.0834467881738479,"245":0.028719111906929076,"246":-0.014948459292254006,"247":-0.009440013505982578,"248":0.04285119864540467,"249":-0.011790818267047566,"250":0.03284476559534336,"251":0.13214136510058655,"252":-0.025403240909130497,"253":-0.08778460397650859,"254":0.019490583120984575,"255":-0.03296926975491382,"256":0.026518704602006383,"257":0.03493166281811147,"258":0.0018511861959732273,"259":-0.019130206938156976,"260":-0.02680238215878705,"261":0.06618426246655523,"262":-0.0068587483504392146,"263":-0.07208763880650305,"264":-0.023699664297864787,"265":-0.01520196697522387,"266":-0.002226530771192326,"267":-0.011708756089148979,"268":-0.03931353300912078,"269":0.060864449543017514,"270":0.014631389803631554,"271":0.009632757653775142,"272":0.06765420491404465,"273":0.015138576671493051,"274":0.048564755252596924,"275":0.011234878817045199,"276":0.012810587150098045,"277":0.05985525082047349,"278":-0.03768389355545111,"279":0.012229761338229972,"280":0.061432090059432405,"281":0.0316086297146993,"282":-0.030438059966607665,"283":0.015571111425167945,"284":0.03446164826418332,"285":-0.023443516818547217,"286":0.04224562131477211,"287":0.041372151810198515,"288":-0.04074721702852272,"289":-0.02011604371087316,"290":0.004597729130705264,"291":0.0027954854083923546,"292":0.041319659294450674,"293":0.010331470930313148,"294":-0.009257971974052913,"295":0.013779200453171438,"296":-0.03479749426822977,"297":-0.0052692607612363765,"298":-0.002325062718651839,"299":0.02658765996774914,"300":-0.005480101416419153,"301":-0.056351762518991176,"302":-0.01203019400182619,"303":-0.007123307019095235,"304":0.03781066618346261,"305":0.02120515273393911,"306":0.01930357919574137,"307":0.08851104589203021,"308":-0.0875159344206979,"309":-0.03050411388612842,"310":-0.004446543346571176,"311":0.006426299925430412,"312":-0.0022805520021012787,"313":0.01049961566640585,"314":-0.0029022581109879337,"315":-0.012606742080431468,"316":0.05984146930308384,"317":0.01856646756579132,"318":0.07311631404023551,"319":-0.024103353134781676,"320":0.023018217120674825,"321":0.033696417226114016,"322":-0.015043113277203077,"323":0.021333602748483768,"324":-0.031048523860744744,"325":-0.050024973643576186,"326":-0.005116664361299826,"327":0.0015724725618627047,"328":-0.08957687674128782,"329":0.0038029417747693865,"330":0.021643011328399676,"331":-0.006067139625386646,"332":-0.018194517206831174,"333":0.024177419846824397,"334":-0.04047346729698907,"335":-0.06787398618236934,"336":0.0720750727290095,"337":-0.018062814789726798,"338":-0.09584478796079533,"339":-0.07083397842386553,"340":0.025990805536868236,"341":-0.0032777522815131367,"342":0.031124399584997173,"343":-0.041609432172953965,"344":-0.02052360654783999,"345":0.03928809997017893,"346":0.014512674203634663,"347":-0.030456514707293224,"348":0.03617903281362733,"349":0.043010278905441825,"350":-0.015557343085373154,"351":-0.04933363197631341,"352":0.09214560622570075,"353":-0.0178740883167758,"354":0.04686642884292421,"355":-0.0073362507543698755,"356":0.0017889343546266387,"357":0.04394796435119526,"358":-0.04885746125502622,"359":-0.017494408948152927,"360":-0.07811442958879714,"361":0.003523071245240223,"362":0.05583612931051374,"363":-0.023419947091304398,"364":0.04937783636666661,"365":0.004904815672336415,"366":-0.028418901288680444,"367":0.03193565396124519,"368":-0.015622521570190721,"369":0.03488897611542831,"370":0.03196085258020687,"371":-0.058378379576442735,"372":0.02921589376276203,"373":0.04693728275989666,"374":-0.04502131456657821,"375":-0.0843528251793951,"376":-0.007994882546601835,"377":-0.03187084972297729,"378":0.01672975129325834,"379":-0.05201304360089399,"380":0.03036348577235657,"381":-0.007435769396644347,"382":0.011251667255309374,"383":-0.01542645918296993,"384":0.07391174059569966,"385":0.010102380000141598,"386":0.014766582931622392,"387":0.008864054432874543,"388":0.021372569556111318,"389":-0.014924542841575223,"390":-0.09331387121035253,"391":-0.022862379017643115,"392":0.028306263176025914,"393":-0.09292064227221368,"394":-0.09859741941632647,"395":-0.0192396587497692,"396":-0.003897504615154897,"397":-0.03372186916498656,"398":-0.019252172041905775,"399":0.0432798014595558,"400":0.04062097422512868,"401":0.04335723964689037,"402":0.0712167649154459,"403":-0.06760681813388603,"404":0.016594720433657582,"405":-0.028021458505168136,"406":0.06611366543898528,"407":0.05565601933993372,"408":-0.013645678739316705,"409":0.03724552246629048,"410":0.01805288063218661,"411":0.014803799552208062,"412":0.050310649216259926,"413":0.04940927719266981,"414":0.0653478548373378,"415":0.06887121243055427,"416":0.008630084111585248,"417":0.09602429988739655,"418":-0.045218784013887854,"419":0.029860266022721533,"420":-0.0592429792402023,"421":-0.09708819439835346,"422":0.06330817284334056,"423":0.0703080896701202,"424":-0.05045528931709722,"425":0.025127837385887752,"426":0.03731746401870846,"427":0.03490183852263634,"428":-0.048278670630110265,"429":0.03242292053865723,"430":0.0017458264263080082,"431":0.016539095949723862,"432":-0.04370993297182644,"433":-0.02493946618036871,"434":-0.022270088286869192,"435":-0.03219533710446796,"436":0.035706542278451964,"437":-0.013941571664577922,"438":-0.031028828134364084,"439":0.03660825873333814,"440":0.019061014307702934,"441":0.00993596201740421,"442":-0.036537900244545944,"443":0.019802606539803383,"444":-0.02357214247159787,"445":-0.000011116280693570251,"446":0.031128684151261642,"447":0.0069488951076680915,"448":0.11252427359774098,"449":-0.05232830080679164,"450":0.00997348017997379,"451":-0.022835621751970746,"452":0.027559894711016,"453":0.047463570918159476,"454":-0.016117788529085735,"455":-0.016243363573053688,"456":0.009242835801598345,"457":0.11468291316007544,"458":0.06312942529281677,"459":-0.08073849813844515,"460":0.0075157883874418996,"461":0.0010974575845545957,"462":0.07782444921145364,"463":-0.05268156466566128,"464":-0.03383314797554858,"465":-0.03902555238560874,"466":0.000850973171579592,"467":0.0031371657671263103,"468":0.06277213338307136,"469":0.003012946280305806,"470":-0.01933737924226922,"471":-0.03486250252511452,"472":0.02193108154489128,"473":0.0162060126433601,"474":0.022948384762447024,"475":0.010316628407617746,"476":-0.021586922128731225,"477":0.07047288714668441,"478":0.005084035964743713,"479":0.010503820526178051,"480":0.012303302552055629,"481":0.028570720211235256,"482":-0.005661732084205704,"483":-0.029998590445577806,"484":-0.0573561354743453,"485":-0.03131415114565302,"486":0.04526697553819429,"487":0.015548039956111918,"488":0.05920208171696408,"489":0.041412035042584706}},{"sx":1,"sy":1,"depth":490,"w":{"0":0.015636447607808652,"1":-0.02365908380947726,"2":-0.005056480560075472,"3":-0.020297549855602486,"4":-0.026345329370969926,"5":-0.021282180814213975,"6":0.03658592262951479,"7":-0.0035930603794243083,"8":0.034831486007465814,"9":-0.001520014575218138,"10":-0.0511964951593028,"11":0.003592847995246188,"12":-0.023984213060845815,"13":0.059800558580216163,"14":0.025834002640082072,"15":-0.0058917571380206315,"16":-0.021461469713279648,"17":-0.04148561991503491,"18":-0.07844061927777841,"19":-0.0037088351519093117,"20":0.06421495444048363,"21":0.04473236671582661,"22":-0.006208951241671949,"23":-0.0039746160018158385,"24":0.029673779448666747,"25":0.049793404800948196,"26":0.1077150848246724,"27":0.04872783213102998,"28":0.021652800317463933,"29":-0.028378662458249822,"30":0.06331265109675292,"31":0.015184671570262927,"32":-0.05001645827249631,"33":-0.10071260178879612,"34":0.020644263229280438,"35":0.004544749012858313,"36":0.06393195612593014,"37":0.0006270497099183627,"38":0.05642681254850506,"39":0.04141726817163994,"40":-0.012365323915187906,"41":0.03604305710079257,"42":-0.06456375687086947,"43":-0.022709400991934848,"44":-0.08895070801761393,"45":0.05446190699267451,"46":-0.0931632280505492,"47":0.0064544688079211454,"48":0.0038786643864597383,"49":0.10245373002278688,"50":0.008213915230966092,"51":-0.0070572694205527624,"52":-0.00602102355089893,"53":-0.026030006674037712,"54":0.0037257246230231085,"55":0.0289082964289965,"56":-0.0668713058383356,"57":-0.007621199123935752,"58":-0.028640147127912588,"59":-0.019073620224021443,"60":0.0034022957979816504,"61":-0.08576085036009998,"62":-0.0697150100145502,"63":-0.10250444228714892,"64":-0.00021984991647574289,"65":0.013425709316597575,"66":0.020432955901390108,"67":-0.04558522594050823,"68":-0.020630148315058036,"69":-0.012525338410613911,"70":0.012751613403079138,"71":0.07815879342486538,"72":-0.04461853052292466,"73":0.0053763545651650734,"74":0.07059313417715299,"75":-0.021907031336138836,"76":-0.07608875021515377,"77":0.03554853119596892,"78":0.009146600240706222,"79":0.049003841259710315,"80":0.00787437546732174,"81":-0.037528435912785735,"82":-0.020926639934644237,"83":0.031515662931627754,"84":0.008385656173639813,"85":-0.06650822622817781,"86":0.022220317800891932,"87":-0.04239954724573046,"88":-0.012302096847860437,"89":-0.03585607175071217,"90":0.004110866875713644,"91":0.02201035662270163,"92":0.08854578827268073,"93":-0.0643933406728761,"94":0.07419697169976089,"95":-0.04549610976992172,"96":0.012363816942950981,"97":-0.059807625945133655,"98":-0.01214945926443995,"99":-0.04469015278872447,"100":-0.019587003992088826,"101":-0.040556903072757555,"102":0.03154967957221416,"103":0.03517626994782934,"104":0.009030558479704005,"105":0.09224236114689327,"106":-0.03678305788457834,"107":0.02289517639810786,"108":-0.02494179735855958,"109":-0.06332128140585067,"110":0.012094564594770938,"111":-0.0009484325809872907,"112":0.0005326170981996449,"113":0.07177585686741554,"114":0.06529268727443499,"115":0.007260823804116114,"116":0.010762122187009936,"117":0.04127929266164719,"118":0.01700241016447226,"119":-0.011566554410406379,"120":0.10791171885417822,"121":0.058419103435947015,"122":0.034218489033754906,"123":0.07029621720544527,"124":0.042964658111416434,"125":0.010818979624907946,"126":0.016229111855025756,"127":-0.021514976062886416,"128":0.06665530997997453,"129":0.0029653513717670136,"130":-0.013869213221855805,"131":0.05685917426031688,"132":0.02466808278643624,"133":0.0152384712100776,"134":0.042144135738679575,"135":0.03571370061087114,"136":-0.013866772049491655,"137":0.04031529174132762,"138":-0.07905844508837592,"139":0.040310969219054006,"140":-0.1552131001780346,"141":0.020685499656531818,"142":-0.005883783059046261,"143":-0.004595089659739229,"144":-0.041858056659955956,"145":0.045193183338479354,"146":0.018779745843668337,"147":-0.0653750297101528,"148":-0.04813137824672814,"149":-0.012129457616896868,"150":0.035216601690673054,"151":0.06256473739316219,"152":0.026448135426980088,"153":0.015972319359496265,"154":0.04910373477228717,"155":0.002471763774189382,"156":-0.07593537835253629,"157":-0.05969301937614753,"158":-0.025663132080285183,"159":-0.052418153606494815,"160":0.004480275478696412,"161":0.008292815910451458,"162":0.05504578612525908,"163":0.012012747501437762,"164":0.057162412185261885,"165":-0.05420749945879169,"166":0.011679002708045403,"167":-0.01681584125439777,"168":0.022480479868119255,"169":-0.05909847854335347,"170":-0.008133372497363853,"171":-0.0667169228740612,"172":0.02573302434837332,"173":0.06241210375871545,"174":-0.04181394101898695,"175":-0.0035986683605430253,"176":0.02723066099618876,"177":-0.03667462932734684,"178":-0.005432798547102267,"179":-0.015428508593989325,"180":-0.02049197673355359,"181":-0.12859543402358484,"182":-0.010855758179491802,"183":0.008431418531325103,"184":0.0036751823692716774,"185":0.01290312709528074,"186":0.031678635006446666,"187":-0.036216426675526804,"188":0.07268678100696133,"189":0.020424570920261908,"190":0.018924701932359383,"191":-0.09708210000359124,"192":0.028440717877265896,"193":0.03752777134622691,"194":-0.044020920374194694,"195":0.011533978387661068,"196":0.0688988577688601,"197":-0.037170662874762284,"198":0.012892220430556007,"199":0.06357049820194106,"200":0.020695631078385585,"201":0.03745876683106148,"202":-0.0517524415401951,"203":-0.01792903026179294,"204":0.0537309641159176,"205":-0.015432951628350974,"206":0.009356035955980536,"207":-0.08035929344625165,"208":0.10907721691004896,"209":0.050172715129189076,"210":0.004298144490437489,"211":-0.009703088011954153,"212":-0.03226195640963727,"213":0.06698854248655109,"214":0.017395106152227693,"215":0.012289999227301975,"216":0.05047276766248249,"217":-0.07283320881089471,"218":0.001394303640752702,"219":-0.0018335187472990138,"220":-0.03725286853799293,"221":-0.08873773545362891,"222":-0.1456406898567275,"223":-0.0336815386972189,"224":0.08610334818045597,"225":0.06879576788036626,"226":-0.016084534460568272,"227":0.022101169020681696,"228":0.0031092164367882693,"229":0.013738610324709327,"230":0.05473759865843128,"231":-0.036420725316449805,"232":-0.037156556910433326,"233":-0.024542149363865378,"234":0.0043011614148219905,"235":0.02344401250007598,"236":0.010634866645544897,"237":-0.04128281758599697,"238":0.012554401979178958,"239":0.026037499168075795,"240":0.011332028828031495,"241":0.07004150576858625,"242":0.0482134271673571,"243":0.030589152766875644,"244":-0.026261951064568533,"245":0.050204011360672436,"246":-0.01708077089921938,"247":0.03905998010728673,"248":-0.0050631151176179865,"249":-0.011218549562812066,"250":-0.011654649599487615,"251":-0.01468524590158274,"252":0.0003662971393488106,"253":-0.00879477019674909,"254":0.04073359247782284,"255":-0.018899367790245175,"256":-0.020216686522607163,"257":0.021050638058569254,"258":-0.005961393350154884,"259":-0.026173050087383437,"260":0.028907193797909903,"261":0.09045140775282719,"262":-0.03410000558897269,"263":-0.057789409706961066,"264":0.04611755429962317,"265":-0.007490579955688441,"266":0.07069982160955669,"267":0.020620875148969358,"268":0.03983152916405332,"269":0.009633878822245054,"270":-0.0010394677099798643,"271":0.05305616686389541,"272":-0.07443176981316671,"273":-0.03811487779856971,"274":0.051517460486826365,"275":-0.01822421563354274,"276":0.06064300986530002,"277":-0.030157056173734886,"278":-0.11209994552812008,"279":0.03730280714784398,"280":0.004829731260071876,"281":-0.007521328930815533,"282":0.037356127137135174,"283":0.023685864097627234,"284":0.05682020385223554,"285":-0.0038093681022505345,"286":0.016840455580086382,"287":-0.024832208380455724,"288":-0.034061164252930765,"289":-0.020321278704979497,"290":0.01478025789255578,"291":-0.024293284065837924,"292":-0.07766875817513474,"293":-0.026232599017370538,"294":-0.06906602806964478,"295":0.04632273580834706,"296":-0.01947410434846514,"297":-0.08222550124189755,"298":0.028687768207816135,"299":0.03032952345734706,"300":0.0022078868641430987,"301":0.015227004285233554,"302":0.02112456345775512,"303":0.09453984038733163,"304":0.002054994238068088,"305":-0.016461355126420822,"306":0.0024429564789054735,"307":0.046112367394901016,"308":0.01632747262395857,"309":0.019115264543582363,"310":0.04120054960184359,"311":-0.000988153309122052,"312":0.02214927612767575,"313":-0.023520665479600165,"314":-0.021254698793832422,"315":-0.018209724677197257,"316":0.048612602199101074,"317":-0.0027757188542132916,"318":0.03211621934468354,"319":-0.04750528838425179,"320":0.09166825897570734,"321":-0.027401765054473014,"322":0.03527769983612439,"323":0.044012042424222644,"324":0.034416668169756234,"325":-0.030861998916503087,"326":-0.008861194204499143,"327":0.0053958512320797375,"328":0.017580462423534806,"329":0.026832624948555057,"330":0.017837474477267287,"331":0.022595672338065257,"332":-0.034726624109979565,"333":-0.018531011737948477,"334":0.12726953273767855,"335":-0.010055363324524192,"336":0.05265776346353448,"337":0.022532664709770757,"338":0.12424738390357848,"339":0.08485024878687539,"340":-0.04883752542706774,"341":0.05143610252224365,"342":-0.00772143270724143,"343":0.021421098142432274,"344":0.05413312390315309,"345":-0.008047034450531261,"346":-0.028089600077499485,"347":-0.0896285627327689,"348":0.04910110687853347,"349":0.024905725776045124,"350":-0.015737570288509486,"351":-0.007564287092754756,"352":0.019071092013941995,"353":0.07240257620717927,"354":-0.006968755111258281,"355":0.0809733963406946,"356":-0.027559552239846328,"357":0.06268351871167215,"358":0.0781634118392035,"359":-0.04847341571206532,"360":0.060237944665567165,"361":0.08345554293298381,"362":0.020342891382880125,"363":-0.020617667842787207,"364":-0.027264692839999913,"365":0.014439603625596343,"366":-0.07079013332861928,"367":-0.007775892905420755,"368":-0.03585747304971999,"369":0.026287922473693943,"370":-0.04216211793159212,"371":0.05513211340210409,"372":0.048678521412049536,"373":-0.06330923802544325,"374":-0.01838948657501472,"375":-0.023212391035361796,"376":-0.009949972141866555,"377":0.04724626973369709,"378":-0.06631075766413491,"379":-0.02048034226442996,"380":0.026613412612730026,"381":-0.06823003236241852,"382":0.04354216398713128,"383":-0.042605552715667475,"384":-0.00893346068976373,"385":0.04849963285484181,"386":-0.02757809888099729,"387":-0.006193683952715901,"388":0.03526376473628195,"389":0.023315588107167703,"390":-0.011506288906266688,"391":-0.03703184800608753,"392":-0.009118384120199424,"393":-0.08601093247364855,"394":-0.04630032756169498,"395":0.07561062348778085,"396":-0.08271350398175024,"397":-0.011024555118019811,"398":-0.05474067301165694,"399":0.002465009478547683,"400":-0.051780821503171676,"401":0.03802909482969611,"402":-0.0439165790781416,"403":0.005953636084527577,"404":-0.048414199940478006,"405":-0.034413552524985284,"406":-0.09257683404606316,"407":0.005933296753383839,"408":-0.014654290599405251,"409":0.04610238100506825,"410":-0.09330659479558051,"411":-0.04117771472618192,"412":-0.019086892575063647,"413":0.01836525954948057,"414":0.0011170342331157156,"415":-0.030664511714251975,"416":-0.01580882375150478,"417":-0.09306211708737294,"418":0.03372680101794296,"419":-0.08141892799529525,"420":-0.029097466775805773,"421":-0.051646994381990406,"422":0.028998183645168294,"423":0.026652776372583058,"424":0.02481499231812173,"425":0.011703926468329021,"426":0.014866463698280546,"427":0.0013898629671178508,"428":0.011454808473306407,"429":-0.04695431832246177,"430":-0.02677236296303278,"431":0.014964409898451894,"432":-0.035969240332010814,"433":0.031893282958376956,"434":0.09517211223970665,"435":0.05543036399677643,"436":-0.02256426134495342,"437":0.036829177099659306,"438":-0.057222647782114985,"439":0.06413256776527348,"440":-0.0002798737520869836,"441":-0.020587819410524934,"442":0.04969759756140452,"443":-0.022974571772408133,"444":0.024818977553838047,"445":0.02686254053564793,"446":0.010187323893762536,"447":0.03452056081364319,"448":0.03491732489092214,"449":0.022743154708284335,"450":-0.020932997829247842,"451":0.033701909495271215,"452":-0.00847033055462535,"453":0.08894987100249067,"454":-0.022407200837703374,"455":-0.03494401251737493,"456":0.05084176366913407,"457":-0.001102293883054863,"458":0.011080967798236726,"459":0.022762932918822372,"460":-0.07044528453945698,"461":0.0280678542144061,"462":-0.026324147726730737,"463":0.0038707637451852596,"464":-0.0028241474735321115,"465":-0.012428532467706683,"466":0.051380356845051385,"467":-0.06568570447019219,"468":0.012038142416565744,"469":-0.061545180977511355,"470":-0.09047889369222013,"471":0.0704675895353845,"472":-0.015432913475012447,"473":-0.0779243282068909,"474":-0.010040132949391184,"475":0.01899752765329349,"476":-0.11981841136521618,"477":0.10153555933129775,"478":-0.07768978627842407,"479":0.017411354068590137,"480":-0.020594690518890207,"481":0.04769700769318357,"482":0.05413595470148614,"483":-0.000709038097267258,"484":0.031070802155428297,"485":-0.062344513949538376,"486":-0.01763308333000286,"487":-0.05687006547288909,"488":-0.003696844786482158,"489":0.03750633881307358}},{"sx":1,"sy":1,"depth":490,"w":{"0":0.0553761642921213,"1":0.01859063027641864,"2":-0.02176312595367838,"3":0.030654099012482682,"4":0.08340423479140971,"5":0.0719887840595667,"6":0.012443306120385762,"7":0.02867546768921609,"8":-0.03175484907812131,"9":0.0016370009878965608,"10":-0.06724853487460833,"11":-0.021394265877099583,"12":0.040264793095397176,"13":0.026443910846723463,"14":0.06625421693613108,"15":0.004196395347346309,"16":-0.08282229136002076,"17":0.04814025425853973,"18":-0.047882894343081094,"19":0.04541349717750565,"20":-0.002734337890466766,"21":0.0039191349443051665,"22":-0.023848489818304244,"23":-0.0074913421045880915,"24":-0.011285158754341511,"25":-0.029801494368523994,"26":-0.0016518571789832283,"27":0.017360171751221957,"28":0.01768157497920286,"29":-0.03583369529200939,"30":0.01317467499147956,"31":-0.02735971665552603,"32":0.020821243404515435,"33":0.02084277945010813,"34":-0.03813604658774934,"35":-0.12225243067267565,"36":-0.0567144452211013,"37":0.058208476215229336,"38":0.0009197382177340238,"39":0.04542106687737778,"40":-0.012832653172081846,"41":0.047590361762902926,"42":-0.04781830742575778,"43":-0.05149779316318366,"44":0.03759565636586871,"45":-0.014282286755058783,"46":0.022258125630218395,"47":0.06549468301271305,"48":-0.027073867894226878,"49":0.08740406484368192,"50":0.037871850453240215,"51":-0.008234983650049234,"52":0.04586392315825225,"53":0.06877914670643458,"54":0.004922084188491275,"55":0.011551633840690353,"56":-0.03915007877065821,"57":0.058597454359699534,"58":-0.16263559792134796,"59":-0.00582982180502783,"60":0.06171209426857149,"61":0.038310642082460315,"62":-0.052722778687186715,"63":-0.023036107051376636,"64":0.0011151714032516316,"65":-0.039236711038225736,"66":0.09955660996837822,"67":-0.006910785452546589,"68":0.006633397961139273,"69":0.032408072108457656,"70":-0.045374431286445076,"71":0.07352679574982074,"72":0.011470638267507847,"73":0.0680624418631775,"74":0.013742591257394706,"75":-0.0008609235598260972,"76":-0.07474915608903303,"77":-0.03853659258572206,"78":0.016515776654637094,"79":0.014030085184185484,"80":-0.014502773139528295,"81":-0.03493623707321602,"82":0.0007106989845003317,"83":-0.008736016606297947,"84":0.028073278781719776,"85":0.022882123693865084,"86":0.043625512106024736,"87":0.03267905495944287,"88":-0.005334466773977195,"89":-0.05107885840487075,"90":0.031470458879255314,"91":-0.08766812230544471,"92":-0.00035042853719486575,"93":-0.02898414066447609,"94":-0.050138653805981856,"95":0.011216875313088506,"96":-0.007346493240594146,"97":0.011041684110933774,"98":-0.12242599492811297,"99":0.06972632512508138,"100":0.07227868912655219,"101":0.0763348283424152,"102":-0.00830291489691074,"103":-0.005338801805446432,"104":0.012204927937477203,"105":-0.009995753073020912,"106":0.020304356911130403,"107":0.0850205700660261,"108":0.08969334420160595,"109":0.056731115565676817,"110":-0.01801814788190168,"111":-0.06378802868103778,"112":0.013780565417901748,"113":-0.053728664369753903,"114":0.01308641998315196,"115":-0.020130457392583546,"116":-0.016911209402713318,"117":-0.03912263413144053,"118":0.05908081038924629,"119":0.03300261453094365,"120":-0.029460737536895196,"121":-0.06988498057483745,"122":0.06777071623989286,"123":0.04041222716633016,"124":-0.04719882535574684,"125":0.011329136980839694,"126":-0.038934297965975063,"127":0.07301619181970286,"128":0.0029822320719210442,"129":0.02322957091282641,"130":0.047241410706254434,"131":-0.01312010127905416,"132":0.013561232293129903,"133":-0.036370132494558914,"134":-0.07567074014243651,"135":0.04297834354207394,"136":0.05855889964794841,"137":-0.04722356326638036,"138":-0.00589414794494025,"139":0.004919473044025032,"140":-0.009683731666782047,"141":0.015120212881116932,"142":-0.04006479108506423,"143":0.016373948062308595,"144":-0.01805195232103297,"145":0.10664383387868705,"146":0.02917299951490984,"147":0.04338456944213442,"148":-0.008672042980227196,"149":-0.02495895352178804,"150":0.005845964606521069,"151":0.03037483187252749,"152":0.07073632543030474,"153":0.01157914646201247,"154":0.0073981442577918215,"155":0.06056992570220725,"156":0.04646746423192238,"157":-0.06015562886985373,"158":0.03559761399399407,"159":-0.004437274395470707,"160":0.0005311669617610768,"161":0.02180577301372726,"162":-0.006855597486578742,"163":0.03738708730008278,"164":-0.06390187674225073,"165":-0.059518036677960476,"166":-0.00927904518342736,"167":0.02915902088012518,"168":-0.0017672381343659823,"169":-0.04763948503834148,"170":-0.029233625404692855,"171":0.013730648491778474,"172":-0.061801067660456725,"173":0.08558248493952048,"174":0.028273739627741653,"175":-0.044679022423630234,"176":0.056055225360910656,"177":0.0026967429551012032,"178":0.007915110168858314,"179":0.026309013454470377,"180":-0.019748926674881376,"181":-0.04716041227695143,"182":-0.06892201200616882,"183":-0.02994695378041358,"184":-0.0010668696115611754,"185":0.02930710732431748,"186":0.0699189785596078,"187":-0.016142106896714074,"188":-0.004618071772542673,"189":-0.0436527204446493,"190":-0.03407557068014314,"191":0.03216656594367307,"192":0.07330529975369036,"193":-0.0026853772495306176,"194":-0.02022151126688801,"195":0.017785489133594224,"196":0.003502525769327018,"197":0.01367271132647179,"198":0.003630541544857766,"199":0.015724980251356085,"200":-0.048654413759536046,"201":0.010225571637521835,"202":0.06893785075559022,"203":-0.04772739593983957,"204":0.0012751646797009384,"205":-0.07407750681460643,"206":0.04698763258205487,"207":0.0030621921759310306,"208":0.019883411151281664,"209":0.026949845100735264,"210":-0.010190296097918536,"211":0.06274808763097996,"212":-0.03536244008335577,"213":-0.04651021454671192,"214":0.04849831779590418,"215":0.004548947989121348,"216":0.013736397571486201,"217":0.03090549278196395,"218":-0.07095906362073874,"219":0.0375837603358252,"220":0.00019282926629099405,"221":-0.0929497185413983,"222":0.043353674401138825,"223":-0.04938794214537579,"224":0.04603370416580825,